%YAML:1.0
cvHOGClassifier: !!opencv-object-detector-hog
   winSize: [ 192, 64 ]
   blockSize: [ 16, 16 ]
   blockStride: [ 8, 8 ]
   cellSize: [ 8, 8 ]
   nbins: 9
   derivAperture: 1
   winSigma: 4.
   histogramNormType: 0
   L2HysThreshold: 2.0000000000000001e-01
   gammaCorrection: 1
   nlevels: 64
   SVMDetector: [ 6.46332232e-03, -2.74877669e-03, -2.11591669e-03,
       -3.77241522e-04, 2.96045765e-02, -1.64917130e-02, -1.02274297e-02,
       -2.63010077e-02, -1.02867717e-02, 4.93019959e-03, 8.28433316e-03,
       -4.69799014e-03, -3.74483573e-03, -1.84404794e-02, 1.67784318e-02,
       -7.65109900e-03, -6.21606410e-03, 6.28198311e-03, -9.55738500e-03,
       6.50413753e-03, -1.83145551e-03, -1.41559523e-02, 1.56877581e-02,
       1.29605010e-02, -1.70305613e-02, -1.38821844e-02, -1.30053936e-02,
       1.65373795e-02, 5.07578142e-02, 4.26875353e-02, -3.04699074e-02,
       2.20059622e-02, -7.64331035e-03, 4.51948913e-03, 1.79239046e-02,
       -1.51316763e-03, -1.84192825e-02, -1.14503503e-02,
       -3.44692846e-03, 2.30493862e-02, 2.25860793e-02, -7.23710470e-03,
       -5.81593961e-02, -3.16765010e-02, -2.95674242e-02,
       -7.60209607e-03, -1.64643954e-02, -4.13692929e-02,
       -3.39265428e-02, -3.45926248e-02, -1.05874045e-02,
       -3.02591715e-02, -1.06867496e-02, -4.32194117e-03,
       -1.56963523e-02, -2.91784061e-03, -2.89276410e-02,
       -2.03088913e-02, -2.70480895e-03, -6.97225751e-03,
       -8.85267928e-03, 6.61500962e-03, -2.68764347e-02, 8.92173685e-03,
       4.13657762e-02, 5.12627326e-02, 9.07385349e-03, 8.55249073e-03,
       1.12150684e-02, 1.28946062e-02, 7.42741302e-03, -2.69775395e-03,
       2.41380092e-03, -2.90273014e-03, -1.63570717e-02, -9.14339256e-03,
       2.99987346e-02, -2.09681205e-02, -4.92162928e-02, -2.55321432e-02,
       -2.39265580e-02, 1.67327039e-02, 1.59093086e-02, -2.38831174e-02,
       -2.44591739e-02, -4.57839742e-02, -2.08586324e-02,
       -2.90526450e-02, -9.56901535e-03, 2.06414494e-03, -1.39620667e-02,
       8.28144141e-03, -3.91290570e-03, -2.10419949e-02, 8.99715535e-03,
       -2.28267182e-02, -1.55341309e-02, -7.56495399e-03,
       -3.78436670e-02, 7.45606199e-02, 7.89913535e-02, 2.37588324e-02,
       1.85252016e-03, 2.73113307e-02, 1.12765813e-02, 3.43883736e-03,
       3.89958471e-02, 3.62652652e-02, -5.76909073e-03, -7.20620621e-04,
       2.40265718e-03, 4.64216806e-03, -1.62809141e-04, -4.20701131e-02,
       -6.18692636e-02, -4.20276634e-02, -1.35849835e-02, 9.90838744e-03,
       -9.80494823e-03, -3.73886675e-02, -2.33143959e-02,
       -4.38271686e-02, -5.89405335e-02, -5.06627001e-02,
       -1.52380075e-02, 1.83567610e-02, 4.29472001e-03, 1.13865295e-02,
       -8.17647763e-03, -4.70810430e-03, 1.30362622e-02, -7.97267538e-03,
       -2.90207937e-02, 8.33678525e-03, 1.40684433e-02, 2.13776734e-02,
       1.71776339e-02, -1.21025294e-02, 2.91349292e-02, 3.00693866e-02,
       8.05719232e-04, 6.22651316e-02, 7.64288455e-02, 1.25237638e-02,
       9.50739346e-03, 1.86937221e-03, -7.60675641e-03, -4.52316570e-04,
       1.35952141e-02, -7.45093971e-02, -4.71399799e-02, -1.08376071e-02,
       3.11927274e-02, -2.28978284e-02, -3.06452066e-02, -2.09147613e-02,
       -2.10338440e-02, -2.77594477e-02, -5.88765331e-02,
       -7.55965384e-03, 6.84077246e-03, -3.89150530e-03, 4.87584714e-03,
       -4.24398994e-03, -3.91710724e-04, 6.37075584e-03, 3.02389823e-03,
       -4.00252780e-03, -1.10326975e-03, 6.67605847e-02, 7.10184872e-03,
       -2.75693480e-02, -5.64288627e-03, -1.07166066e-03, 3.74687463e-03,
       1.07761882e-02, 2.72402912e-02, 5.35300262e-02, 2.60829199e-02,
       9.58476216e-03, 8.71628057e-03, 1.27696330e-02, 3.91866714e-02,
       -2.81726271e-02, -1.43098189e-02, -4.70270626e-02,
       -2.07457747e-02, -1.58729982e-02, -7.48001458e-03,
       -6.85461378e-03, -1.72963983e-03, -2.01353766e-02,
       -3.06529775e-02, -2.24624183e-02, -6.34724787e-03,
       -9.11436230e-03, -2.04642955e-02, -1.57897081e-02, 2.80227400e-02,
       3.31043117e-02, 4.83836159e-02, 4.84034792e-02, -2.16279412e-03,
       3.66130136e-02, 3.24249305e-02, 2.39580832e-02, 4.82924022e-02,
       -2.86712702e-02, -3.51885473e-03, -4.19100747e-03, 2.61299703e-02,
       -1.71447697e-03, 4.19696234e-02, 1.14214458e-02, 1.90419722e-02,
       -3.13721821e-02, 2.90345922e-02, 6.31055562e-03, 2.63896044e-02,
       -4.22417745e-02, -1.05330460e-02, -2.93480679e-02,
       -3.54104117e-03, 1.41908955e-02, -2.05555488e-03, -1.08497702e-02,
       -3.23560298e-03, -1.47943944e-02, -3.93584780e-02,
       -4.03451659e-02, -6.16576895e-03, 1.50159476e-02, 3.13863205e-03,
       4.22251783e-03, 2.30929311e-02, 1.76814385e-02, 3.63226570e-02,
       4.38500382e-02, 3.77760716e-02, 4.32363003e-02, -3.83047038e-03,
       2.24045794e-02, 4.26149368e-03, -4.77512367e-03, -1.10562323e-02,
       1.76864583e-02, -1.99082214e-02, 1.49774849e-02, 1.96925402e-02,
       1.16657186e-02, -2.34201066e-02, 1.15461713e-02, -1.87814925e-02,
       -3.06742778e-03, -5.72754489e-03, -1.84010230e-02, 4.41687508e-03,
       -2.41726707e-03, -2.99097802e-02, -3.40392776e-02, 3.05570359e-03,
       -2.34228931e-02, -8.87372345e-03, -1.37444315e-02, 3.37145291e-03,
       -4.68085706e-03, 1.14169605e-02, 8.34163371e-03, 4.00497112e-03,
       1.37211224e-02, -3.57294790e-02, -1.28433527e-02, -7.94505980e-03,
       -1.73318125e-02, 1.78317800e-02, -7.82006420e-03, -9.63570364e-03,
       -2.43596602e-02, -1.45202121e-02, 1.01787681e-02, 1.47277694e-02,
       2.68956684e-02, 2.12374125e-02, -2.31444128e-02, 2.01811418e-02,
       6.85300538e-03, 3.36002931e-03, 2.75696218e-02, -1.36093702e-02,
       -2.04971470e-02, -1.62398834e-02, 6.00296911e-03, 3.03419511e-04,
       -2.19342411e-02, -4.30106483e-02, -1.70090254e-02, 1.10646300e-02,
       -9.68379527e-03, -2.11515874e-02, 1.53600192e-03, -2.21258774e-02,
       3.82558472e-04, -5.83264790e-03, 8.86679720e-03, -4.49276529e-03,
       1.93272829e-02, -2.70484891e-02, -2.66993232e-02, -3.03802937e-02,
       1.11075286e-02, -1.49630252e-02, -2.55407821e-02, -3.17586176e-02,
       -1.12368632e-02, -2.60265712e-02, -3.24752205e-03, 3.99476513e-02,
       4.18931283e-02, 3.48965847e-03, -8.20909534e-03, -4.55616741e-03,
       -3.81865648e-05, 2.00627074e-02, -1.31164948e-02, -1.06580378e-02,
       -3.24873440e-02, 1.67379417e-02, -2.22180318e-03, 2.26896219e-02,
       -2.21424457e-02, -4.31731865e-02, -2.36864444e-02,
       -3.39202560e-03, -7.22398330e-03, -1.52209047e-02,
       -1.89201180e-02, -1.67888533e-02, -9.89250932e-03, 2.26465892e-03,
       1.60623360e-02, 3.62970941e-02, 5.88684948e-03, 2.97947205e-03,
       1.43052463e-03, 6.92133605e-03, -1.53254243e-02, 5.86320122e-04,
       -1.78026464e-02, -5.68797207e-03, 1.17755588e-02, 2.00800691e-02,
       2.41807383e-02, 4.96103056e-02, 1.63647942e-02, 1.16011305e-02,
       -3.05539221e-02, 1.32158902e-02, 4.84319627e-02, 8.78611431e-02,
       2.04696693e-02, -1.02457376e-02, -7.75872357e-03, -8.32866412e-03,
       9.61665343e-03, 5.57254115e-03, 3.76952317e-04, -2.72449180e-02,
       -1.98845603e-02, -2.42851637e-02, 6.00382080e-03, -2.85886191e-02,
       -2.65391432e-02, -3.71029042e-02, 1.18585685e-02, -5.55825001e-03,
       2.54511125e-02, 9.58576892e-03, 1.06846436e-03, -1.12169841e-02,
       3.46932444e-03, 1.61225640e-03, 1.81329045e-02, -7.75307883e-03,
       1.41385179e-02, -1.02352370e-02, 2.62506139e-02, 1.31994057e-02,
       -8.29591136e-03, 2.37088092e-02, -1.63697377e-02, 2.40558963e-02,
       1.04397610e-02, 2.77481973e-02, 4.20713499e-02, 6.22860380e-02,
       2.96262745e-02, -9.27235559e-03, -1.69825703e-02, 3.41145173e-02,
       -2.58127064e-03, -1.77345760e-02, -6.04705187e-03,
       -1.76920164e-02, -1.75902050e-03, -1.04879336e-02,
       -4.58991621e-03, -1.88869387e-02, -3.31018195e-02,
       -3.70473452e-02, 2.95140035e-03, -1.19417058e-02, 5.50275994e-03,
       -1.14027783e-02, -4.70907008e-03, 6.62226602e-03, 4.32815915e-03,
       -3.82046937e-03, -1.16864974e-02, 3.03356699e-03, 7.06901327e-02,
       8.87048431e-03, 6.50161803e-02, 3.03304847e-02, -1.40105616e-02,
       7.57040083e-03, -5.77097852e-03, 1.73699334e-02, 1.32566337e-02,
       4.18824106e-02, 5.76140434e-02, 5.44639304e-02, -2.63258833e-02,
       -1.18901429e-03, -1.19997999e-02, -5.76303806e-03, 1.35266816e-03,
       1.09899817e-02, -3.44278738e-02, -2.38765981e-02, -2.80879214e-02,
       -2.64502913e-02, 1.17403269e-02, -1.51687786e-02, -2.99429186e-02,
       -5.16915089e-03, 8.21647793e-03, -1.97317693e-02, 1.57493481e-03,
       1.43347783e-02, 1.82541665e-02, 3.72530194e-03, 5.41148009e-03,
       3.06042079e-02, 6.49182051e-02, -5.87896304e-03, 1.73560213e-02,
       2.35868432e-02, -2.19398886e-02, -9.76256654e-03, -6.96719531e-03,
       1.99354370e-03, 1.00425621e-02, -1.00502763e-02, -1.89610422e-02,
       -9.58722550e-04, 2.64941249e-02, 1.58231705e-02, 1.06084049e-02,
       -1.61863286e-02, -1.53865982e-02, 8.26788717e-04, -2.02775542e-02,
       8.08893982e-03, -2.03582477e-02, -3.14777792e-02, 1.28356693e-03,
       -2.61628050e-02, -1.91002397e-03, -1.33444248e-02, 5.28001320e-03,
       -8.85025319e-03, 1.21700643e-02, -1.72778387e-02, -1.36059895e-02,
       -3.26902000e-03, -1.48504404e-02, -2.33652256e-03, 9.36792791e-03,
       3.99167500e-02, 5.75655848e-02, -1.61169358e-02, -9.12579428e-03,
       -1.47643080e-02, -1.41041186e-02, 1.37215471e-02, 1.34428767e-02,
       -5.21053886e-03, -1.64725108e-03, -2.65697180e-03,
       -1.90931652e-02, -2.02350169e-02, 1.61049422e-02, -9.37934313e-03,
       5.57910651e-03, 1.35379964e-02, -4.76637203e-03, 2.14312831e-03,
       5.81088709e-03, 5.80137456e-03, -1.52856279e-02, -1.21787470e-02,
       -1.76922716e-02, -4.83803218e-03, 1.24193309e-02, -6.39913417e-03,
       2.44351162e-04, 1.93981442e-03, 2.67378427e-03, 3.88523331e-03,
       1.53113930e-02, 2.42800824e-02, 2.57596280e-02, -2.19112281e-02,
       -2.64114384e-02, -4.65926435e-03, 8.65523703e-03, 1.46256546e-02,
       -1.61288157e-02, -2.04644110e-02, -2.40045991e-02,
       -2.52265111e-02, 6.77170325e-03, 1.81602649e-02, 1.40469670e-02,
       -1.52092269e-02, 3.87123460e-03, 7.66729889e-03, 2.32556779e-02,
       3.39750014e-02, 1.39086694e-02, -4.65409539e-04, -3.06516234e-02,
       -2.32310034e-02, 5.43544488e-03, 1.55799054e-02, -2.01322213e-02,
       -2.58500129e-02, -1.97384190e-02, -2.97731021e-04,
       -1.14950091e-02, -4.51101176e-03, -7.99934100e-03,
       -1.16368830e-02, 8.60644737e-04, 1.79595761e-02, 1.77673250e-02,
       1.70447379e-02, 1.05761578e-02, -2.29002312e-02, -1.59284994e-02,
       -2.37419400e-02, -1.67780928e-02, -5.76804532e-03, 5.40208211e-03,
       -2.55313441e-02, 1.28958952e-02, -3.19357915e-03, 9.68828984e-03,
       2.77566183e-02, 2.73718126e-02, -9.12090018e-03, -2.83160480e-03,
       1.97431892e-02, -6.94435183e-03, 6.76500574e-02, 3.41244116e-02,
       -1.69837428e-03, -2.18767747e-02, -1.98156014e-03, 3.10324449e-02,
       -3.96415871e-03, -2.77889073e-02, -2.60170568e-02,
       -1.68666001e-02, -8.08058400e-03, -3.08390660e-03, 2.00410075e-02,
       5.39802480e-03, 1.67386932e-03, -2.63731345e-03, -1.02205966e-02,
       6.00401573e-02, 5.50532639e-02, -1.02676009e-03, 9.98669118e-03,
       -1.19511746e-02, -3.34931388e-02, -9.54999868e-03,
       -1.73372030e-02, -2.38733441e-02, -1.99460387e-02, 7.43781542e-03,
       2.54818983e-02, 7.42875319e-03, 1.20387748e-02, -9.36404895e-03,
       -2.20959401e-03, -2.81645195e-03, -1.43237580e-02, 2.37164237e-02,
       -7.85147119e-03, -1.81371272e-02, -1.25897741e-02,
       -2.98192236e-03, -1.83666628e-02, 5.46221295e-03, -3.33265169e-03,
       -3.29077505e-02, -2.73692384e-02, -4.85545769e-02,
       -3.87526825e-02, 1.86923239e-02, 1.43998461e-02, -3.73330113e-04,
       -5.85683098e-04, -1.70858782e-02, -1.24450875e-02, 2.36388259e-02,
       3.76714743e-05, 2.28411940e-04, 3.12135406e-02, 1.75745562e-02,
       -2.62683316e-04, 1.77958217e-02, -7.13695725e-03, 3.95631092e-03,
       -2.93629710e-03, 6.06974261e-03, -1.17419027e-02, 2.46128570e-02,
       1.20011542e-03, 1.56855267e-02, 2.64481306e-02, -5.04073268e-03,
       2.17334069e-02, 4.15760502e-02, 2.39616092e-02, -2.27441248e-02,
       5.71693713e-03, -1.78126767e-02, -1.00771477e-02, -1.88859180e-02,
       -4.90753632e-03, -1.36069469e-02, -8.37132800e-03,
       -2.30320971e-02, -1.05136046e-02, 2.93598813e-03, -2.24958621e-02,
       -3.73060219e-02, -1.13457069e-02, 8.10591970e-03, -2.26569958e-02,
       9.58280265e-03, -1.07703162e-02, -2.12595519e-02, 2.02257056e-02,
       5.64391539e-03, 2.01870911e-02, 1.24363992e-02, 4.64111567e-03,
       2.27117594e-02, 4.22111973e-02, 2.48264000e-02, -3.44413072e-02,
       9.46542714e-03, 4.60631214e-03, 2.70498288e-03, 2.29704622e-02,
       7.35362712e-03, 3.97199503e-04, 3.35858129e-02, -8.77163466e-03,
       -1.04048755e-02, -1.85176861e-02, -2.41260007e-02,
       -1.44762937e-02, -2.34231520e-02, -1.55423228e-02,
       -4.98547032e-03, -7.94441905e-03, -1.15482341e-02,
       -1.90489758e-02, -2.58970633e-03, -3.15721817e-02, 3.36188264e-03,
       -2.80980691e-02, -3.42211104e-03, -1.36311380e-02,
       -2.84204329e-03, -1.37509871e-02, 2.82263383e-02, 7.17133842e-03,
       -5.94017887e-03, 4.69508655e-02, 4.84589040e-02, -6.22425182e-03,
       6.17193095e-02, 3.78188044e-02, -9.11346986e-04, 4.18026596e-02,
       -8.71690718e-05, 5.86678460e-03, 1.28507838e-02, 1.11839976e-02,
       -1.96444057e-02, 3.69868055e-02, 2.84613203e-02, -5.78247244e-03,
       2.43770564e-03, -6.07372355e-03, -1.60919633e-02, -5.07432502e-03,
       -1.92840770e-02, 2.23861937e-03, -1.07064773e-03, -1.09668775e-02,
       -2.69163083e-02, -6.76379399e-03, -6.30909810e-03,
       -1.05358362e-02, -9.82903223e-03, -1.52388513e-02, 1.52794579e-02,
       -7.57999020e-03, -1.42397620e-02, -1.77706201e-02,
       -1.59930326e-02, 1.38679920e-02, 2.28123087e-02, 5.48866428e-02,
       4.86171171e-02, 3.86727378e-02, 3.48107517e-02, -2.56534424e-02,
       -3.42618637e-02, -6.80009322e-03, -7.81476498e-03,
       -1.21589210e-02, -3.68682551e-03, 2.96178437e-03, -5.04765240e-03,
       -9.62467212e-03, -3.83392023e-03, -1.27485069e-02,
       -2.76150927e-03, -3.05158901e-03, -1.61759946e-02,
       -7.96301663e-03, 2.23497115e-02, 1.62441730e-02, -1.74553543e-02,
       -8.28453805e-03, -1.00405710e-02, -1.02173174e-02, 1.02840867e-02,
       1.87540334e-02, -4.56518820e-03, -1.95101853e-02, 2.83368528e-02,
       6.53585419e-03, 3.04286387e-02, 4.09786217e-02, 3.29796374e-02,
       -1.60486232e-02, -1.87692456e-02, -1.19887330e-02, 6.15160819e-03,
       -5.41198533e-03, -1.59753598e-02, 1.98117201e-03, -6.77151699e-03,
       4.03468078e-03, -6.83838781e-03, 2.51170117e-02, 1.67853199e-02,
       -2.51750331e-02, -2.50068810e-02, 1.48642153e-04, 9.68623348e-03,
       6.50347862e-03, 2.85778586e-02, -9.52352304e-03, -3.90430121e-03,
       -4.14995290e-03, 1.71671659e-02, 7.88169447e-03, -3.36571783e-03,
       -3.58117074e-02, -4.72617894e-03, 1.92883145e-02, -2.97771059e-02,
       4.47169552e-03, 1.03551019e-02, 1.71978178e-03, 9.34763160e-03,
       1.63738597e-02, 2.63121556e-02, 7.07027614e-02, 4.19687554e-02,
       -1.36059532e-02, -2.95884460e-02, -3.22509371e-02,
       -3.34744751e-02, -1.16970958e-02, -1.77271664e-03,
       -8.81757960e-03, -1.06230183e-02, 9.42823570e-03, 1.67635698e-02,
       2.92903874e-02, 2.88884137e-02, 3.43412608e-02, 8.64011759e-04,
       2.53608767e-02, 2.30868696e-03, 1.61805842e-02, 2.65929159e-02,
       -3.07109188e-02, -5.62749011e-03, -4.33175766e-04, 3.49951796e-02,
       2.90693878e-03, -1.11545967e-02, -4.18360941e-02, -2.07379926e-02,
       -1.43204909e-02, -1.56459808e-02, 1.49203511e-02, -5.54911979e-03,
       -2.34854035e-02, -1.09312236e-02, 2.40564179e-02, 2.89019644e-02,
       1.02421995e-02, -2.03538258e-02, -3.19398567e-03, -4.71309359e-05,
       -6.98819105e-03, -2.45766304e-02, -9.26254725e-04, 1.03573361e-02,
       -5.78956213e-03, -2.09958712e-03, -6.73560612e-03,
       -1.88447870e-02, 2.41349544e-02, 2.76493132e-02, -4.72733332e-03,
       2.97038141e-03, 2.35810112e-02, -1.18016358e-02, -8.22789036e-03,
       -3.14392298e-02, 6.20613107e-03, 3.25438306e-02, -1.14464760e-02,
       7.96183199e-03, -1.18077397e-02, -6.64771581e-03, -7.78309302e-03,
       -2.72053052e-02, -1.17235985e-02, 1.29499082e-02, 3.63143161e-02,
       -2.79028318e-03, -5.86337177e-03, 2.21029317e-04, -1.07302628e-02,
       -2.00823694e-02, 7.26588303e-03, -1.19580980e-02, -5.79663645e-03,
       1.30938441e-02, 1.50735665e-03, -9.55743808e-03, -7.85482582e-03,
       6.17313012e-03, 2.32039369e-03, -2.09673494e-02, -5.57067862e-04,
       1.46915903e-02, -3.78160970e-03, -2.34938189e-02, -9.67218354e-03,
       1.95465554e-02, 1.65875684e-02, 1.56629942e-02, -2.22700890e-02,
       -1.35763446e-02, -1.01999054e-02, -2.20280308e-02, 2.74738623e-03,
       -2.81142555e-02, -1.94770023e-02, -8.27734638e-03,
       -5.39665017e-03, -2.15018801e-02, -2.81095803e-02,
       -1.20244059e-03, -1.18769845e-02, 5.22403279e-03, 1.30047482e-02,
       5.40448213e-03, -5.99407703e-02, -2.54155714e-02, -1.97715405e-02,
       6.86432188e-03, 2.01225113e-02, -1.51971160e-02, 8.80369172e-03,
       -1.48035595e-02, -1.32159842e-02, 1.15391323e-02, 3.07024345e-02,
       -8.80131498e-03, 2.94289924e-03, -3.10894158e-02, 4.27385652e-03,
       -6.55333046e-03, -1.20094744e-03, -2.44228495e-03,
       -3.26014385e-02, -8.68970156e-03, 1.11156460e-02, -1.98221672e-02,
       -2.90017370e-02, -3.84130217e-02, -6.11005910e-03,
       -3.03645283e-02, 7.34991767e-03, 1.17100812e-02, 1.01385405e-02,
       -1.20456954e-02, 1.87804899e-03, 1.16994977e-02, -7.69055262e-03,
       -1.88137423e-02, -1.25639103e-02, 2.02226788e-02, -2.52064820e-02,
       9.79861338e-03, -9.69769713e-03, 1.38865644e-02, -4.43650689e-03,
       -5.76422876e-03, 5.93315577e-03, 6.64307177e-03, -9.59062856e-03,
       4.19497751e-02, 3.34878378e-02, 4.12578881e-02, 1.50117949e-02,
       1.66689381e-02, -5.91669837e-03, -2.11073998e-02, -1.13744009e-02,
       -2.58914586e-02, -6.48900447e-03, -4.32464015e-03, 3.64308432e-03,
       1.34057039e-02, -1.12521276e-02, 1.41709736e-02, 2.16854326e-02,
       -6.29218156e-03, -1.57613326e-02, 1.07074128e-02, -2.46893615e-02,
       -1.58477332e-02, -9.82074346e-03, -1.63801946e-02,
       -4.58510732e-03, -1.05074653e-02, -1.43485982e-02, 2.91433539e-02,
       -2.88314708e-02, 6.04852522e-03, -1.45016890e-02, 4.99673327e-03,
       -6.28800970e-03, 8.74893460e-03, 2.46281940e-02, 4.03410830e-02,
       8.68513540e-04, 3.62639725e-02, -2.42279563e-02, -3.81539925e-03,
       -1.10807018e-02, 5.23698051e-03, -8.34962539e-03, -1.57506054e-03,
       -6.92999130e-03, -1.26119507e-02, -6.25639781e-03,
       -2.86041126e-02, -1.67674124e-02, 8.83369241e-03, 1.18491864e-02,
       1.37772709e-02, 2.27576476e-02, 1.10978708e-02, -1.33425277e-02,
       -1.67500861e-02, -5.88777522e-03, -1.99897382e-02,
       -1.42084679e-03, -4.05928353e-03, 5.77192195e-03, -1.55715980e-02,
       -2.41391473e-02, -1.74844507e-02, 3.19229886e-02, 5.56046665e-02,
       2.52187867e-02, -4.92270943e-03, -1.71095692e-03, -1.43290656e-02,
       -1.69423576e-02, -2.01079696e-02, -1.10096531e-02, 8.06760788e-03,
       -6.44031307e-03, -2.04244014e-02, -3.89870070e-03, 1.91273447e-02,
       2.00672988e-02, 4.16017175e-02, 1.95100941e-02, 3.37448297e-03,
       6.26724400e-03, 4.43473598e-03, 4.49611107e-03, -1.00648236e-02,
       -3.65680642e-03, -2.46187337e-02, 3.19012534e-03, -8.55820719e-04,
       3.62072922e-02, -1.26245990e-02, -9.52925161e-03, 1.15158313e-04,
       -2.99795996e-02, -1.20061459e-02, -3.46364523e-03, 2.52881050e-02,
       -2.15513669e-02, -3.30255218e-02, 4.50667888e-02, -4.98905865e-05,
       1.56072527e-02, 2.11119633e-02, -1.23168221e-02, -2.93209590e-02,
       -3.30692739e-03, -2.36332673e-03, -8.34772363e-03,
       -1.70805473e-02, -1.06033888e-02, 1.09498939e-02, -1.06616328e-02,
       -6.01502368e-03, 2.32160948e-02, 3.98702808e-02, -5.00846375e-03,
       -5.18603530e-03, 3.52673233e-02, 2.34886371e-02, 2.18742006e-02,
       4.50599054e-03, 1.37911476e-02, 3.03107817e-02, 2.99671125e-02,
       -1.65817402e-02, -7.77976681e-03, 1.48103433e-02, -2.83362474e-02,
       -2.85264831e-02, 3.02086002e-03, -7.39725260e-03, 7.20937829e-03,
       6.22854521e-03, -2.10529715e-02, 6.95832353e-03, 2.82142852e-02,
       -3.83239314e-02, -2.83501931e-02, -1.72103737e-02, 2.13120319e-02,
       2.25832593e-02, 2.58823410e-02, -3.87993343e-02, -4.75747918e-04,
       -9.54347290e-03, -2.25078054e-02, -1.58163197e-02, 1.50721911e-02,
       -5.27177611e-03, -6.11735880e-03, -4.94932272e-02,
       -1.02270283e-02, -1.97626930e-03, 2.25231349e-02, -4.32584994e-03,
       -1.08274398e-03, -3.35382437e-03, 1.95047725e-02, 1.42400973e-02,
       -3.99222746e-02, 1.59039308e-04, 1.84065830e-02, 2.02021729e-02,
       1.06711155e-02, -2.34781858e-02, 5.67030255e-03, 7.88183417e-03,
       2.34478321e-02, -1.65841659e-03, 1.37894005e-02, 1.00350846e-02,
       2.08394602e-03, -1.20047163e-02, -2.20482480e-02, -6.53271470e-03,
       -7.81536661e-03, 2.02410538e-02, -2.42089517e-02, -1.14992950e-02,
       2.67982371e-02, 1.77202199e-03, 3.47450525e-02, -7.28442194e-03,
       -1.06564360e-02, 2.12510973e-02, 1.95939858e-02, -1.84126869e-02,
       8.65636393e-03, 2.50086877e-02, -7.26335496e-03, 7.87932333e-03,
       -2.17714570e-02, -2.17695553e-02, 9.41453315e-03, -1.53392851e-02,
       -2.25638691e-02, -4.20062020e-02, 2.43114103e-02, 6.22595008e-03,
       3.89080844e-03, 7.16575049e-03, 1.43585606e-02, -5.29563474e-03,
       8.58079735e-03, -1.01783294e-02, -1.66677199e-02, 5.19822352e-03,
       -4.58969399e-02, -9.21943504e-03, 6.42676465e-03, -1.71627442e-03,
       3.36946175e-02, 2.84644193e-03, -3.11173289e-03, -2.18246002e-02,
       2.49062628e-02, 6.50492636e-03, 1.08266184e-02, 1.46893999e-02,
       1.20280208e-02, -7.41925137e-03, -9.17888619e-03, -1.49616953e-02,
       -1.91285815e-02, 4.88222241e-02, -1.65406074e-02, -1.83958858e-02,
       2.19753347e-02, -4.06857533e-03, 2.81331316e-03, -9.78761166e-03,
       -1.92004014e-02, -3.55809256e-02, 6.25941437e-03, 2.87799425e-02,
       6.94802031e-03, 1.14536826e-02, -1.15103703e-02, 1.42438048e-02,
       1.31920185e-02, 1.23132654e-02, -5.47737209e-03, 1.84360985e-02,
       -6.03192253e-03, -9.99063626e-03, -2.86306255e-03, 1.11110425e-02,
       -2.02693846e-02, 2.98652286e-03, 8.59761611e-03, 1.16862860e-02,
       -2.42944136e-02, 5.02959937e-02, -3.81540321e-03, -1.00245625e-02,
       -2.51962692e-02, 2.18860619e-02, 1.38654411e-02, 2.93829646e-02,
       -1.07945418e-02, -1.35186093e-03, 9.42966901e-03, -1.20955613e-02,
       -2.95320875e-03, 3.57595668e-03, -4.12311628e-02, -3.71336984e-03,
       8.34530592e-03, 4.77653556e-03, 2.52251304e-03, 1.88442245e-02,
       -1.64716728e-02, -2.61351187e-02, -3.14240307e-02, 4.15743049e-03,
       4.75437287e-03, -1.25938617e-02, 5.38888096e-04, 2.23230032e-04,
       3.54520138e-03, -2.80657355e-02, -1.77461188e-02, 7.93365762e-03,
       2.61842776e-02, 1.14852022e-02, 1.52066713e-02, 3.92465591e-02,
       1.41887534e-02, 6.25902414e-02, -3.29852365e-02, 3.60316131e-03,
       2.00650864e-03, 1.88410208e-02, 5.94636891e-03, -2.30773129e-02,
       -1.19491052e-02, -1.98508576e-02, -1.83970500e-02, 9.15417355e-03,
       -1.24307326e-03, 1.95705565e-03, 8.07582308e-03, -2.17046198e-02,
       -1.72207819e-03, 2.09933445e-02, 2.28032761e-04, 1.16139157e-02,
       -1.52424853e-02, 2.90617440e-03, 4.51428350e-03, 1.43365357e-02,
       -2.93638222e-02, -3.11748288e-03, -1.86447278e-02,
       -1.81832090e-02, 1.09530790e-02, -7.52214203e-03, 3.71347331e-02,
       4.16973466e-03, 7.03448663e-03, -1.65568963e-02, -4.37810794e-02,
       3.93447954e-05, 1.23220589e-02, -8.77816323e-03, -1.47604533e-02,
       2.02826899e-03, -1.13847596e-03, 3.14343954e-03, 4.71327230e-02,
       4.89784330e-02, 1.61168799e-02, -7.62469228e-03, -2.36839112e-02,
       9.50124301e-03, -1.68216694e-02, 2.73127318e-03, -3.99835082e-03,
       -4.08219621e-02, 2.46699676e-02, 1.31001640e-02, 2.23048721e-02,
       -2.08989042e-03, -2.27191672e-02, -5.64053655e-03,
       -1.56292431e-02, -4.94899403e-04, -3.85791846e-02, 1.53182996e-02,
       -1.11927642e-02, 2.06313375e-02, 1.67254340e-02, -7.60908646e-04,
       -7.52358930e-03, -1.92253906e-02, 6.97200326e-03, -1.73286609e-02,
       -2.16513239e-02, -2.73777284e-02, -1.48119843e-02,
       -1.13127045e-02, 7.15470361e-03, -8.49319343e-03, 1.89561751e-02,
       -1.53845353e-02, -3.95885808e-03, 4.93680388e-02, 4.02742252e-02,
       -1.66440196e-02, -1.51417209e-02, -1.58101134e-02,
       -2.70602363e-03, -1.33856563e-02, 2.48928554e-02, -5.64933522e-04,
       1.28526269e-02, 5.52186696e-03, 1.15875257e-02, -2.18398161e-02,
       -1.06532080e-02, -4.33956925e-03, -1.03944773e-02, 2.32558744e-03,
       2.52017602e-02, 3.95178087e-02, 7.65948463e-03, -1.79096628e-02,
       -1.04662087e-02, -7.97209609e-03, -6.91627571e-03,
       -8.79553054e-03, 1.00770509e-02, -1.85916740e-02, 9.47487634e-03,
       -1.83631554e-02, 1.08524840e-02, -1.50797865e-03, 1.11864079e-02,
       -2.69926875e-03, -2.68400926e-02, -1.77820195e-02, 1.93565153e-02,
       7.22062122e-03, -3.51474760e-03, -2.04901714e-02, -1.94023885e-02,
       1.32426713e-02, -6.55211834e-03, -2.26620398e-02, 7.17734452e-03,
       9.98732867e-05, -2.21274961e-02, -5.21015609e-03, 2.58659339e-03,
       1.87720044e-03, 1.35470992e-02, 1.13066314e-02, 9.96062905e-03,
       -9.33760591e-03, 5.81095647e-03, 6.66219508e-03, 2.70230863e-02,
       -2.44557671e-03, -2.56709587e-02, -1.20003093e-02, 3.40988627e-03,
       -1.29931734e-03, -1.86652949e-04, 1.76765583e-02, -9.54309199e-03,
       2.09616031e-02, 3.94554995e-02, -3.64479516e-03, 4.16557910e-03,
       2.10636687e-02, 2.21400633e-02, -2.17447728e-02, -1.06624626e-02,
       1.23621179e-02, 1.02295335e-02, 7.49650784e-03, -1.87240802e-02,
       1.27429394e-02, 3.07726813e-03, 5.56652946e-03, -1.40250558e-02,
       -1.20461741e-02, -4.29484881e-02, -2.67373323e-02,
       -7.49891531e-03, 1.06555251e-02, 1.30596980e-02, 1.01629067e-02,
       -1.10370582e-02, 5.77525003e-03, -8.98244977e-03, 9.41158179e-03,
       2.41560265e-02, -2.08847858e-02, -6.21004924e-02, -2.67226398e-02,
       1.75633207e-02, 1.66574568e-02, -1.49583828e-03, -1.90149937e-02,
       -1.21589471e-02, 3.18110804e-03, 4.98328963e-03, -2.34908629e-02,
       2.32252646e-02, -2.02416889e-02, 1.37847224e-02, 1.15266694e-02,
       -5.52977109e-03, -1.14065669e-02, 3.97696905e-02, 1.30192796e-02,
       -2.13799067e-02, 3.71677727e-02, 1.46851158e-02, 1.27793872e-03,
       -3.86724994e-03, -8.63374025e-03, -1.39901070e-02,
       -2.16432717e-02, 9.62864433e-04, 2.89743114e-02, 4.63043246e-03,
       -9.88469366e-03, 6.25080056e-03, -6.61089364e-03, -1.05095943e-02,
       -4.90454445e-03, -2.44749989e-02, 1.68430824e-02, -1.31096449e-02,
       -4.98598721e-03, 4.01977729e-03, -1.44955805e-02, 5.44408476e-03,
       -2.77678091e-02, -1.97977144e-02, 2.51384508e-02, 3.83489358e-04,
       2.06171367e-02, -1.24328490e-02, -2.68534617e-03, -1.06188143e-02,
       2.15640329e-02, -7.30118994e-03, 6.42272225e-03, -2.25782301e-02,
       -1.69106119e-03, -2.25682762e-02, 6.03644876e-03, 1.15380296e-02,
       9.60741378e-03, -3.43638286e-03, 5.72312903e-03, -4.02148906e-03,
       -1.09207453e-02, -3.34477276e-02, 4.88164648e-02, -3.18704806e-02,
       -8.45922623e-04, -1.69621389e-02, 1.21153053e-02, 8.48526880e-03,
       -1.96057614e-02, 7.13036209e-03, 2.37496607e-02, -5.66616561e-03,
       -8.88618920e-03, -2.92712677e-04, 2.94446340e-03, -4.52791946e-03,
       -6.97156414e-03, 3.37689146e-02, 1.98139194e-02, -1.26915351e-02,
       1.57847721e-02, -2.17378624e-02, 1.27522433e-02, -1.23097254e-02,
       2.80687883e-02, 5.27416635e-03, -9.22706258e-03, -7.37878960e-04,
       6.17733924e-03, -1.54295927e-02, -2.21755095e-02, 3.54873277e-02,
       -1.70325730e-02, -2.21415190e-03, -3.81501112e-03,
       -1.32444808e-02, 2.25095861e-02, -1.33794621e-02, 1.98701071e-03,
       -2.51094648e-03, -1.35936541e-03, -3.09095299e-03, 2.18104031e-02,
       2.21451372e-02, -3.73291993e-03, 1.58709269e-02, 9.69981868e-03,
       4.72507934e-04, 4.37302440e-02, 1.67824756e-02, 2.75217183e-02,
       -3.99250686e-02, -1.05936276e-02, -2.86510382e-02,
       -4.84592095e-03, -2.07800679e-02, -1.47564374e-02,
       -2.05106637e-03, -3.08281765e-03, -2.23786607e-02, 6.38373289e-03,
       1.05326334e-02, 2.86003780e-02, -6.50187442e-03, 1.85625646e-02,
       -1.45674124e-02, 5.93932020e-03, 1.16568785e-02, 2.83399113e-02,
       8.25721212e-03, -4.93361475e-03, -2.27523595e-02, 5.46493568e-03,
       1.31625514e-02, 5.08136861e-03, -3.19108716e-03, -1.38331717e-03,
       -6.54024445e-03, 6.80736266e-03, -2.93256878e-03, 4.57320847e-02,
       2.95217521e-02, 1.18844939e-04, -8.57975683e-05, 1.86969936e-02,
       1.04588745e-02, 2.28276267e-03, -1.97548755e-02, -2.53638811e-02,
       -4.21785042e-02, -2.83913258e-02, -4.61763097e-03, 6.39358768e-04,
       -1.03478516e-02, 1.81377362e-02, 1.27588185e-02, -2.13197786e-02,
       -6.04013400e-03, 7.82381520e-02, 4.00898084e-02, -2.09910441e-02,
       -2.85785142e-02, -1.61223132e-02, -8.17521103e-03, 6.02751086e-03,
       -1.41266435e-02, -2.12299149e-03, 2.82667689e-02, -1.41340878e-03,
       -1.25641376e-02, -3.21228849e-03, 7.74265267e-04, -9.66336578e-03,
       -2.14722045e-02, 1.07178297e-02, 1.26525825e-02, 3.43411714e-02,
       4.07640338e-02, 2.50503458e-02, -1.90058653e-03, -2.93067303e-02,
       -3.47886905e-02, -9.02364589e-03, 5.50957955e-03, -2.35179216e-02,
       3.70707922e-02, -2.66648121e-02, 1.12708239e-02, -2.73264549e-03,
       -1.28553780e-02, -1.03036240e-02, 1.15586687e-02, -1.16287945e-02,
       -1.74423698e-02, 1.99720040e-02, 3.62473540e-02, -2.59573758e-03,
       -2.97361030e-03, -2.73516271e-02, -2.68077198e-02, 6.89606136e-03,
       -2.73839734e-03, 3.69681008e-02, -8.06579832e-03, 3.42410407e-03,
       -3.42968926e-02, 3.20062563e-02, -6.49027480e-03, 1.10679073e-02,
       2.91293580e-03, 1.31783556e-04, -6.45306101e-03, 4.26781550e-02,
       3.58335860e-02, 5.64836012e-03, -2.71874275e-02, -1.12885023e-02,
       -1.00069400e-02, -1.64939498e-03, 3.18022980e-03, 1.10455938e-02,
       1.28721725e-02, 4.98378798e-02, 2.85001891e-03, 2.77214218e-03,
       -8.16305354e-03, 4.59541474e-03, 1.18133137e-02, -4.46854532e-02,
       -1.94173884e-02, 1.91798359e-02, 3.74806114e-03, -1.45462872e-02,
       2.31103431e-02, -6.57870993e-03, -1.54374950e-02, -9.87588894e-03,
       1.31163560e-02, -9.82064288e-03, -3.17755453e-02, -1.23130931e-02,
       -1.21744396e-02, 3.88591476e-02, 2.74688322e-02, -6.79745525e-03,
       -4.06947598e-04, -5.99673344e-03, -2.00315211e-02,
       -1.09157497e-02, 2.70277746e-02, -2.79460708e-03, -3.79218906e-02,
       -4.30993829e-03, -4.03086934e-03, -1.82834081e-02,
       -1.33675747e-02, -4.78052394e-03, 4.78926003e-02, 2.34847292e-02,
       7.46138114e-03, -2.58156029e-03, 2.64252201e-02, -9.36495420e-03,
       -2.25291471e-03, 2.08543185e-02, -1.63629372e-03, 1.29528232e-02,
       1.12313321e-02, 1.96053786e-03, -3.16724330e-02, -1.33782420e-02,
       -1.63697843e-02, 1.08134178e-02, -1.23015128e-03, -5.94842946e-03,
       -5.11110201e-02, -1.00310314e-02, 8.60089529e-03, 4.71085533e-02,
       5.12620471e-02, 1.72360241e-02, -2.09606346e-02, 1.39508070e-02,
       -5.91520546e-03, -3.30899879e-02, -5.82866417e-03,
       -2.82960781e-03, -2.79510282e-02, 6.84918463e-03, 2.04538018e-03,
       6.11232640e-03, 1.09790210e-02, 9.33999382e-03, -4.55711037e-03,
       1.17359618e-02, -9.52340662e-03, 4.57763895e-02, -2.12351065e-02,
       -1.15563627e-02, -1.29744485e-02, 1.39793009e-02, -1.03191137e-02,
       -2.93653663e-02, -3.04827988e-02, -7.81709328e-03, 4.34332434e-03,
       2.30296906e-02, 2.72737490e-03, -1.60498749e-02, -1.34182945e-02,
       -6.06149994e-03, 2.21881177e-02, 3.42086069e-02, 7.75218243e-03,
       -2.91360505e-02, -2.78046634e-03, 1.29764341e-02, 8.07173923e-03,
       9.83747537e-04, -4.66207508e-03, -2.14961842e-02, -6.28798269e-04,
       3.35831777e-03, -2.68551111e-02, -3.57505940e-02, 2.27120463e-02,
       4.51264670e-03, -4.03578673e-03, -1.40147069e-02, 3.22499089e-02,
       5.87405115e-02, -1.98447872e-02, -1.49088679e-02, 3.70305730e-03,
       -1.40473787e-02, -4.02848003e-03, 2.37814710e-02, -2.89210416e-02,
       -3.18019837e-03, -8.92890804e-03, 1.36666177e-02, -1.21217929e-02,
       -7.29272794e-03, -1.40747637e-03, 8.29169643e-04, 1.59768779e-02,
       -9.78249684e-03, -3.40073071e-02, 4.71710972e-03, 8.82050674e-03,
       -8.33287742e-03, 1.09402835e-02, 1.64520070e-02, -4.49538557e-03,
       -2.59131547e-02, -2.27831192e-02, -2.11650804e-02,
       -6.38228899e-04, 2.28212448e-03, 3.06238998e-02, 2.59930100e-02,
       3.36386152e-02, -1.34056071e-02, -1.65769570e-02, 9.72605078e-04,
       -2.96423808e-02, -5.98718086e-03, -2.04710662e-02,
       -3.14683653e-02, -2.16333922e-02, 2.31754892e-02, 3.60996881e-03,
       2.68924516e-03, 9.48229645e-05, -5.54325385e-03, 4.65709199e-05,
       1.02325191e-03, -7.88619090e-03, -6.93594757e-03, -5.55172749e-03,
       1.97019484e-02, 1.37675432e-02, 1.54317589e-03, 4.96862410e-03,
       1.95758808e-02, -5.03929891e-03, -1.98108386e-02, -4.26094867e-02,
       -5.87173970e-03, -1.63662771e-03, -2.65623778e-02,
       -1.57120787e-02, 2.19053607e-02, 4.99646030e-02, -1.12334033e-02,
       1.71702299e-02, 5.22451056e-03, 2.31538992e-02, 1.86809071e-03,
       2.21176986e-02, 3.69428121e-03, -2.64036972e-02, -2.11563837e-02,
       -1.59490854e-02, -9.93520860e-03, -6.59810100e-03,
       -2.77241925e-03, 3.42204794e-03, -1.97693482e-02, 5.55445580e-03,
       5.01974486e-02, 1.95552241e-02, -7.38544017e-03, -2.69516446e-02,
       -3.40149701e-02, -1.53094353e-02, -3.51205245e-02, 2.73072906e-02,
       -2.88016181e-02, -1.53475553e-02, 7.67450500e-03, -3.21092689e-03,
       -1.43022090e-02, -2.41100863e-02, 3.44746280e-03, 1.55834686e-02,
       6.85170712e-03, -1.03562092e-02, 4.53175940e-02, 4.33968902e-02,
       -3.10707372e-03, -1.15532214e-02, -5.73917804e-03,
       -3.06573678e-02, -1.17264176e-02, -1.03152497e-02,
       -2.33199671e-02, -1.35754114e-02, -2.55887639e-02,
       -2.43751844e-03, 1.67603958e-02, 1.70763619e-02, -1.27305584e-02,
       -1.18831154e-02, -9.00544343e-04, 2.09568646e-02, 2.40038466e-02,
       -2.86390330e-03, 2.63560787e-02, 2.91422047e-02, 1.06358957e-02,
       -1.67274345e-02, -1.04384888e-02, 1.19409692e-02, 1.26889674e-02,
       -4.15907912e-02, -3.21148299e-02, -3.85843255e-02, 4.07524891e-02,
       -6.90070121e-03, -8.71783588e-03, 4.21477063e-03, -6.33177580e-03,
       -2.43536718e-02, 6.98667020e-02, 4.71375957e-02, -6.92028413e-03,
       2.71312632e-02, -1.68643091e-02, -4.44282033e-03, 4.49541723e-03,
       7.24500045e-03, -1.71620809e-02, -2.11616252e-02, -2.22927853e-02,
       1.73887443e-02, 1.89233143e-02, -2.50320975e-02, -1.17034223e-02,
       1.97173655e-02, -1.30289868e-02, -9.31211689e-04, 3.83876637e-02,
       -1.13078626e-02, -3.84679507e-03, 4.99252649e-03, 1.37473140e-02,
       -1.45324944e-02, -1.43228229e-02, 2.22490150e-02, 1.54666239e-02,
       2.66669057e-02, -4.26992849e-02, -3.42586637e-02, 4.71972078e-02,
       4.39946651e-02, -1.53386705e-02, -1.12600448e-02, 2.17255251e-03,
       -2.42359191e-02, 4.31042984e-02, 3.62975709e-02, -1.04465978e-02,
       -3.43125947e-02, -5.94384084e-03, -2.16727480e-02, 9.54581410e-05,
       8.41608446e-04, 1.69065446e-02, 4.24064025e-02, -2.62788683e-03,
       1.68662127e-02, -2.23358860e-04, 3.58057059e-02, 1.40724424e-02,
       -1.16030918e-02, -1.42550897e-02, -1.95202418e-02, 2.08459441e-02,
       1.04955863e-02, -1.66932903e-02, -2.17351075e-02, 5.33824228e-03,
       -2.25774404e-02, -5.79445483e-03, 5.98209910e-03, 6.40730280e-03,
       -1.51892295e-02, -2.14241557e-02, -7.01571116e-03, 8.89473334e-02,
       2.62610130e-02, 1.29080126e-02, 1.34385107e-02, 2.25758813e-02,
       -1.69677939e-02, 9.68731649e-04, -2.61184219e-02, 3.23338970e-03,
       -1.44723700e-02, 4.16926621e-03, 3.51839848e-02, 2.58015916e-02,
       -1.66148134e-02, -2.42563151e-03, 1.79397576e-02, -4.78190742e-02,
       1.06695369e-02, 4.06131782e-02, 4.23846673e-03, -6.00318005e-03,
       -1.05039366e-02, 4.05371096e-03, 4.73332498e-03, -1.30152190e-02,
       -6.12832159e-02, -3.03657190e-03, 1.02070030e-02, 2.42660176e-02,
       8.61092657e-03, 1.06198937e-02, -1.36832725e-02, -1.25984708e-02,
       5.02556823e-02, 2.27982216e-02, 7.59468693e-03, -2.09121890e-02,
       2.84731109e-02, -5.97356679e-03, -1.20859109e-02, -4.45335917e-03,
       -2.81616859e-02, -2.52998504e-03, 7.97595084e-03, 2.35567484e-02,
       -1.06986379e-02, 7.58651691e-03, -9.09185782e-03, -2.89196614e-02,
       -2.65868157e-02, -2.47215405e-02, 3.15182284e-02, 4.28609131e-03,
       -6.17338205e-03, -1.31144291e-02, 3.89190478e-04, 8.01326614e-03,
       -1.23410719e-02, 1.16491755e-02, -2.81811934e-02, -1.60112400e-02,
       -3.32152215e-03, -7.68104568e-03, -8.96376558e-03, 4.49953554e-03,
       2.21808976e-03, -6.31901808e-03, 1.17615573e-02, -2.91410513e-04,
       -1.29493419e-02, 1.98685471e-02, 3.42518557e-03, -6.42372388e-03,
       -1.16064800e-02, 3.30877155e-02, -2.55673751e-03, -1.94763038e-02,
       -2.79469154e-04, 7.12980935e-03, 2.45683957e-02, 1.34165948e-02,
       -1.14988303e-02, 5.57153951e-03, 2.07650922e-02, -9.81110521e-03,
       2.15690490e-03, 8.31750594e-03, -1.73796751e-02, -3.08944024e-02,
       9.21060424e-03, -2.31814058e-03, -1.48416581e-02, 2.29582619e-02,
       -1.01832049e-02, -1.28669189e-02, -1.89185925e-02, 2.47603748e-02,
       2.50816830e-02, 2.16190051e-02, -4.16106507e-02, -1.35405380e-02,
       1.33816516e-02, -3.65644740e-03, 8.52687098e-03, 5.42437844e-03,
       -6.90031843e-03, 1.19561367e-02, 2.00039446e-02, -1.51120406e-02,
       -4.81170462e-03, 2.31640623e-03, 8.29445664e-03, 3.01246624e-03,
       -2.61806622e-02, 7.03121535e-03, 5.58240945e-03, 1.93234775e-02,
       4.74370038e-03, -7.53055746e-03, -1.58069581e-02, 8.84145126e-03,
       7.01531861e-03, -2.09900178e-02, -2.53404062e-02, 2.99503561e-02,
       -1.44711509e-02, -4.34012003e-02, 1.74737815e-02, 2.10566167e-02,
       9.80856083e-03, -9.87324957e-03, -1.30103286e-02, -2.11086567e-03,
       3.65660749e-02, 2.81371996e-02, -2.60050241e-02, -3.46087664e-02,
       -4.92242314e-02, -3.48188728e-03, 1.89486723e-02, -1.20796626e-02,
       -1.54201984e-02, 5.16155502e-03, -4.39006556e-03, -6.31100172e-03,
       3.47173866e-03, -2.67298780e-02, -8.33413471e-03, -3.01964232e-03,
       -5.00295078e-03, 1.98999569e-02, 3.71213444e-02, 1.23292366e-02,
       -1.19397677e-02, -1.16439047e-03, -1.12438137e-02, 1.34194344e-02,
       1.71794835e-02, -5.85652143e-03, -2.93261148e-02, 8.88834533e-04,
       3.65591757e-02, 1.71900187e-02, 5.09872213e-02, -2.62965597e-02,
       -1.43163707e-02, 1.83512364e-02, 2.80954037e-02, 8.28744564e-03,
       2.79839300e-02, -7.96412118e-03, 1.82786584e-02, 4.00880165e-02,
       -3.41050653e-03, 3.10305669e-03, -1.60823762e-02, 1.77549664e-03,
       -4.42422070e-02, -3.90757248e-02, -2.60608736e-02,
       -3.46428007e-02, -1.52905919e-02, 1.43881114e-02, 1.11285960e-02,
       -1.05580669e-02, 1.13169607e-02, 2.34235707e-03, 2.80591249e-02,
       7.72794150e-03, -2.11582724e-02, 9.54680704e-03, 1.71279516e-02,
       1.61781777e-02, 7.38697359e-03, -1.60270501e-02, -6.02544062e-02,
       1.80493426e-02, 2.93790996e-02, -3.83917689e-02, -1.02438908e-02,
       2.16391906e-02, -1.26982024e-02, -1.40489859e-03, 1.18273124e-02,
       1.28053818e-02, -2.23355405e-02, 4.37691249e-02, -2.55048554e-02,
       -6.85600424e-03, -1.95143837e-02, 8.90684593e-03, 1.19409254e-02,
       5.79508534e-03, -3.22254486e-02, 4.61309915e-03, 1.00465892e-02,
       2.50866581e-02, 3.60979103e-02, 8.18559155e-03, 5.67862159e-03,
       -7.71137746e-03, -1.13653205e-02, -1.67425140e-03, 3.12891696e-03,
       -3.61263789e-02, -7.22798193e-03, 8.06696527e-03, -2.15858165e-02,
       1.41111072e-02, -2.92046033e-02, -1.70403291e-02, 6.22510584e-03,
       -9.01154522e-03, -3.40876430e-02, -2.03012731e-02, 6.89764926e-03,
       -1.14391223e-02, -4.42341203e-03, 1.85064189e-02, -8.13649874e-03,
       -7.17483833e-03, 3.88931320e-03, 1.75458845e-02, 1.76299978e-02,
       -5.17410692e-03, -2.48129312e-02, 1.03316689e-02, 1.16307484e-02,
       2.30228174e-02, -2.23520268e-02, -2.58756969e-02, 1.70728229e-02,
       5.41212820e-02, 2.84107286e-04, -1.59976929e-02, 5.73470723e-03,
       3.05113420e-02, 2.83241849e-02, 1.05277104e-02, -2.53683198e-02,
       1.51938017e-04, -5.97455725e-03, 1.72463339e-03, 4.71510086e-03,
       1.37536805e-02, 1.27331978e-02, 2.30715517e-02, -1.17257321e-02,
       -1.58788059e-02, 1.37522689e-03, 9.60491784e-03, -3.43541391e-02,
       -3.30650099e-02, -1.82022471e-02, 1.32811796e-02, 1.40292221e-03,
       -2.62229815e-02, -3.05279456e-02, -1.59885958e-02,
       -1.89152807e-02, -2.33515422e-03, -5.07046992e-04, 2.94123194e-03,
       -4.21679951e-03, -1.07046105e-02, 1.15635488e-02, 2.44910233e-02,
       3.18181217e-02, 2.22738665e-02, -4.15702350e-04, -3.07679572e-03,
       1.34015572e-03, 5.33470884e-03, -1.35056879e-02, -1.99529324e-02,
       6.06944924e-03, -2.31155232e-02, 1.69483181e-02, 6.81042112e-03,
       3.81317106e-03, 4.02876548e-03, 4.65450867e-05, 5.07493131e-03,
       9.38620605e-03, 1.43984882e-02, -1.85408089e-02, 4.03824374e-02,
       -8.07844196e-03, 6.27164915e-03, -8.17837566e-03, -1.17039392e-02,
       -3.05696018e-03, -1.63707361e-02, -6.39096927e-03,
       -3.63405864e-03, 9.42180119e-03, 6.14687521e-03, -7.42253009e-03,
       -1.61913149e-02, 3.90087329e-02, 1.07310163e-02, -1.15375957e-02,
       1.65374111e-02, 1.37239369e-02, -6.60803355e-03, -8.73606000e-03,
       3.46388109e-02, 7.61820329e-03, 4.03684098e-03, -1.59497112e-02,
       -8.80560186e-03, 1.62241254e-02, -2.34284802e-04, 1.82770733e-02,
       9.63054411e-03, 1.62828458e-03, 8.22020322e-03, 1.29773864e-03,
       1.42512354e-03, -2.20366158e-02, -4.15895618e-02, 8.07276368e-03,
       -1.74239073e-02, -5.11334883e-03, 1.92517787e-02, -4.16728901e-03,
       -1.81710161e-02, 7.75514543e-03, 1.50552799e-03, 1.73998177e-02,
       1.29774576e-02, 3.62999663e-02, 9.90894809e-03, -1.19035551e-02,
       -1.22728935e-02, 5.19672828e-03, 1.44086999e-03, -4.25835326e-03,
       8.96807667e-03, -1.08286189e-02, -2.74369512e-02, -1.51077909e-02,
       -7.43083516e-03, 1.06642107e-02, -1.86567605e-02, -2.13468596e-02,
       2.57218070e-02, 2.06761975e-02, 5.50746825e-03, -2.26451568e-02,
       -2.49149278e-02, -2.89442241e-02, -1.54725462e-02, 7.38506380e-04,
       -2.60154214e-02, 3.10622163e-05, -1.62076317e-02, -3.00360620e-02,
       -1.63613353e-02, 7.75544951e-03, 2.34584901e-02, 1.85465757e-02,
       -1.26199902e-03, 3.13800317e-03, 4.55663539e-02, 4.63433526e-02,
       -1.82990488e-02, -3.02553233e-02, -8.94616637e-03,
       -2.99878865e-02, -8.65835790e-03, 2.61222534e-02, 7.31277838e-03,
       1.16163131e-03, -5.22235688e-03, -1.82626545e-02, -9.73715074e-03,
       -1.35921678e-02, -2.62952019e-02, -2.03403328e-02, 1.32692829e-02,
       -4.91162483e-03, -2.65167691e-02, 8.50651041e-03, -4.21144860e-03,
       -1.17796883e-02, 2.84882337e-02, -6.19333377e-03, -2.42540482e-02,
       2.47062929e-02, 1.03859259e-02, 5.04567474e-02, 2.30126679e-02,
       1.81962773e-02, 8.99183191e-03, 2.05251183e-02, -8.58946890e-03,
       1.40206628e-02, 6.20783912e-03, 4.30643260e-02, 8.21172143e-04,
       -3.64548527e-02, 1.56405903e-02, 1.50438035e-02, 1.96041036e-02,
       -1.27931880e-02, 1.51244085e-02, 8.61907378e-03, 1.70840565e-02,
       -4.47859019e-02, -6.89526845e-04, -3.18608172e-02,
       -3.89588028e-02, 3.89033521e-04, 2.77525894e-02, -4.76538297e-03,
       5.28476713e-03, -1.74512491e-02, 1.23595409e-02, -3.23589295e-02,
       -1.92542244e-02, -1.63791049e-02, 1.84290539e-02, 1.69564411e-02,
       1.38181774e-02, -8.13882332e-03, 1.70681290e-02, -1.90909707e-03,
       -3.01429280e-03, -2.25357767e-02, -8.83058738e-03,
       -2.49582138e-02, -2.78744940e-02, 6.34423085e-03, -2.12919544e-02,
       1.32776685e-02, 1.02141984e-02, -3.01850382e-02, -2.28240546e-02,
       -3.17233754e-03, 5.63523695e-02, -3.42783667e-02, -1.38965184e-02,
       -1.87441390e-02, 1.39263226e-03, 1.70345826e-03, 1.92070904e-03,
       7.02588912e-03, 4.70999666e-02, 5.62728047e-02, -1.24602932e-02,
       -1.95740145e-02, -2.67937733e-03, 1.02556618e-02, -8.26609321e-03,
       1.49823418e-02, -1.12475490e-03, -4.49753590e-02, -1.19794253e-02,
       1.97180379e-02, 2.76135816e-03, -3.54186483e-02, -2.08546519e-02,
       1.82471331e-02, 9.00064316e-03, -8.77453201e-03, 6.42602053e-03,
       4.49231528e-02, -2.83168815e-02, -1.88397081e-03, 9.44961049e-03,
       1.78415782e-03, -5.46878055e-02, -3.66321839e-02, 8.07234101e-05,
       -3.39551782e-03, 1.70944966e-02, -1.04290359e-02, 1.90636609e-02,
       3.89667880e-03, 1.57442112e-02, -6.89672166e-03, -7.75793241e-03,
       9.98666510e-03, 1.99718289e-02, 1.07105589e-02, 3.38179385e-03,
       -4.53528203e-03, 6.65618980e-04, -5.67293400e-03, -2.08833274e-02,
       3.01633254e-02, -1.46802538e-03, -1.65363010e-02, 1.49435608e-03,
       8.25114734e-03, 6.44495850e-03, -1.68622807e-02, 1.45193413e-02,
       -1.79363620e-02, -1.63943076e-03, 2.58579273e-02, -1.49905938e-03,
       5.47683844e-03, -1.06464047e-02, -1.56679004e-02, 8.60928465e-03,
       1.17469253e-03, -2.26288158e-02, -3.28554809e-02, -2.10888851e-02,
       -1.33747542e-02, -6.58339181e-04, -9.52711154e-04, 1.98066384e-02,
       -1.65771041e-02, 1.82045698e-02, 8.35044309e-03, 6.41114786e-02,
       3.39259878e-02, 4.75129560e-02, 4.33428548e-02, 3.57169099e-03,
       -1.11104455e-02, 1.97935440e-02, -8.09910148e-03, 8.81696027e-03,
       -2.40658168e-02, 2.64419392e-02, -9.05165821e-03, 7.19639147e-03,
       -1.59048801e-03, -1.97473695e-04, 3.86346568e-04, 1.24622546e-02,
       8.45701899e-03, 2.81971461e-05, -2.03896780e-02, -3.07610235e-03,
       -3.11778262e-02, 1.33661656e-02, -8.59026052e-03, 2.22205240e-02,
       -1.44030750e-02, -2.11975467e-03, -2.86669265e-02,
       -1.32441968e-02, -1.12696430e-02, 2.52983309e-02, -1.49488226e-02,
       1.71776470e-02, 1.36599271e-02, -1.14005487e-02, -8.58812686e-03,
       -1.90071985e-02, 1.46161802e-02, -4.45179828e-02, -4.87703718e-02,
       2.09973063e-02, 1.01580890e-02, -4.45242273e-03, -2.28734575e-02,
       6.58152858e-03, 3.57959867e-02, -8.71945359e-03, 2.06333655e-03,
       2.47939937e-02, 1.30338008e-02, -1.98145211e-03, -1.11509534e-02,
       -9.83874872e-03, -6.67501101e-03, -3.96906547e-02,
       -2.18965244e-02, -2.05840860e-02, -4.18747663e-02, 3.56369093e-03,
       -3.86452390e-04, 2.87302746e-03, 5.82925789e-03, -1.63115226e-02,
       1.11663956e-02, 1.30699771e-02, 5.05997911e-02, 1.49102872e-02,
       -2.99485400e-03, -2.62219235e-02, -7.60245894e-04, 7.02006603e-03,
       1.75981242e-02, -2.45461222e-02, 1.37225613e-02, -2.67949533e-02,
       1.26271311e-03, -1.57084111e-02, 4.71514277e-03, -2.49616969e-02,
       -3.22105661e-02, 1.31816538e-02, 4.31512259e-02, -9.52181499e-03,
       -1.75053868e-02, -2.64901738e-03, -9.33458190e-03,
       -9.67408530e-03, 3.48586440e-02, 1.56667903e-02, 1.92196053e-02,
       -2.44830344e-02, 2.01321556e-03, -8.26674514e-03, 8.43109190e-03,
       -3.60581861e-03, 1.89753827e-02, 1.11152232e-02, 8.45509693e-02,
       5.58189750e-02, 3.37929241e-02, -1.55073579e-03, 1.91556308e-02,
       -1.91268779e-03, 2.14127414e-02, -9.21192858e-03, -5.71148098e-03,
       1.32930279e-02, 3.03721987e-02, -1.29025290e-03, -3.43184881e-02,
       1.83270443e-02, 5.80800977e-03, 5.90394266e-05, -1.65042859e-02,
       6.32619904e-03, 2.40029860e-02, -1.59038957e-02, 1.67962369e-02,
       2.74644904e-02, 8.22054129e-03, -2.54410729e-02, -1.58874597e-02,
       2.78780190e-03, -4.55564400e-03, 4.32364605e-02, 5.23896143e-02,
       1.66889410e-02, -1.71608031e-02, -3.10666263e-02, -3.44765633e-02,
       2.80129537e-02, -2.70572565e-02, 1.15490435e-02, 1.81737673e-02,
       9.88875981e-03, -1.41334543e-02, -4.40641157e-02, -2.44093426e-02,
       -2.11063605e-02, -9.68307443e-03, 1.60136144e-03, 1.02477996e-02,
       -1.52150716e-03, -5.73598035e-02, -1.80878304e-02,
       -3.13683366e-03, 6.93306886e-03, -7.17969099e-03, 2.39189691e-03,
       -1.85009383e-03, 9.68546607e-04, 3.04101338e-03, 1.81600563e-02,
       -1.51326749e-02, 5.42604364e-03, -2.22629737e-02, 7.56610855e-02,
       4.39651012e-02, 1.37491664e-02, -1.39436545e-02, 5.08626224e-03,
       -7.39669381e-03, 1.68583216e-03, -6.73439121e-03, -6.66901818e-04,
       2.85637245e-04, 1.20221525e-02, -1.23804819e-03, -1.30866645e-02,
       -9.16322321e-03, 4.21996862e-02, -8.58708099e-03, 5.78318117e-03,
       -6.30687224e-03, 4.86177802e-02, -1.99588425e-02, -3.67241981e-03,
       -5.22520533e-03, -3.10575534e-02, 7.05747120e-03, 1.31989513e-02,
       1.47815468e-02, 4.75366563e-02, 5.60038202e-02, 1.21335443e-02,
       -1.65641925e-03, 6.06440566e-03, -1.39937224e-02, -2.27692630e-02,
       -7.39973551e-03, -1.41690765e-02, -3.53621766e-02,
       -1.36066065e-03, 6.09693641e-04, -1.95318647e-03, 1.48996972e-02,
       1.40819531e-02, 4.53751460e-02, -8.14729836e-03, -3.44985314e-02,
       -3.40994038e-02, 3.27467569e-03, -2.89371647e-02, 7.87494984e-03,
       -8.46921466e-03, 4.22543520e-03, -8.54679674e-04, 4.89727175e-03,
       -1.89661980e-02, -7.32574658e-03, -1.27607584e-02,
       -3.23109468e-03, -4.36028233e-03, -2.35280283e-02, 6.69186423e-03,
       -2.30986569e-02, 7.35353166e-03, 1.16805825e-02, 2.96066068e-02,
       3.24583426e-02, 2.15296205e-02, -1.65035892e-02, 6.03628857e-03,
       1.19460830e-02, -1.86958499e-02, -8.59539211e-03, 2.49760076e-02,
       3.27514554e-03, 1.54022574e-02, 6.70727435e-03, 2.43605417e-03,
       -2.61875317e-02, 1.77685637e-02, 3.85186216e-03, 2.81775813e-03,
       -1.47571657e-02, 2.03422899e-03, 5.28983166e-03, 3.92546528e-04,
       -1.95421968e-02, 9.26968548e-03, 8.12682137e-03, -1.84362866e-02,
       -2.86651589e-02, -5.82643133e-03, -2.03947648e-02,
       -8.70378455e-04, 1.17298402e-02, 1.30098136e-02, -2.77246418e-03,
       7.64279533e-03, -1.80101432e-02, 1.78222964e-03, 3.93960439e-02,
       6.70509413e-02, 4.92932741e-03, -1.41420809e-03, -3.23548610e-03,
       2.81260046e-03, -1.90831702e-02, -1.54330453e-04, 7.88456667e-03,
       3.56535288e-03, 2.27736961e-03, -6.92083174e-03, -1.08557669e-02,
       1.05863987e-02, -1.45385200e-02, 2.89623737e-02, 1.08546112e-02,
       2.30578557e-02, -2.55010207e-03, 2.34431550e-02, -5.25220744e-02,
       7.29370629e-03, -8.16208404e-03, 1.85105894e-02, -1.16119320e-02,
       3.99785070e-03, -1.33578442e-02, 8.48062523e-03, -1.76953021e-02,
       -5.40238293e-03, 9.78934928e-04, 7.51976389e-03, 1.41602033e-03,
       -8.02885182e-03, -1.79057021e-03, 2.27094023e-03, 3.12440600e-02,
       -1.21787768e-02, -3.47902253e-02, 3.98353161e-03, -2.35763704e-03,
       -4.07945365e-03, -3.49128507e-02, -3.86610664e-02, 4.19134647e-02,
       2.59852409e-03, -3.86477867e-03, 1.50712784e-02, 2.67677195e-03,
       -2.14476828e-02, -1.32438876e-02, -2.07402706e-02,
       -3.26947235e-02, -1.11045474e-02, 8.23486038e-03, 4.01373431e-02,
       -2.94813979e-03, 1.38165690e-02, -1.47428019e-02, -1.60673521e-02,
       -7.94999488e-03, 5.93552133e-03, -2.36974261e-03, -1.05742021e-02,
       2.52387319e-02, -2.31957305e-02, -1.43800844e-02, -2.06659436e-02,
       1.07834833e-02, -2.75704991e-02, -9.18397307e-03, 1.04275821e-02,
       5.69540961e-03, -1.40969064e-02, -2.10172348e-02, -1.39000332e-02,
       1.42839283e-03, -3.40741617e-03, -1.71824452e-02, -2.23510955e-02,
       1.47241317e-02, 1.67637765e-02, 1.43786585e-02, 1.14321262e-02,
       4.00301069e-02, 2.67052703e-04, 3.05962954e-02, -1.65128354e-02,
       1.20933782e-02, -4.70996881e-03, -1.00206751e-02, 1.58075150e-02,
       -6.97145192e-03, -1.24426186e-02, 3.31943668e-02, 9.18761536e-04,
       2.69650016e-03, 7.82048423e-03, 5.51794283e-03, -5.76333143e-03,
       3.25110257e-02, 2.24139285e-03, -2.26800926e-02, 5.02693793e-03,
       -2.97321100e-03, 2.39090398e-02, -2.98676472e-02, -1.54427309e-02,
       -4.96680103e-03, 5.55871576e-02, 3.31976754e-03, 4.43066061e-02,
       2.70694937e-03, -1.66996457e-02, 9.52292816e-04, 8.94193724e-03,
       -1.64496806e-02, 4.04058360e-02, 1.37517052e-02, -3.85471806e-03,
       1.72203558e-03, -3.46815325e-02, 1.11899180e-02, 4.74361749e-03,
       -2.13466585e-03, 6.58903196e-02, -1.12136090e-02, -9.89477243e-03,
       -5.07274643e-04, 2.86909956e-02, 3.80969397e-03, -1.09256925e-02,
       -2.31144298e-02, -2.77111121e-02, -3.00391833e-03,
       -2.05379333e-02, -2.64605191e-02, 3.33768129e-02, 5.43590123e-03,
       -1.73582472e-02, 4.18003881e-03, 1.25798825e-02, -3.24433148e-02,
       -3.08373175e-03, 2.91330442e-02, 1.69522353e-02, -1.14841666e-02,
       -1.21089781e-03, 1.15904035e-02, -9.81910853e-04, -1.01358350e-02,
       6.89879432e-02, 1.82251190e-03, -1.00110872e-02, 3.34082148e-03,
       3.19525898e-02, -2.11543590e-02, 9.85819381e-03, 1.67158861e-02,
       -8.11932608e-03, -2.41574533e-02, -1.73506998e-02, 8.45933706e-03,
       -1.40194185e-02, -3.15084830e-02, 8.20413046e-03, -1.97431091e-02,
       1.81300950e-03, -5.79676544e-03, 4.51350063e-02, 8.66426807e-03,
       -2.63530202e-02, -4.67470707e-03, 6.36463091e-02, -2.62051001e-02,
       -1.38039896e-02, -5.98997483e-03, -1.42557407e-02, 1.62214171e-02,
       6.67807326e-05, 7.28644943e-03, 3.31799909e-02, 3.81864384e-02,
       -2.26539318e-02, 1.37972902e-03, -6.66562992e-04, -8.25983565e-03,
       -1.24912523e-02, -1.55708170e-03, -9.21542477e-03,
       -2.30298769e-02, -2.50756163e-02, -1.68592185e-02, 8.07268661e-05,
       -7.54670566e-03, -1.05557563e-02, 4.08302173e-02, 3.01905554e-02,
       1.02829316e-03, 1.33257136e-02, 2.27702055e-02, -3.02936360e-02,
       -5.70544926e-03, -3.33033502e-03, -3.69279794e-02, 7.54789962e-03,
       1.92751584e-03, -1.11143729e-02, 1.41517408e-02, -1.14669809e-02,
       -1.13491183e-02, 2.02120524e-02, -6.06899615e-03, 1.99225455e-04,
       -5.80890942e-03, 8.26615561e-03, 1.43941203e-02, 3.46718729e-02,
       1.56280864e-02, -5.81755361e-04, -4.36088676e-03, 1.13808298e-02,
       -1.83764733e-02, -4.30153757e-02, -1.36837084e-02, 1.31193157e-02,
       -1.89735051e-02, -2.78971810e-02, 3.94251337e-03, 1.97266284e-02,
       2.48671602e-03, -2.50670058e-03, 2.66438667e-02, 3.72665524e-02,
       -9.24282242e-03, 1.59560200e-02, -1.54061606e-02, -2.21232288e-02,
       -5.59346285e-03, -5.17702836e-04, -8.00326560e-03,
       -1.22135961e-02, -1.87548455e-02, -6.04710449e-03, 1.76538806e-02,
       -8.39364901e-03, -3.44693405e-03, 6.50198944e-03, -5.99592412e-03,
       1.37816193e-02, -2.92657353e-02, 5.27126365e-04, 5.27270697e-03,
       3.43075581e-02, 3.33929807e-03, 7.62582663e-03, -2.93923263e-03,
       2.39060204e-02, -1.15322685e-02, 1.69078019e-02, 3.83191695e-03,
       -3.55475699e-03, 2.13686307e-03, -1.39327534e-02, 8.72065406e-03,
       1.14592379e-02, -1.08428644e-02, 1.55664638e-05, -3.86296632e-03,
       3.51616144e-02, 2.45577414e-02, 2.09442433e-02, -6.26450730e-03,
       -1.67503376e-02, -2.29159668e-02, 9.83714964e-03, -1.75631382e-02,
       -2.49755420e-02, 4.17697476e-03, -1.91755872e-02, 4.56172694e-03,
       -2.23811576e-03, -5.86342358e-04, -1.14907986e-02,
       -7.04941479e-03, -5.99712180e-03, -2.91907694e-03, 1.15061458e-03,
       -1.11551015e-02, -2.30801068e-02, -4.51002717e-02,
       -1.20690083e-02, 9.05831112e-04, -6.73993211e-03, -2.22932529e-02,
       3.01566790e-04, 2.59946287e-02, 1.29660433e-02, 2.88627893e-02,
       -4.34308173e-03, 5.73417079e-03, 1.07506791e-03, 9.90277529e-03,
       -9.54300724e-03, -3.59640755e-02, -4.10002246e-02, 1.16903745e-02,
       -1.81937553e-02, 1.48995211e-02, 1.03896495e-03, 1.14748618e-02,
       1.72119923e-02, -7.74398167e-03, -1.24061750e-02, 3.46438587e-02,
       -1.29691223e-02, -8.25334527e-03, -3.48278023e-02,
       -3.30906548e-02, 3.07689235e-03, 1.92031562e-02, 1.48319267e-03,
       6.37259986e-03, -2.36530881e-02, 1.54227996e-02, -5.46902651e-03,
       3.65012512e-03, -4.66360385e-03, 1.54147306e-02, -1.71304177e-02,
       -4.93934285e-03, -6.62435312e-03, 4.38864715e-03, 1.36398906e-02,
       5.48739582e-02, 9.83794779e-02, 8.97480175e-02, 4.89572471e-04,
       -1.71287544e-02, 3.17774480e-03, 1.20332027e-02, -2.63167471e-02,
       -2.72176377e-02, -1.44825308e-02, 7.77715864e-03, 9.24474373e-03,
       -2.54530460e-02, -2.99130529e-02, 2.07906589e-03, 1.02419686e-02,
       -1.66411966e-03, -2.29308400e-02, 6.47043716e-03, 2.58566197e-02,
       5.36081241e-03, -3.22199650e-02, -4.79729380e-03, 2.24254075e-02,
       1.15868933e-02, 2.34466456e-02, -3.43550183e-02, -8.51403270e-03,
       6.76160976e-02, 4.50663641e-02, -2.43299752e-02, 4.93059307e-03,
       7.51807308e-03, -2.39371508e-03, -2.13989280e-02, 5.06222434e-03,
       -2.18666885e-02, 3.16387191e-02, -8.70197488e-04, 5.54303639e-03,
       5.93252108e-03, -1.82998978e-04, 2.02524569e-02, 2.35678311e-02,
       -3.35759968e-02, -2.67937277e-02, 2.94005722e-02, 1.58712380e-02,
       -2.58574891e-03, 2.48360932e-02, -1.44582717e-02, -3.75190340e-02,
       -1.00675523e-02, -1.20416153e-02, -3.16873118e-02,
       -1.03189629e-02, -9.73056722e-03, 4.71900776e-03, 5.65867266e-03,
       3.20341885e-02, 6.02241000e-03, -2.25756969e-02, 4.85664792e-03,
       -6.75893901e-03, -3.01465373e-02, 6.47377456e-03, 2.63501285e-03,
       -8.16121884e-03, -3.84690100e-03, 5.79434149e-02, 2.19633281e-02,
       -1.35079282e-03, -1.49409669e-02, 4.71399091e-02, 7.99887720e-03,
       1.44390599e-03, 1.49186356e-02, 1.79616939e-02, -1.73309799e-02,
       -5.16007841e-03, -6.83773728e-03, -2.34541278e-02,
       -6.58218786e-02, 4.90327466e-06, -1.08730439e-02, 7.93156493e-03,
       1.68483797e-02, 2.99746860e-02, -2.93394793e-02, 5.12860715e-03,
       -3.49626169e-02, 2.17609089e-02, -1.92423351e-03, -5.74085908e-03,
       -3.03959623e-02, -4.34219697e-03, 7.86701776e-03, -7.90861156e-03,
       -2.40410417e-02, 1.66261867e-02, 3.75676788e-02, 1.82290263e-02,
       -3.91563680e-03, 9.77826025e-03, -9.57761053e-03, -2.05795262e-02,
       6.22576289e-03, 1.35348346e-02, -2.52222884e-02, -3.05214673e-02,
       2.43686028e-02, 4.74098697e-02, -7.38212693e-05, 1.86116830e-03,
       6.86198846e-02, 2.59390213e-02, 5.22005744e-03, -1.87900756e-02,
       -1.03260707e-02, -1.16937729e-02, -1.11528803e-02,
       -4.79538552e-03, -1.39186520e-03, -5.53292315e-03,
       -2.21356917e-02, 2.63435300e-03, -2.60813180e-02, -5.57841174e-03,
       -6.20608684e-03, 2.45484542e-02, 5.12536988e-03, 1.09163104e-02,
       -6.14121789e-03, -2.54347343e-02, 7.52070500e-03, 7.84171745e-03,
       1.62514462e-03, 2.33956296e-02, -1.23365633e-02, 6.66779513e-03,
       4.16807132e-03, 2.28077546e-02, -2.81585231e-02, 1.96899497e-03,
       -4.33006100e-02, -7.10604433e-03, 1.42229637e-02, -3.29996576e-04,
       6.05772668e-03, 2.27290671e-02, 2.73485910e-02, 2.27871798e-02,
       -3.26233380e-03, 7.88998418e-03, -3.06870248e-02, 1.18064556e-04,
       -3.19650359e-02, 1.18549913e-02, -1.83478557e-02, -8.16169102e-03,
       -6.75214513e-04, 8.00250378e-03, -2.30732132e-02, -1.78374611e-02,
       5.27388556e-03, 9.05258209e-03, -2.27366015e-03, -9.88523383e-03,
       -2.57746205e-02, 3.76783777e-03, 3.14345770e-03, 1.58191398e-02,
       4.47045937e-02, 2.48167925e-02, -1.10311825e-02, 1.17213158e-02,
       -1.15492390e-02, -1.14199258e-02, 9.58714448e-03, -3.98684992e-03,
       -1.54771181e-02, -1.50571496e-03, 1.73621066e-02, -8.70830379e-04,
       -6.02702005e-03, -1.46153197e-02, 5.28288539e-03, 6.34498000e-02,
       1.72662642e-02, -2.38318946e-02, -1.10581648e-02, -1.26977013e-02,
       -1.41210286e-02, 1.67018306e-02, -4.31057205e-03, -3.12420428e-02,
       1.46829588e-02, 1.21575519e-02, -1.73541382e-02, 8.98946077e-03,
       -1.09295445e-02, 3.54565610e-03, 1.93936173e-02, -2.35465541e-03,
       -2.12497101e-03, -3.75636941e-04, 1.13400770e-02, -2.89482325e-02,
       -1.08227441e-02, 2.12817686e-03, -7.04096118e-03, 7.71576213e-03,
       -1.85860798e-03, -8.09147209e-03, 3.41797359e-02, 1.96518768e-02,
       -2.35301219e-02, -2.69545503e-02, 1.76728591e-02, -5.64650726e-03,
       8.68274947e-04, 2.08917912e-02, -1.70493918e-03, -2.37622801e-02,
       -1.13743693e-02, 3.61720892e-03, -1.92331802e-02, -7.03881204e-04,
       9.80092771e-03, 1.92655697e-02, 1.98416342e-03, -2.45329551e-02,
       3.25653376e-03, -9.28559434e-03, 1.00090960e-02, -6.39950577e-03,
       -2.19256822e-02, 2.06954256e-02, 1.43404892e-02, 1.53132696e-02,
       1.10738808e-02, 3.46823176e-03, -4.32590692e-04, 3.77429213e-04,
       -6.71627698e-03, -1.69189796e-02, -6.07621763e-03,
       -4.19208147e-02, -5.67555148e-03, -1.37839457e-02,
       -5.97099997e-02, -9.31612588e-03, 8.42737705e-02, 7.63582960e-02,
       5.46681434e-02, -2.88150255e-02, -3.71133909e-03, -6.12855330e-03,
       5.50921541e-03, -1.07690590e-02, -7.19072390e-03, 2.59105265e-02,
       -9.85023845e-03, -6.68778457e-03, -1.56746581e-04,
       -3.02396645e-03, -1.64122041e-02, -6.09311741e-03,
       -1.83840785e-02, -2.04027276e-02, -1.92862730e-02, 1.53013328e-02,
       -2.27692425e-02, -1.25693064e-02, 2.82036979e-02, -9.19676200e-03,
       1.51767544e-02, -4.45700437e-03, 2.39252672e-02, 4.00505029e-02,
       5.32560162e-02, 2.56654304e-02, 2.23645810e-02, 2.21978351e-02,
       -9.61593166e-03, 2.68671382e-02, 1.57318022e-02, 1.38468323e-02,
       -1.71920639e-02, 2.89003607e-02, 3.93854566e-02, 1.20120272e-02,
       1.93452463e-02, -2.08060239e-02, 9.29767638e-03, -2.07370594e-02,
       -2.27471590e-02, -4.18238901e-02, 9.88883991e-03, 1.18448790e-02,
       3.04066241e-02, -9.32996999e-03, 1.60702709e-02, -2.58391234e-03,
       2.45342571e-02, -9.44569893e-03, -1.96838733e-02, -2.49735173e-02,
       3.55910917e-04, 1.64855216e-02, 1.21681467e-02, -1.20986477e-02,
       -6.03766600e-03, 6.01578411e-03, 1.20856240e-02, 4.27424908e-02,
       9.75763053e-03, 3.22714001e-02, -1.16496747e-02, -1.92672201e-02,
       -1.77185312e-02, 4.39924970e-02, -1.86777636e-02, 9.19949915e-03,
       6.21886319e-03, 3.49116363e-02, 1.81133281e-02, 9.13123658e-04,
       -1.84770916e-02, 3.24527994e-02, -5.99267939e-03, -2.13588160e-02,
       -8.33732309e-04, -2.66916468e-03, -6.59927577e-02, 2.89278533e-02,
       7.28960941e-03, -1.90989510e-03, 3.33025418e-02, 9.50994319e-04,
       -2.78002098e-02, -3.32053341e-02, -9.79048200e-03,
       -1.54834380e-02, -2.33307984e-02, -7.36521091e-03, 2.22742136e-04,
       -3.05054933e-02, 3.46007906e-02, 6.10836409e-03, -1.01128947e-02,
       2.27282513e-02, 3.87413986e-02, 4.73878533e-03, -2.02018544e-02,
       9.60641820e-03, 8.26784503e-03, 2.45574657e-02, 3.22018820e-03,
       2.80416589e-02, -8.52899626e-03, -1.16260666e-02, 7.32396403e-03,
       2.06797328e-02, 1.17896544e-02, -1.16897626e-02, 3.73309962e-02,
       4.15776446e-02, 5.72903175e-03, -1.67512130e-02, -2.33823135e-02,
       -1.53123178e-02, 5.78357186e-03, -6.05992833e-03, -7.23022968e-03,
       6.17097784e-03, -5.25946803e-02, -2.60180663e-02, -1.46128964e-02,
       -1.60363242e-02, -1.05929310e-02, -7.21194549e-03,
       -2.32662298e-02, -8.64360575e-03, -1.00439964e-02, 3.19133955e-03,
       -6.82928949e-04, 3.12523581e-02, -2.16458626e-02, 1.48832947e-02,
       -1.98153649e-02, 1.20646907e-02, -7.46079430e-04, 2.36031786e-03,
       -1.06870700e-02, -2.16974169e-02, -3.39239389e-02,
       -9.61283315e-03, 4.14969726e-03, 3.51009774e-03, -2.20709597e-03,
       8.99227895e-03, 3.21442038e-02, 3.47445458e-02, -2.73710629e-03,
       3.65040149e-03, -3.98148037e-02, -2.70627439e-02, 2.40471476e-04,
       -7.11598061e-03, 4.76571498e-03, -7.91065302e-03, -2.93121804e-02,
       -2.99794469e-02, 7.42679788e-03, -3.78065892e-02, -7.40437536e-03,
       1.47180725e-02, 3.99826793e-03, 6.79436652e-03, 9.30559076e-03,
       -6.25913218e-03, 7.18342792e-03, 4.63241003e-02, 3.62213403e-02,
       1.71882510e-02, -3.75192030e-03, 1.30610792e-02, -1.73979066e-02,
       7.52520794e-03, 3.92819801e-03, 4.96341800e-03, -8.91763158e-03,
       -3.74594238e-04, -1.09536471e-02, 1.02507584e-02, -1.33849345e-02,
       1.03145456e-02, 3.68372872e-02, 3.87060642e-02, 5.56337973e-03,
       3.25036906e-02, 8.64054635e-03, 3.97854764e-03, -7.55767850e-03,
       9.98790655e-03, 7.78201618e-04, -2.46267603e-03, -8.27579573e-03,
       4.66873124e-03, -7.20856618e-03, -1.51517626e-03, -1.24449255e-02,
       7.25970743e-03, 9.24187526e-03, 1.93787422e-02, -1.88756026e-02,
       -1.05384747e-02, 2.39402847e-03, 2.36703604e-02, -5.15976585e-02,
       9.07278154e-03, -2.56506144e-03, 4.47853142e-03, 3.46824601e-02,
       -1.14449523e-02, -6.85137063e-02, 1.84957609e-02, 2.57196296e-02,
       7.58629525e-03, -1.90793630e-02, -1.03909513e-02, -3.50276614e-03,
       2.26442181e-02, -3.43324849e-03, -3.24200951e-02, -1.13555221e-02,
       3.04158814e-02, 9.76145733e-03, -8.11612047e-03, 1.54401653e-03,
       2.84273154e-03, 4.00337800e-02, -2.78518591e-02, -2.77434960e-02,
       5.63447550e-03, 4.03901748e-02, 1.60889942e-02, -1.79597326e-02,
       -4.25015460e-04, -2.46896036e-03, 1.54243708e-02, 2.92765186e-03,
       -1.16492761e-02, 3.06159034e-02, 2.07466371e-02, -3.57230864e-02,
       -3.99157330e-02, -2.56597064e-03, -1.45296725e-02,
       -3.90896462e-02, -3.26961689e-02, -3.06766871e-02, 6.00239746e-02,
       6.36035949e-02, 1.50180329e-02, -2.60221530e-02, -2.48256363e-02,
       -1.41281576e-03, -2.33055837e-03, -2.86266702e-04,
       -3.00508421e-02, -2.02279016e-02, 1.18141714e-02, -1.54645527e-02,
       -1.78446900e-02, 5.67151466e-04, -8.69268458e-03, 2.53591291e-03,
       1.11871131e-03, 8.74378532e-03, 7.36878766e-03, -1.57002769e-02,
       1.89781608e-03, -2.91576516e-02, -1.57749318e-02, -4.16931836e-03,
       -2.85889674e-02, 3.52904983e-02, -1.57729238e-02, 1.95105541e-02,
       1.33201284e-02, -1.55819794e-02, -2.09104810e-02, -1.00784906e-04,
       1.39239766e-02, 8.22928734e-03, 2.46042069e-02, 1.87918413e-02,
       1.73444506e-02, 2.54646353e-02, -5.20658121e-03, 4.64477437e-03,
       4.23217900e-02, -2.22465266e-02, -2.22309567e-02, 2.05104575e-02,
       -2.48234486e-03, -1.21155782e-02, -1.50772203e-02,
       -1.52778393e-02, -1.70932896e-03, 1.26567874e-02, -2.02634726e-02,
       1.18282568e-02, 1.80906765e-02, -6.70182239e-03, -1.75220910e-02,
       1.22659449e-02, 1.48562090e-02, -2.43641511e-02, -1.23274755e-02,
       -8.59548710e-03, 2.16818415e-02, -5.96364355e-03, -1.82339968e-03,
       3.29348594e-02, 1.79642458e-02, -6.49030730e-02, -2.92796828e-02,
       -1.80515356e-03, -1.74516607e-02, -1.15868086e-02, 1.41481943e-02,
       -2.24020258e-02, 1.66953877e-02, 1.12755997e-02, 1.59839671e-02,
       -2.45477017e-02, -2.25091316e-02, 1.56190936e-02, 1.64196435e-02,
       -6.16451958e-03, -4.03940566e-02, -2.12656725e-02,
       -4.02456298e-02, -5.24111763e-02, 7.49660004e-03, 1.76889449e-02,
       8.04727431e-03, 6.16844650e-03, -1.52960112e-02, -3.61185372e-02,
       2.87826434e-02, 2.51999181e-02, 1.37287774e-03, -3.13786715e-02,
       8.24338291e-03, -2.42853109e-02, -1.28986388e-02, -9.81704332e-04,
       4.76014335e-03, 1.17000230e-02, -7.77774677e-03, 2.39202548e-02,
       -6.92791911e-03, -2.62501370e-02, 1.32851088e-02, -3.48802283e-02,
       1.03219626e-02, 4.15741764e-02, 3.09725553e-02, -1.38913817e-03,
       2.61334218e-02, -7.90392514e-03, 2.19675028e-04, -1.61532350e-02,
       -1.25484141e-02, 1.70030687e-02, 7.80790718e-03, -3.94283840e-03,
       -4.65604998e-02, -2.91881245e-02, 1.10046836e-02, 2.26290245e-02,
       -1.07866572e-02, -4.18078639e-02, -6.46407902e-03,
       -1.44732138e-02, -1.34165892e-02, 6.05406519e-03, 1.79963168e-02,
       -1.85372923e-02, 2.37846673e-02, 2.50847545e-04, -2.10374072e-02,
       -1.06377518e-02, 1.77870430e-02, 3.05474270e-02, 1.65539030e-02,
       -1.58026740e-02, 1.08960327e-02, 1.56551078e-02, -1.89757776e-02,
       9.81289428e-03, 1.04726702e-02, -1.02798175e-02, -1.92681106e-03,
       -2.10790522e-02, -2.57523507e-02, -3.50470957e-03, 3.88023839e-03,
       -1.28794741e-03, -7.63062015e-03, 3.59652098e-03, 4.51646596e-02,
       -1.19206263e-02, -2.35476773e-02, -2.85672732e-02, 8.46939441e-03,
       1.59174260e-02, -1.22932661e-02, 1.54693017e-03, -1.12163927e-02,
       -2.13386714e-02, 1.46434102e-02, -4.99017499e-02, -2.80541871e-02,
       -3.04138311e-03, 1.69497225e-02, -1.78342890e-02, 3.07272449e-02,
       1.01394951e-03, 3.84773836e-02, 1.44633278e-03, 4.39502150e-02,
       2.48562153e-02, -5.29853301e-03, 1.26450211e-02, 1.04872379e-02,
       2.13048570e-02, 1.74366068e-02, 1.61587596e-02, -2.52300985e-02,
       -3.79282562e-03, -1.64439678e-02, -3.38876341e-03, 8.09914060e-03,
       -6.02792809e-03, 2.28703418e-03, -6.66054292e-03, 3.94966416e-02,
       9.82385129e-04, 4.88971779e-03, 1.94359627e-02, -1.90859977e-02,
       -1.26250535e-02, 5.98536618e-03, -2.92108916e-02, -7.44090509e-03,
       -1.32479537e-02, 7.17554614e-03, 1.61023915e-03, -2.14335620e-02,
       -7.39568984e-03, 1.47160990e-02, -9.77244601e-03, 4.08197287e-03,
       -1.04163690e-02, -2.15509720e-02, 2.25331262e-02, -6.22195704e-03,
       -1.34973694e-02, 4.72668791e-03, -4.72646719e-03, 1.45816989e-02,
       7.85527192e-03, -1.58859193e-02, 1.45838960e-04, 1.44119672e-02,
       8.80229939e-03, 2.44102366e-02, 2.13845298e-02, -2.85754388e-04,
       4.07596398e-03, 1.80173963e-02, 1.30003598e-02, -2.47886535e-02,
       3.47966375e-03, -9.74178873e-03, -3.12250643e-03, 1.22535015e-02,
       1.66709851e-02, -1.41682550e-02, 4.14552651e-02, 2.91405637e-02,
       2.39959806e-02, -1.76779442e-02, -1.79668013e-02, -1.24802412e-02,
       -1.01714414e-02, -1.52197676e-02, 2.85657030e-02, -1.07042687e-02,
       -4.88773175e-03, -1.39761064e-02, 1.69511680e-02, -3.12046381e-03,
       -3.14975344e-02, 2.35954882e-03, 1.03586055e-02, -1.07712429e-02,
       1.09343603e-02, -2.55540777e-02, -1.12503516e-02, -2.04769187e-02,
       4.66791429e-02, 8.63776952e-02, 2.50691194e-02, -1.00260051e-02,
       2.84848921e-02, 1.39831426e-02, -5.54303778e-03, 1.36365136e-03,
       5.48511371e-03, -1.26767699e-02, -1.32059818e-02, -5.24157984e-03,
       2.34652702e-02, 4.68173251e-03, 3.32481824e-02, 1.62571333e-02,
       1.97568107e-02, -2.93327346e-02, 6.96580973e-04, 2.04666909e-02,
       -8.75005126e-03, -7.96985521e-04, -1.33279897e-03,
       -1.43042242e-03, -3.02727371e-02, -1.24822361e-02, 2.72155814e-02,
       1.68387797e-02, 2.20581945e-02, -7.93492980e-03, -1.63919502e-03,
       9.92069114e-03, -1.37967840e-02, 8.44907016e-03, 2.49761064e-02,
       2.99470760e-02, -3.26368655e-03, 2.12039780e-02, 7.57908542e-03,
       -7.58487219e-03, -2.56079845e-02, -1.42730456e-02,
       -2.36730948e-02, -1.74476001e-02, 2.16546818e-03, -3.08353435e-02,
       -1.78245883e-02, -2.55008247e-02, -1.20764263e-02,
       -2.56824847e-02, -3.37140113e-02, 1.18920393e-02, -1.36174355e-02,
       -5.19234641e-03, 2.29582526e-02, 5.42267188e-02, -2.78085005e-02,
       -1.34620089e-02, 2.17807759e-02, -5.24490094e-03, -2.55036335e-02,
       -2.70749815e-03, -3.38345417e-03, -1.66607108e-02,
       -3.31288017e-02, -5.13265748e-03, -1.31902972e-03,
       -7.71084148e-03, -1.05700856e-02, 1.50066903e-02, 1.71208996e-02,
       9.10689496e-03, 1.30893746e-02, 6.52186871e-02, -1.04067172e-03,
       -1.26577578e-02, 9.85318795e-03, -1.36164455e-02, 2.12873542e-03,
       1.65992025e-02, -2.90610045e-02, -3.38000730e-02, -3.75431627e-02,
       1.11768758e-02, 1.65479407e-02, -4.77780681e-03, -9.57640354e-03,
       -6.99725002e-03, 2.31167544e-02, -5.77263497e-02, 2.78310813e-02,
       6.26115799e-02, -3.19950208e-02, -1.14451563e-02, -4.31592725e-02,
       -2.06360733e-03, 2.24928875e-02, 3.55038536e-03, 5.72876446e-03,
       1.65254790e-02, 4.40135561e-02, 1.14938291e-02, -3.65729555e-02,
       7.43146986e-03, -3.92412767e-03, -1.25279576e-02, 5.35906432e-03,
       -9.82525479e-03, 6.79059234e-03, 2.64347512e-02, 5.10600396e-03,
       2.80268211e-02, 5.24607999e-03, -9.81403235e-03, 3.13843191e-02,
       5.49847037e-02, -9.84834135e-03, -2.31299885e-02, 1.04215965e-02,
       -1.99231450e-02, 3.80275561e-03, 1.01556499e-02, -1.93042886e-02,
       -1.96037907e-02, -4.22348268e-02, -2.94766333e-02, 7.18459999e-03,
       4.24495824e-02, -2.77380738e-02, -4.90444654e-04, -2.00554058e-02,
       5.49585372e-03, 2.32555345e-02, 6.48055086e-03, 8.17946903e-03,
       -1.97637100e-02, 1.01441648e-02, 1.29618309e-02, -1.19676692e-02,
       -1.17950719e-02, 5.83022786e-03, 1.02168228e-02, 4.30816459e-03,
       -4.64919111e-04, -7.22071752e-02, -2.75432295e-03, 5.43959532e-03,
       9.44260973e-04, -9.28661413e-03, -1.12318294e-02, 3.81724141e-03,
       5.57464287e-02, -2.46674451e-03, -2.20371019e-02, -2.28761882e-02,
       1.40672140e-02, -1.60979368e-02, 9.14481003e-03, -8.68499838e-03,
       -1.79232340e-02, 2.83441716e-03, -1.45659130e-02, -4.81626950e-02,
       4.77980729e-03, -5.34435175e-03, 6.63970225e-03, 2.20257047e-04,
       2.55018491e-02, -2.80563682e-02, -2.05071317e-03, 6.38897764e-03,
       1.78449713e-02, 5.48986606e-02, -6.59742765e-03, -2.36913003e-02,
       2.58620940e-02, -1.46583645e-02, 3.91123071e-02, 1.90255269e-02,
       3.56690423e-03, 3.24642956e-02, -2.57072877e-02, 1.27327600e-02,
       2.46463809e-02, 1.38266217e-02, 1.13130489e-04, 1.34124067e-02,
       5.90887619e-03, 3.58094880e-03, 1.95019990e-02, 2.92537492e-02,
       1.25429744e-03, -7.27631385e-03, -6.24779845e-03, 7.43454555e-03,
       3.71242017e-02, -2.18230784e-02, 2.39147013e-03, 1.12469662e-02,
       -5.22219995e-03, -1.34965349e-02, -7.72384973e-03,
       -8.34962260e-03, -1.39116412e-02, 2.36302218e-03, -9.25729610e-03,
       1.11464132e-02, -8.05988256e-03, -2.00056043e-02, 1.26826363e-02,
       -2.21875198e-02, 2.19688490e-02, -1.28341680e-02, 4.13928181e-03,
       -1.79125532e-03, 5.81253739e-03, 4.94500389e-03, 2.88425516e-02,
       2.40691192e-02, 2.00284719e-02, 6.16849866e-03, -1.30832475e-02,
       -1.29977539e-02, -1.45726223e-02, -7.50120217e-03, 1.25120655e-02,
       -2.63058376e-02, -1.62307918e-02, 2.24423804e-03, 3.17374547e-03,
       4.27014567e-03, 3.34357582e-02, 6.14959514e-03, -3.56359221e-03,
       -1.82128064e-02, -1.22165782e-02, -7.66038336e-03, 1.37971190e-03,
       -3.34472992e-02, 1.28372358e-02, 4.60320711e-03, 1.26005085e-02,
       -6.70269877e-03, -8.15084204e-03, -4.67507392e-02,
       -1.98893119e-02, -3.55864204e-02, -6.03255723e-03, 1.15293609e-02,
       -1.16218552e-02, -2.07548924e-02, 2.94872373e-02, 3.89850885e-02,
       9.24038962e-02, 7.28221843e-03, 1.02787605e-02, -1.15353114e-03,
       -1.49494363e-02, 2.45866627e-02, 5.89661300e-03, 7.38688419e-03,
       2.43418803e-03, -4.99354005e-02, -3.04934960e-02, -7.49155442e-05,
       2.24806909e-02, -1.98334213e-02, 1.16109680e-02, 7.24016689e-04,
       -3.27595212e-02, -9.15967766e-03, 4.10471149e-02, -3.93188410e-02,
       -7.15904264e-03, 6.35185698e-03, 1.41202779e-02, 8.09257105e-03,
       3.86893330e-03, 2.25007329e-02, -1.45612340e-02, 2.45194212e-02,
       -1.86509006e-02, 3.44151221e-02, -6.08984800e-03, -1.71654467e-02,
       -6.73533697e-03, -2.13620253e-03, 3.89227271e-02, 3.42868678e-02,
       8.91250372e-03, -2.33088490e-02, -2.38473085e-03, 9.28306393e-03,
       -2.46486124e-02, -6.58975029e-03, -4.31613019e-03,
       -1.61749236e-02, -5.63890627e-03, 4.67574550e-03, -7.53024500e-03,
       -7.56946160e-03, 2.66066752e-04, -2.90774945e-02, -1.74446951e-03,
       1.62110999e-02, -2.81193163e-02, 3.41149457e-02, 3.05843707e-02,
       -2.89580715e-03, -9.10999533e-03, 1.18559217e-02, -1.09430926e-03,
       -8.15864932e-03, 1.57019887e-02, 7.37759331e-03, 2.14224737e-02,
       -1.03265699e-03, -2.84331781e-03, -2.11938564e-03,
       -1.35845207e-02, -7.87977595e-03, 1.68263298e-02, 4.28503379e-02,
       -2.90592341e-03, 1.42787723e-02, 2.06851661e-02, -1.87931638e-02,
       -3.03898342e-02, 4.24804818e-03, -1.96234020e-03, -8.74159951e-03,
       -5.71043091e-03, -1.35964369e-02, -1.30223148e-02,
       -3.60986665e-02, 2.66950056e-02, -5.26566291e-03, 5.43456804e-03,
       -1.82150137e-02, -9.78793856e-03, -2.21953019e-02, 2.01745927e-02,
       9.48018488e-03, 3.83231379e-02, -3.21553499e-02, -2.02714484e-02,
       5.92610240e-03, -9.32678673e-03, 9.54562984e-03, -1.35470591e-02,
       -2.03686450e-02, 4.41885702e-02, 2.65914947e-02, -6.18587993e-03,
       -5.24113281e-03, 1.97593812e-02, 8.55986588e-03, 1.15439873e-02,
       -1.95467323e-02, 1.81662347e-02, 2.86250543e-02, 3.38127534e-03,
       -1.13119911e-02, 1.69278085e-02, 1.96101628e-02, -4.89165168e-03,
       2.85914410e-02, 1.68747772e-02, 1.29357297e-02, -2.12030318e-02,
       -6.94391318e-03, 5.29015763e-03, -1.25940489e-02, 3.18563618e-02,
       8.98680650e-03, -1.25452438e-02, -3.48607339e-02, -2.51133367e-02,
       1.82699710e-02, -2.82375477e-02, -2.11060364e-02, 2.05504932e-02,
       -8.21621995e-03, 1.29009597e-02, -9.23818536e-03, 1.07677197e-02,
       -1.34647042e-02, 3.85105647e-02, -1.25721013e-02, -7.70232655e-05,
       -3.21948086e-03, 1.51723130e-02, 7.27395248e-03, 4.97637037e-03,
       -1.35759907e-02, 1.94068905e-02, -8.49810243e-03, -1.55661879e-02,
       -9.51472484e-03, 1.25807151e-02, 3.12091433e-03, 1.79066043e-02,
       2.63984874e-02, 4.49805111e-02, -1.86134540e-02, -1.91481784e-02,
       -5.13968058e-02, -3.07177845e-03, 5.57672838e-03, -1.18275424e-02,
       1.52132967e-02, -1.01952786e-02, -2.67657731e-02, 2.06816737e-02,
       -2.91456305e-03, -6.53623417e-02, -1.04772765e-02, 1.11879827e-02,
       8.04533251e-03, 9.17919073e-03, -5.21827769e-03, -6.85883686e-04,
       1.41826626e-02, 6.29788935e-02, 2.42414083e-02, 9.27259400e-03,
       2.77697400e-04, -1.22381868e-02, 1.58597883e-02, 1.99454948e-02,
       -1.89641118e-02, 1.07789785e-02, -4.16689739e-03, -4.03443351e-03,
       -1.64529949e-03, 1.52975246e-02, -2.06031520e-02, 1.67647121e-03,
       -2.50932053e-02, -4.05885912e-02, -2.64641065e-02, 3.51459570e-02,
       -3.16952611e-03, -6.70834491e-03, -1.41750248e-02, 4.58337273e-03,
       1.08111212e-02, -7.47778360e-03, -9.94873513e-03, 1.87099800e-02,
       -5.62732387e-03, -3.65063921e-02, -6.76836306e-03, 9.84651037e-03,
       -8.57144687e-03, -3.04885977e-03, -6.65615313e-03, 1.05219455e-02,
       1.40831887e-03, 8.66929360e-04, -5.26494905e-02, -1.18704159e-02,
       -1.98233454e-03, -8.21238908e-04, 3.35317804e-03, 2.55948841e-03,
       -1.73150580e-02, 1.27706593e-02, 3.42609808e-02, 9.52660516e-02,
       6.20879829e-02, 1.67869329e-02, 2.11869236e-02, 1.38371382e-02,
       -2.22107004e-02, 9.79860500e-03, -1.46484645e-02, -1.11227538e-02,
       -2.17674281e-02, -3.28232758e-02, 3.86041799e-03, 7.69679248e-03,
       4.71451581e-02, 1.34789152e-02, -7.39429845e-03, -1.20011745e-02,
       -1.87241882e-02, 7.02730892e-03, -2.15367824e-02, 4.85474896e-03,
       -2.08402344e-04, -1.68082844e-02, 2.47965343e-02, 1.04538016e-02,
       -1.15248403e-02, -2.62140948e-02, -3.87476198e-02,
       -2.89707780e-02, 9.66813043e-03, 3.19566228e-03, -1.22877164e-02,
       -1.42013805e-03, -1.06219780e-02, 9.56565049e-03, 3.98992635e-02,
       7.56818056e-02, 2.18161121e-02, -2.58384505e-03, -4.60746093e-03,
       -1.22632524e-02, -2.13372465e-02, 1.97760612e-02, 7.68496515e-03,
       8.97860248e-03, -5.71157131e-03, -4.48029116e-02, 5.21332305e-03,
       -1.33625465e-02, -8.25640804e-04, -1.93760227e-02, 1.14901876e-02,
       1.42680258e-02, -3.62075195e-02, 1.25974510e-02, -1.55327646e-02,
       1.27941417e-02, 2.25000829e-03, 6.49435678e-03, 1.09346844e-02,
       -6.24113297e-03, 2.32695118e-02, -3.18977199e-02, 4.76164073e-02,
       -3.45510081e-03, -8.43303651e-03, -1.87343583e-02,
       -1.22314738e-02, 1.21017813e-03, -4.85310418e-04, 8.76330025e-03,
       1.74928308e-02, 3.85661721e-02, 3.90107632e-02, -2.32523587e-02,
       -2.41456728e-05, 2.28278921e-03, 7.34894723e-03, -2.26760153e-02,
       1.81274459e-04, -2.83901058e-02, 2.59920512e-03, 4.97034518e-03,
       3.23960418e-03, -5.04371710e-03, -3.70801501e-02, -1.16266636e-02,
       -2.70239674e-02, -2.49228608e-02, -1.44413598e-02, 1.04020871e-02,
       8.00163113e-03, 7.42335152e-03, 2.19380017e-02, 9.62698832e-03,
       8.34231824e-03, 3.06996927e-02, 3.32982056e-02, 7.52641493e-03,
       -1.05155213e-02, 1.61439553e-02, -1.44747912e-03, -8.03565956e-04,
       -1.58465803e-02, 2.07598042e-02, 5.63183473e-03, -1.22320736e-02,
       1.88594572e-02, -5.19993762e-03, -2.00820491e-02, -3.42971012e-02,
       1.11712366e-02, -3.99750704e-03, 8.28058086e-03, -8.91491596e-04,
       -4.76072654e-02, 6.48614019e-03, -2.81213541e-02, 1.94981247e-02,
       8.60472489e-03, -2.12040544e-03, -1.91922970e-02, -8.95335712e-03,
       1.06111830e-02, 1.13987559e-02, 2.50158627e-02, 9.84762050e-03,
       -1.74195468e-02, -8.21566395e-03, 5.56686381e-03, -1.92649383e-02,
       1.24123422e-02, -3.62796374e-02, -9.22778796e-04, 2.49435119e-02,
       -1.61256958e-02, -4.63971449e-03, -1.58022270e-02, 7.31198583e-03,
       1.68746449e-02, 1.66526213e-02, -2.77447551e-02, 3.47623671e-03,
       4.60841917e-02, -1.45833762e-02, 4.81427880e-03, 1.50839603e-02,
       -3.54505470e-03, -5.05976332e-03, 1.32316975e-02, -1.64962150e-02,
       -1.02077564e-02, -1.66156441e-02, -3.51495147e-02,
       -9.32450220e-03, -1.07244970e-02, 9.13342647e-03, 1.84156988e-02,
       -1.80471558e-02, -4.33920622e-02, 9.12685785e-03, 1.84527540e-03,
       1.49617651e-02, -3.41469585e-03, 9.36538074e-03, -3.40740308e-02,
       -2.23392504e-03, -3.02006751e-02, 2.15538312e-02, 1.88298803e-02,
       1.38474209e-02, -1.52922911e-03, 7.22154649e-03, -1.91984884e-02,
       -1.31248944e-02, 2.28595380e-02, 1.49674818e-03, -5.37492847e-03,
       -4.85767843e-03, -2.09520590e-02, 5.71772363e-03, 2.25086398e-02,
       -1.66341860e-03, -7.36317411e-03, 1.89929444e-03, -2.91532534e-03,
       3.58108804e-02, 1.17314011e-02, -9.43608209e-03, 9.46143735e-03,
       -2.74640624e-03, -1.05632767e-02, -1.35784019e-02,
       -2.50665955e-02, -2.99435519e-02, 3.54034215e-04, -7.28712836e-03,
       -5.04035912e-02, 3.11446190e-03, -6.02472527e-03, 9.69041232e-03,
       1.66432448e-02, 7.30146468e-03, -2.70341486e-02, 9.78705939e-03,
       2.77653635e-02, 2.82198172e-02, 2.46611964e-02, 1.47154490e-02,
       2.06219405e-02, -4.32698801e-03, 2.61303820e-02, -5.62928710e-03,
       5.30990167e-03, -3.96778667e-03, -2.97561893e-03, -3.18861343e-02,
       1.65846432e-03, 1.66187081e-02, -1.46120219e-02, 8.92052706e-03,
       -2.76468471e-02, 1.77081972e-02, -1.86420884e-02, -2.60572806e-02,
       3.47066298e-02, 2.59142704e-02, -8.26349948e-03, 4.99202590e-03,
       3.32823984e-04, -2.08196379e-02, -1.86574105e-02, -1.32784294e-02,
       4.96178074e-03, -1.75800864e-02, -3.35608958e-03, -3.45797348e-03,
       1.81470081e-04, -5.08238981e-03, -1.75465997e-02, 2.89598736e-03,
       -2.06023995e-02, -1.78566843e-03, -2.26736311e-02,
       -2.19851974e-02, -2.56705116e-02, -1.19331032e-02, 1.64912362e-02,
       7.77983991e-03, -2.17440575e-02, 5.44479536e-03, 1.81995127e-02,
       4.68852334e-02, 3.16848941e-02, -1.12550310e-03, 1.77999698e-02,
       -1.82117391e-02, -1.56977754e-02, -1.34297106e-02,
       -5.23411762e-03, -1.39450924e-02, -7.40812719e-03,
       -2.91608181e-03, -2.05077622e-02, 3.38068455e-02, 3.39243077e-02,
       4.87358756e-02, 2.57640611e-03, -4.36386047e-03, -2.35777330e-02,
       -1.17994780e-02, 4.16647224e-03, -1.14873918e-02, 2.38175213e-04,
       -1.14593916e-02, -2.42801849e-02, 2.36160192e-03, -1.21216942e-02,
       -1.59479715e-02, -2.87245568e-02, -1.68885179e-02, 1.24340076e-02,
       -1.16068376e-02, -1.08461045e-02, -2.86609400e-02, 7.22138491e-03,
       3.90890613e-03, 2.64047440e-02, 6.85223192e-02, 5.77095374e-02,
       8.61841068e-03, -1.66170299e-02, -2.79092733e-02, -3.20143104e-02,
       2.10216548e-03, 7.78386090e-03, 6.10755198e-03, -1.31517672e-03,
       2.31009838e-03, -2.24281438e-02, -1.13017522e-02, 7.55200814e-03,
       1.33423330e-02, 2.95242444e-02, -2.50929091e-02, -4.10964340e-02,
       3.32288556e-02, 1.65075157e-02, -7.06781168e-03, 1.01551050e-02,
       9.28530097e-03, 1.77813717e-03, -1.37331197e-02, 2.86677969e-03,
       -2.35599950e-02, 3.04940119e-02, 8.92539043e-03, -3.08670965e-03,
       6.15516258e-03, 9.08417255e-03, 1.08011402e-02, 1.58852972e-02,
       4.52881716e-02, 2.39168648e-02, -3.33809145e-02, -8.62860028e-03,
       -2.67789699e-02, 1.98312779e-03, -2.36723721e-02, -3.84863578e-02,
       -5.36001241e-03, 1.24103473e-02, -2.50506680e-02, 5.74501464e-03,
       1.08059566e-03, 9.03353933e-03, -3.17745060e-02, -2.50437446e-02,
       -4.48993780e-02, -4.02423041e-03, -5.17339911e-04,
       -1.88018642e-02, 9.74244904e-03, 1.95126496e-02, 8.55333637e-03,
       2.95683090e-03, 6.78044558e-03, 5.33274338e-02, -1.47655960e-02,
       2.13451069e-02, 1.70257855e-02, -2.06019450e-02, 5.99909713e-03,
       -1.02751106e-02, -4.07883264e-02, -2.02311389e-02, 6.08623167e-03,
       -6.12591812e-03, 1.42367203e-02, 5.00665884e-03, -7.20264483e-03,
       1.16194850e-02, -1.32858418e-02, -5.88452858e-05, -2.34109405e-02,
       4.86392091e-04, -1.97596066e-02, -4.34920006e-03, 2.06138436e-02,
       -5.00143059e-02, 2.31867786e-02, 3.59209552e-02, -4.53375615e-02,
       -2.66665574e-02, -2.62315031e-02, -8.23757425e-03, 2.21542339e-03,
       8.77460837e-03, 4.08709422e-03, 6.59927772e-03, 5.54076955e-03,
       -8.63880268e-05, 2.23695748e-02, 3.09664700e-02, 9.36395582e-03,
       3.39872651e-02, -1.70714539e-02, -8.76583531e-03, 1.21955434e-03,
       2.45342627e-02, 1.14622377e-02, 1.49828028e-02, -7.26835802e-03,
       -2.76837237e-02, 7.39744119e-03, -1.37981959e-02, 1.05642555e-02,
       -9.57641285e-03, 3.27930413e-02, -1.57802075e-04, 7.45253917e-03,
       -7.77577341e-04, 5.47304936e-03, -1.38582811e-02, -6.11794833e-03,
       1.06282327e-02, 8.80482048e-03, 7.80614465e-03, 4.65097278e-03,
       2.23737629e-03, -2.16258485e-02, -2.82337889e-02, 1.31216832e-03,
       -3.75385433e-02, -1.68716982e-02, -1.64797087e-03, 1.55121535e-02,
       -2.35564634e-02, 3.55474302e-03, -3.56618576e-02, 8.95911735e-03,
       1.79544277e-02, 2.13505439e-02, 9.87990014e-03, -8.40596948e-03,
       -1.66618116e-02, 2.12012734e-02, 2.70802062e-04, -3.08859255e-02,
       -1.43878057e-03, 1.32226699e-03, -7.53132021e-03, 2.58966126e-02,
       2.10769232e-02, 4.34519611e-02, -2.03356855e-02, 2.55859289e-02,
       4.00513224e-02, 2.32018642e-02, 3.07341162e-02, -2.84075327e-02,
       -1.84598435e-02, -1.22241070e-03, -1.47672379e-02, 9.94109921e-03,
       -1.62018300e-03, -3.48435715e-02, -1.12673659e-02,
       -4.19897679e-03, -2.80844048e-02, -7.56400824e-03, 8.19489080e-03,
       1.05077066e-02, -2.28299468e-04, 6.57960959e-03, -3.98548394e-02,
       2.74776574e-02, 2.02386193e-02, 2.93468926e-02, 4.21911925e-02,
       2.14334913e-02, -3.31137958e-03, -9.60763264e-03, 9.00527835e-03,
       1.98648777e-03, -3.19411419e-02, -8.99172202e-03, 2.50067026e-03,
       -1.66573040e-02, 1.42854184e-03, 1.26370357e-03, -2.02375352e-02,
       -1.28036896e-02, -1.66395716e-02, 3.51128243e-02, -3.77033465e-02,
       1.17548956e-02, 1.76937822e-02, 2.33060680e-04, -2.26575881e-02,
       6.89864624e-04, -3.76510881e-02, 2.44472641e-04, -1.33771710e-02,
       -9.80953034e-03, 9.93994344e-03, 1.59438774e-02, -2.03518905e-02,
       1.81291718e-02, 1.61416885e-02, -1.33499112e-02, -5.80491778e-03,
       5.50752599e-03, 1.56603567e-02, 9.70272161e-03, -1.92038529e-02,
       -8.00583232e-03, 1.02279382e-02, 6.29615318e-03, 2.54294854e-02,
       1.77628268e-02, -3.06893373e-04, -1.31173814e-02, 9.60047415e-04,
       4.17951532e-02, 4.21273895e-02, -8.92988779e-03, -2.07074266e-02,
       -3.95152196e-02, -9.75886267e-03, -1.47060519e-02,
       -3.16114128e-02, 3.31768654e-02, -1.47182979e-02, -1.18627474e-02,
       -1.33959521e-02, 2.48943251e-02, 4.60482761e-02, 3.40711363e-02,
       2.08721366e-02, 8.34211800e-03, -1.17650554e-02, -2.74430681e-03,
       5.94869489e-04, 9.21644457e-03, -2.61064433e-03, 3.70241329e-03,
       -1.00328708e-02, 3.02121453e-02, -1.12264939e-02, 3.60493106e-03,
       -2.84066275e-02, -2.97728553e-02, -2.63229329e-02, 2.05456223e-02,
       3.56045738e-02, 1.56392939e-02, 1.58182029e-02, -8.39610584e-03,
       3.28960866e-02, 6.22828044e-02, 4.36407775e-02, 2.60554925e-02,
       -6.38901163e-03, -3.17870378e-02, -3.73541899e-02, 7.85831478e-04,
       9.61796939e-03, 6.19471166e-03, -2.44828388e-02, -1.98952015e-02,
       -1.71203576e-02, 1.26246372e-02, 4.93160188e-02, 8.50076135e-03,
       3.80929001e-02, 1.17160250e-02, -4.17647995e-02, -2.81808805e-02,
       -7.26170430e-04, -2.12803837e-02, 3.16693611e-03, 7.54096732e-03,
       -1.30231306e-02, 6.20624376e-03, -1.99109428e-02, 3.59991565e-03,
       -1.48718292e-03, -6.93479320e-03, -1.02704577e-03,
       -3.20305787e-02, -9.68135148e-03, 1.80447362e-02, 2.07867771e-02,
       1.24752428e-02, -1.28556602e-02, 3.17051858e-02, 3.59828733e-02,
       1.68638292e-03, -1.38356201e-02, -3.06112915e-02, -3.85282673e-02,
       -1.59462281e-02, -4.39853873e-03, 1.56100467e-02, -1.79779474e-02,
       -7.01181078e-03, -2.09805593e-02, -6.70103589e-03, 1.71851963e-02,
       2.55371239e-02, 2.83236206e-02, -3.24436091e-02, -1.82142891e-02,
       9.54470504e-03, 1.67198982e-02, -1.78930387e-02, -1.42641356e-02,
       -8.07992462e-03, 2.43784674e-02, 1.78383607e-02, 3.98954488e-02,
       -5.73479477e-03, -7.37928553e-03, 1.35161905e-02, 7.15981843e-03,
       -1.29673886e-03, -1.52250547e-02, 1.66037329e-03, 2.88701467e-02,
       4.92480211e-03, 1.33140667e-04, -3.03004663e-02, -5.55366464e-03,
       1.25187505e-02, -1.11259371e-02, -3.54696736e-02, -1.56112341e-02,
       -1.11025395e-02, -3.03226393e-02, -1.86127368e-02,
       -2.50694975e-02, -8.43815692e-03, 8.06563720e-03, -7.60574825e-03,
       -3.18903215e-02, -9.32865962e-03, 5.91395143e-03, -2.24199742e-02,
       8.30072537e-03, -8.42707790e-03, 8.09971988e-03, 5.28429635e-04,
       -1.71485227e-02, -9.10985749e-03, 6.70606047e-02, 5.87908477e-02,
       1.32684102e-02, 1.05076525e-02, -6.66836370e-03, -2.68073995e-02,
       -1.64744479e-03, -2.72044330e-03, 5.16081788e-03, 1.46866199e-02,
       -3.16890050e-03, 6.43236283e-03, -1.25687514e-02, -2.18828600e-02,
       -4.35147900e-03, -4.90700081e-03, -1.14074452e-02,
       -3.04214898e-02, 8.35559424e-03, -9.40436497e-03, 1.40242279e-02,
       -2.84102522e-02, -7.46188313e-03, -1.69064440e-02,
       -1.76514238e-02, -5.08821988e-03, -2.78505497e-02,
       -3.07673570e-02, -2.11501252e-02, -1.22704506e-02, 8.69376771e-03,
       -2.32441537e-02, -2.20274292e-02, 9.77509934e-03, 2.36900859e-02,
       1.78700425e-02, 4.23594937e-02, 5.56932911e-02, -1.93743650e-02,
       1.86419114e-02, -6.04387745e-03, -8.56684800e-03, -4.23196983e-03,
       2.14412808e-02, 1.54593112e-02, -2.21250136e-03, -1.49234692e-02,
       8.90945736e-03, -1.46976728e-02, -3.23929265e-02, 6.61158143e-03,
       8.09127372e-03, 8.24093353e-03, 4.02436731e-03, 4.12211427e-03,
       -6.79062633e-03, -1.05771199e-02, -3.35605908e-03,
       -5.04926499e-03, -2.01298390e-02, -2.89793219e-02, 5.64459898e-03,
       -9.02767945e-03, -3.28912698e-02, 2.30071903e-03, -1.88324682e-03,
       4.75949055e-04, -9.53094941e-03, -1.30768754e-02, -3.62167764e-03,
       5.11773047e-04, 5.75406849e-03, -4.60578175e-03, 3.56293283e-02,
       1.91667732e-02, 4.57897112e-02, 3.56380939e-02, 9.19615570e-03,
       -1.51973916e-02, 2.30936073e-02, -1.80581231e-02, -1.69464829e-03,
       1.23278555e-02, 5.53719187e-03, 1.21273857e-03, -7.85269216e-03,
       -7.23324995e-03, 2.26485580e-02, -1.73415877e-02, -3.12713184e-03,
       -3.60496752e-02, -2.88047548e-03, -1.56424884e-02, 1.23012401e-02,
       2.25668810e-02, -3.61589086e-03, -2.38860752e-02, 4.69566369e-03,
       -2.63743009e-02, -1.90626793e-02, 3.49641801e-03, 1.59344506e-02,
       -1.60409436e-02, -3.08176763e-02, -2.51242816e-02,
       -9.56295244e-03, 1.09822105e-03, -1.33788828e-02, -1.03590358e-03,
       7.34493556e-03, 2.54870225e-02, 1.37618771e-02, -8.85898154e-03,
       -1.40339192e-02, 7.77066220e-03, 5.69749437e-03, 4.08474803e-02,
       -4.06006584e-03, -1.07938554e-02, 6.84182905e-03, 2.98616616e-03,
       3.41241620e-02, 3.50986570e-02, 5.45647042e-03, -6.42669154e-03,
       -4.33420055e-02, -4.40296344e-02, -1.30839332e-03, 1.43097267e-02,
       -6.64582569e-03, -2.21344288e-02, -3.01790554e-02,
       -2.89939251e-03, -2.27390020e-03, 1.60517450e-03, 1.57748833e-02,
       -2.09072400e-02, -1.70452113e-04, -4.25081514e-03,
       -1.74084678e-03, -2.95465044e-03, 4.88983584e-04, -8.91001243e-03,
       1.12373875e-02, -1.24938507e-02, -7.52899284e-03, -1.63746588e-02,
       1.98496622e-03, -2.02681217e-02, -3.12985247e-03, -2.24092305e-02,
       2.51442268e-02, 7.62145743e-02, 6.14549080e-03, 1.36708571e-02,
       2.29910761e-02, 1.12072499e-02, 4.67127375e-02, 3.49752009e-02,
       1.81244183e-02, -3.80774611e-03, -3.83036137e-02, -4.13408205e-02,
       -2.28920244e-02, 7.28697749e-03, 1.33174788e-02, -2.14437973e-02,
       -2.27743704e-02, 7.14323297e-03, 1.93043947e-02, 1.19001698e-02,
       1.12696951e-02, 2.06780061e-02, -3.06388736e-02, -1.30431494e-02,
       -1.28244683e-02, -2.73395167e-03, 2.61410535e-03, 7.79349171e-03,
       4.59115505e-02, 5.00118081e-03, -3.35925408e-02, 1.45789087e-02,
       2.49820072e-02, -1.38085224e-02, -4.25065355e-03, 3.83936404e-03,
       2.91926321e-03, -4.69745416e-03, 3.78308706e-02, 2.84261256e-02,
       -1.82734020e-02, 3.61661520e-03, 2.68435348e-02, 4.58500646e-02,
       3.08377482e-02, -1.28398249e-02, -3.80871408e-02, -5.57369962e-02,
       -1.98120717e-02, 1.63555308e-03, 2.57762633e-02, -1.25974491e-02,
       -2.95498129e-02, -1.07462062e-02, -9.75071639e-03, 3.31290998e-02,
       5.06544895e-02, 3.55344936e-02, -1.73518676e-02, -4.16880995e-02,
       -1.17291592e-03, 1.62183717e-02, -2.48181969e-02, -1.88103002e-02,
       -6.42361771e-03, 6.09262148e-03, -1.35393729e-02, 1.04597034e-02,
       1.16827814e-02, -9.51233413e-03, 8.96792300e-03, 8.93852673e-03,
       -1.08989151e-02, 3.05636227e-02, 4.69085537e-02, 3.35406736e-02,
       8.33542179e-03, 2.78186873e-02, 1.86989810e-02, 2.35105548e-02,
       1.03929574e-02, -1.16130207e-02, -3.87301184e-02, -2.27637962e-02,
       -4.84743826e-02, 3.38749494e-03, 3.07120639e-03, -3.89082171e-03,
       -4.49205982e-03, 1.90869742e-03, 1.22771664e-02, 1.85967572e-02,
       3.93953314e-03, 2.47899145e-02, 1.80806573e-02, -2.64677890e-02,
       -3.96574754e-03, 2.81463086e-04, 4.69997805e-03, -2.77103763e-02,
       1.93359796e-02, 3.44262309e-02, 2.00232938e-02, -1.79744288e-02,
       2.65539940e-02, 1.22466180e-02, -1.42228138e-02, 9.33210552e-03,
       -5.40968031e-03, 1.12305647e-02, 8.21338210e-04, 1.29575953e-02,
       1.71516426e-02, -1.48761540e-03, -2.82322499e-03, -1.35046626e-02,
       1.35975331e-02, -2.76536476e-02, -1.79732442e-02, -1.39710838e-02,
       -2.03151330e-02, -2.57177372e-02, -2.68114936e-02,
       -3.22362185e-02, -2.33300403e-02, 1.71455033e-02, -2.27045957e-02,
       -1.54505146e-03, -1.35638397e-02, 6.53294008e-03, -1.01140235e-03,
       -2.84988862e-02, -1.86001491e-02, -2.51412019e-03, 2.28613205e-02,
       3.91652323e-02, 1.35100558e-02, 2.47222744e-02, 5.97430170e-02,
       1.68817751e-02, 3.70667651e-02, 3.79651003e-02, -4.24417527e-03,
       1.20303677e-02, 1.54545577e-02, 9.54396557e-03, 2.28939578e-02,
       4.58592214e-02, -1.79641936e-02, 1.52231315e-02, 2.87288707e-02,
       2.50694714e-03, 4.14058194e-03, -1.94622558e-02, -9.90717555e-04,
       3.45417974e-03, 3.79258045e-03, -2.30926163e-02, -1.63696352e-02,
       -1.78723522e-02, -5.16539672e-03, 2.15464225e-03, -2.19018059e-03,
       -7.33321672e-03, 7.34692300e-03, 1.31321643e-02, -2.01748079e-03,
       -2.50130203e-02, -2.01624818e-02, -3.19798589e-02, 1.07496055e-02,
       7.00509641e-03, -8.41019023e-03, -1.12428954e-02, 3.08700781e-02,
       3.49638313e-02, 7.03857914e-02, 7.67035484e-02, 2.34522410e-02,
       1.12620173e-02, 4.20142664e-04, -2.15859916e-02, -1.40108038e-02,
       4.09056956e-04, 9.77104250e-03, -2.40981509e-03, -2.37853806e-02,
       -8.08114826e-04, 1.09900134e-02, -3.77269834e-02, -1.93975642e-02,
       1.39529153e-03, -1.44952359e-02, -9.68726166e-03, 3.00141261e-03,
       5.00521343e-03, -1.59990489e-02, -1.18851466e-02, -8.54935218e-03,
       -3.61934081e-02, -1.07533280e-02, -1.52637335e-02, 1.12918047e-02,
       -2.16333917e-03, -2.70180497e-02, -1.24109918e-02, 2.21063402e-02,
       -1.66981872e-02, -2.75518280e-02, -3.48052522e-03, 1.19631179e-02,
       5.03355451e-02, -3.75055918e-03, 7.91633688e-03, -1.54806022e-02,
       -2.65918747e-02, 7.94290937e-03, 4.13051993e-03, 4.18915926e-03,
       -4.52109100e-03, -2.49810871e-02, 3.01604960e-02, 4.38457057e-02,
       2.55783852e-02, 1.53556289e-02, 2.05311202e-03, -2.40910724e-02,
       -3.28790471e-02, -3.26693826e-03, -9.86566022e-03,
       -7.94675201e-03, -1.15062231e-02, -1.02401860e-02,
       -9.60571319e-03, 1.66930351e-02, 1.38728246e-02, 4.31237137e-03,
       7.73423491e-03, -1.82084483e-03, -1.53620634e-02, 7.91345257e-03,
       1.16834184e-02, 1.07713444e-02, -1.07571790e-02, 3.20625119e-03,
       -4.07971954e-03, 9.73636471e-03, 1.00429878e-02, 6.21751882e-03,
       -1.79374553e-02, -3.47362598e-03, 1.11912191e-02, -6.44455152e-03,
       5.27026989e-02, 3.37289311e-02, 2.85652149e-02, -1.32504888e-02,
       1.18993642e-02, 4.66043688e-02, 6.33672103e-02, -6.86282571e-03,
       3.19825485e-03, -2.24674512e-02, -3.30880582e-02, -3.09724063e-02,
       2.31306292e-02, 1.28654661e-02, -1.01130800e-02, -1.73165649e-02,
       -9.12678521e-03, -4.01390577e-03, -3.87876364e-03,
       -1.23322085e-02, -7.70248799e-03, -5.52200654e-04,
       -3.00107375e-02, -1.10685900e-02, -3.23215723e-02,
       -1.04189832e-02, -1.08753126e-02, 2.38666385e-02, -2.07314640e-02,
       1.10449400e-02, -5.68868686e-03, 4.14934522e-03, -7.39972806e-03,
       1.12470530e-03, -9.50200949e-03, 2.34448761e-02, 7.33203664e-02,
       6.88310191e-02, 2.84668636e-02, 1.62021199e-03, 1.38311535e-02,
       2.97987107e-02, 5.68876714e-02, 4.68654595e-02, -5.15497662e-03,
       -1.64292604e-02, -3.89561914e-02, -1.57744065e-02, 1.87384933e-02,
       6.28619781e-03, -1.14640500e-02, -3.85753773e-02, -2.93121487e-03,
       1.41068939e-02, 1.45203872e-02, 2.05010902e-02, 1.37777375e-02,
       -2.06831433e-02, -1.75471902e-02, -2.68391371e-02,
       -1.38894292e-02, -4.34361352e-03, 1.13552641e-02, 1.11190146e-02,
       3.03139887e-03, -4.92886500e-03, -1.32778427e-03, 2.90802903e-02,
       1.13215949e-02, 4.74486919e-03, 2.59369407e-02, 3.10412012e-02,
       7.18838871e-02, 6.44150227e-02, 3.59479375e-02, 3.54699641e-02,
       -9.33304615e-03, 2.75232047e-02, 2.04340070e-02, 3.83566953e-02,
       -2.58680657e-02, -2.42128111e-02, -2.29771454e-02,
       -6.80271164e-03, -7.12254504e-03, 1.44134583e-02, -3.94047759e-02,
       -1.49974683e-02, -9.79913492e-03, 4.27834783e-03, -1.62250008e-02,
       9.56361461e-03, -1.75372548e-02, -1.41147505e-02, -4.18366864e-02,
       -2.69403625e-02, -2.03728415e-02, 2.20527444e-02, -1.19610382e-02,
       7.10955262e-02, 3.62819284e-02, 1.70450974e-02, 1.61654539e-02,
