%YAML:1.0
cvHOGClassifier: !!opencv-object-detector-hog
   winSize: [ 64, 128 ]
   blockSize: [ 16, 16 ]
   blockStride: [ 8, 8 ]
   cellSize: [ 8, 8 ]
   nbins: 9
   derivAperture: 1
   winSigma: 4.
   histogramNormType: 0
   L2HysThreshold: 2.0000000000000001e-01
   gammaCorrection: 1
   nlevels: 64
   SVMDetector: [ 3.43241729e-02, -4.07807939e-02, -5.29300869e-02,
       4.42297198e-02, 4.39234972e-02, -8.75590928e-03, -5.62942997e-02,
       -4.26418235e-04, 5.89854494e-02, 4.49773818e-02, -2.38969885e-02,
       -2.16127373e-02, 8.01620074e-03, -1.11577287e-02, 6.51862025e-02,
       -9.28105973e-03, 1.99486613e-02, 1.44152120e-02, 2.42466349e-02,
       -5.53631634e-02, -3.77751999e-02, 4.51729074e-02, 2.00132113e-02,
       -3.54732038e-03, -7.53170848e-02, -2.71431729e-02, 2.47953068e-02,
       3.46229635e-02, -2.96876649e-03, 3.43512557e-02, 1.67642925e-02,
       -2.77226903e-02, -8.85293726e-03, -3.52061316e-02, 1.06361378e-02,
       2.62784921e-02, -1.27489548e-02, -1.83779672e-02, 6.21151179e-03,
       3.32878679e-02, 2.29485016e-02, 4.38256226e-02, -4.37654890e-02,
       -2.15211185e-03, 3.47963013e-02, 6.74913730e-03, 4.15854342e-02,
       2.85154954e-02, 2.88563836e-02, -3.12845176e-03, 5.08784913e-02,
       3.43479030e-03, 2.36824211e-02, 4.42506038e-02, -2.83749998e-02,
       6.62172632e-03, 4.55645733e-02, 4.49228473e-02, -2.08666828e-02,
       1.07325278e-02, 4.74716444e-03, -2.01133359e-02, -3.00545734e-03,
       -4.51034494e-02, -1.43416144e-03, 5.04004955e-03, 7.11217383e-03,
       -2.93514896e-02, 2.85404995e-02, 2.70616319e-02, -9.78254993e-03,
       -2.91981902e-02, 3.99784967e-02, 6.92198472e-03, -2.78486982e-02,
       9.72320605e-03, 1.19510796e-02, 4.01414596e-02, 4.50990945e-02,
       1.81492213e-02, 2.16472689e-02, 4.78459932e-02, 2.71382965e-02,
       6.05479255e-03, 1.59507524e-02, 1.06965173e-02, -2.63032084e-03,
       3.91974999e-03, 5.11147780e-03, 3.33558321e-02, -1.31940907e-02,
       3.01900376e-02, -1.31505132e-02, -1.06180031e-02, 1.88079639e-03,
       8.79201293e-03, 2.04270408e-02, -1.53114768e-02, -3.18653882e-02,
       2.36013085e-02, -5.02787065e-04, -1.65888236e-03, -2.22123023e-02,
       1.80723295e-02, -1.36444839e-02, 2.29396787e-03, 1.11727472e-02,
       2.14813445e-02, 8.77723657e-03, 3.19213755e-02, -3.90547365e-02,
       2.05639023e-02, -1.02486173e-02, -1.84926647e-03, -2.96890754e-02,
       5.30240266e-03, -2.66045909e-02, -2.23717000e-02, -8.36591329e-03,
       -2.57450286e-02, 4.57074540e-03, 1.15385773e-02, -1.93053726e-02,
       3.32689248e-02, 1.57518126e-02, -2.13375892e-02, -2.34093191e-03,
       -1.37224351e-03, 6.79670973e-03, 5.22833271e-03, 2.47256197e-02,
       3.49113643e-02, 9.08405799e-03, 5.46031930e-02, -2.24717241e-02,
       -1.81313921e-02, -6.41124919e-02, 2.09046365e-03, 5.07640047e-03,
       -2.09545996e-02, -2.49789730e-02, 1.49902813e-02, 3.03806085e-02,
       1.64887160e-02, -4.46182415e-02, 2.92160884e-02, -2.11357009e-02,
       3.04475450e-03, -1.22369407e-02, -3.49826142e-02, -8.44946597e-03,
       1.52096329e-02, -4.03296798e-02, 4.94033331e-03, -1.97891202e-02,
       -5.78679517e-02, 2.14568917e-02, 1.38338683e-02, -5.53896744e-03,
       -1.01210419e-02, 5.40085603e-03, 1.96708515e-02, 1.14379348e-02,
       3.36392894e-02, 1.11132506e-02, 8.23257957e-03, 2.60146782e-02,
       1.92859378e-02, -8.88690539e-03, 6.43126518e-02, -1.30696623e-02,
       -4.74479571e-02, 5.23193041e-03, -1.94028225e-02, -2.12429166e-02,
       2.72197835e-02, 2.05408148e-02, -3.26694688e-03, 1.40975462e-02,
       -2.24606720e-05, 2.77447253e-02, -7.36787766e-02, -4.12793718e-02,
       7.20426813e-02, 1.32228862e-02, 2.17442289e-02, -3.89610045e-02,
       2.49264557e-02, 2.67431624e-02, -2.18178015e-02, -5.24357036e-02,
       -1.62937436e-02, 2.97027803e-03, 2.78639188e-03, -2.29924563e-02,
       -2.97666099e-02, -1.00168958e-02, -2.70467233e-02, 3.39546017e-02,
       -5.38616069e-02, -2.52601560e-02, 3.74610424e-02, 1.25165833e-02,
       2.55804379e-02, -1.24487914e-02, 6.95913434e-02, -3.68058681e-02,
       -2.29148529e-02, 4.49150428e-02, -1.73954554e-02, -1.55871706e-02,
       -2.71740369e-02, -6.69669220e-03, -1.43901566e-02, 4.73091863e-02,
       -5.05455360e-02, -1.01232305e-02, -1.88455787e-02, 7.52695464e-03,
       3.38511728e-02, -7.75501924e-03, -3.77999805e-03, -6.06838707e-03,
       -2.01658048e-02, 1.82548054e-02, -2.20260350e-03, -6.11880571e-02,
       -3.52733284e-02, 1.15140965e-02, 1.60489287e-02, -5.15075549e-02,
       -5.17237149e-02, 1.14643173e-02, 3.88758816e-02, -1.12774428e-02,
       8.41313135e-03, 5.35057019e-03, 2.00075414e-02, -6.76635234e-03,
       2.26481538e-02, -1.89064885e-04, 8.03361684e-02, 4.59342590e-03,
       -1.33310799e-02, -2.54094806e-02, 4.42445138e-03, -3.68204452e-02,
       1.83279961e-02, -4.73942002e-03, -7.30391666e-02, 3.04431748e-02,
       -1.81860290e-02, 3.87259163e-02, -2.57984903e-02, -5.20185456e-02,
       2.87093502e-02, 5.70974760e-02, -2.11773952e-03, -4.81352098e-02,
       2.39346568e-02, 1.56746879e-02, 1.41486488e-02, -4.78822626e-02,
       -4.25962023e-02, -2.68270019e-02, 4.13556350e-03, -1.20238950e-02,
       -4.16097939e-02, -4.08070022e-03, -3.68225724e-02, 1.27507327e-03,
       2.55730953e-02, 2.90456396e-02, 1.85966827e-02, -1.81350205e-03,
       4.36905734e-02, -2.63658036e-02, 6.36905357e-02, -5.65637928e-03,
       -1.05899442e-02, -1.56631414e-02, -1.70121866e-03, 1.69147253e-02,
       9.38147400e-03, 1.61432456e-02, -2.65430566e-03, 7.49122957e-03,
       -1.91969592e-02, -1.36540839e-02, 1.98729243e-03, 6.84219366e-03,
       4.52897996e-02, 5.22145536e-03, 4.67199134e-03, 1.21451383e-02,
       1.26286456e-03, -1.02272220e-02, -4.34669368e-02, 2.43440992e-03,
       -2.09056232e-02, 2.54444182e-02, 2.62790639e-02, -1.38003414e-03,
       -3.35239660e-04, -1.41918624e-03, -4.45363820e-02, 2.95514930e-02,
       9.44586098e-03, -2.49875360e-03, -1.90154172e-03, -6.56647682e-02,
       3.27852904e-03, 2.90916190e-02, -9.39693302e-03, 2.62017827e-02,
       -1.31573677e-02, -1.67961102e-02, 2.00510770e-02, -4.55066226e-02,
       1.00241769e-02, -1.54772215e-02, -8.36960878e-03, -2.26279292e-02,
       2.16484424e-02, -1.70922000e-02, -6.56598771e-04, -3.23342569e-02,
       -6.67651929e-03, -2.70503666e-02, -1.93768013e-02,
       -1.76310930e-02, 1.89853869e-02, 4.11759466e-02, -3.35820541e-02,
       -7.06432313e-02, -5.13443761e-02, 1.30324792e-02, -2.35841908e-02,
       2.69501638e-02, -3.23846713e-02, -1.90402772e-02, 1.28490524e-02,
       -1.08883390e-03, 1.95868835e-02, 2.81960946e-02, 3.10261548e-03,
       -1.41683472e-02, 9.31183528e-03, -1.07719610e-02, 3.26344818e-02,
       1.10575715e-02, -5.84846139e-02, 2.13476289e-02, -7.47723365e-03,
       2.73002405e-02, -1.18611082e-02, -1.44491130e-02, -2.31175143e-02,
       -1.59090348e-02, -3.31348628e-02, 1.32424152e-02, -3.58357280e-02,
       -6.13370799e-02, 3.20223756e-02, -1.92792248e-02, 4.43418883e-02,
       -1.12548273e-03, -7.88025744e-03, 1.26603702e-02, 1.83068460e-03,
       -3.14191654e-02, -1.91265084e-02, 1.99855268e-02, -1.05286781e-02,
       -2.09769141e-02, -7.73416227e-03, 1.05620166e-02, -2.71074884e-02,
       1.46396132e-02, 5.39283268e-02, 4.65080189e-03, 2.71242522e-02,
       2.37922445e-02, 4.02526185e-02, 2.67810021e-02, 7.38588860e-03,
       -3.21942940e-03, -2.97548361e-02, 3.05835847e-02, 1.54225370e-02,
       4.14254926e-02, 1.08541399e-02, 2.26572342e-03, 1.91514902e-02,
       7.39477342e-03, -3.02801430e-02, -3.50591028e-03, 1.89889141e-03,
       3.24650556e-02, 1.43424887e-02, -1.65644940e-02, 7.11325381e-04,
       -9.42090526e-03, 4.00729030e-02, 2.51647029e-02, -2.01358739e-02,
       -3.04019749e-02, -7.39950733e-03, -2.59932391e-02,
       -3.14424932e-02, -1.03806155e-02, -1.72039610e-03, 2.08940543e-02,
       -3.52893881e-02, 8.32477212e-03, 2.05428316e-03, -5.29490504e-03,
       -1.84406172e-02, 1.99553240e-02, -1.89820386e-03, 4.05403934e-02,
       2.19415706e-02, -7.55815161e-03, -2.85786148e-02, -6.44409750e-03,
       -2.74969973e-02, -1.36495857e-02, 1.01713892e-02, 1.92805920e-02,
       1.27833954e-03, -1.88283827e-02, -4.81343865e-02, 2.30667666e-02,
       2.61960048e-02, -6.69251056e-03, 6.03421126e-03, -2.92830411e-02,
       -1.47540420e-02, -5.54722212e-02, -2.99813934e-02,
       -1.62410736e-02, -3.90096530e-02, -7.00548152e-03, 3.37640964e-03,
       -6.83122352e-02, -7.02321902e-03, -4.93418016e-02,
       -2.01620329e-02, 1.21584916e-02, -3.46587040e-02, 4.15886939e-02,
       4.65508252e-02, -3.50576527e-02, 6.13292418e-02, 2.07731929e-02,
       6.03694879e-02, 3.57107632e-03, 1.41272740e-02, 6.04773359e-03,
       -2.56042108e-02, -1.21183433e-02, -9.31020733e-03, 2.91027632e-02,
       5.27460687e-03, -8.88195168e-03, 1.77739896e-02, -1.62015036e-02,
       -3.58858258e-02, -5.15736192e-02, 1.29348282e-02, 4.71371673e-02,
       -2.59551872e-03, 7.81701133e-03, 2.03713891e-03, 5.54145779e-03,
       3.85097377e-02, -1.13138491e-02, -5.06487954e-03, 1.34712523e-02,
       2.73501128e-02, -1.54649960e-02, -9.19355080e-04, -1.70977246e-02,
       -2.04614215e-02, -5.84170185e-02, -4.06838069e-03, 2.74976995e-03,
       -3.45225283e-03, 4.53790538e-02, -1.24785984e-02, 9.66380443e-03,
       4.81956974e-02, 4.05879430e-02, -1.47990463e-02, -1.07783945e-02,
       -3.26767974e-02, -7.89788458e-03, 1.51038673e-02, 1.04195606e-02,
       -1.56489667e-02, 2.00521182e-02, 3.97026492e-03, -4.80299480e-02,
       3.18072527e-03, 4.21629241e-03, 6.83076158e-02, -1.02733765e-02,
       -2.33084839e-02, -5.36915064e-02, 6.21505035e-03, -4.21165153e-02,
       -3.76946968e-03, 4.32315953e-02, 3.00805899e-03, -1.30481860e-02,
       1.63214263e-02, -1.04501313e-02, -4.91026379e-02, 9.31498688e-03,
       -2.59069297e-02, -1.81101938e-03, 5.88363111e-02, -2.17890348e-02,
       -4.59503196e-02, -1.22416215e-02, 2.05284432e-02, -2.48549432e-02,
       2.43347026e-02, 2.96195857e-02, 6.61597820e-03, 5.77649698e-02,
       -4.08581598e-03, -1.92277506e-02, -2.59710243e-03, 2.00257096e-02,
       -1.72728803e-02, 3.60817946e-02, 4.74362029e-03, -1.34006245e-02,
       6.61755204e-02, 2.57071387e-02, 1.11115379e-02, -3.53941061e-02,
       3.43398079e-02, 8.11047181e-02, 3.17284465e-02, -4.54144552e-02,
       -2.56057288e-02, -1.66090969e-02, 4.65179943e-02, 2.22432949e-02,
       1.43135749e-02, 3.18787582e-02, 9.99742467e-03, -7.42059993e-03,
       2.86905020e-02, 2.17471831e-02, 2.31038164e-02, 1.76007170e-02,
       8.39043316e-03, -1.74813401e-02, 1.12955342e-03, -1.28017683e-02,
       3.09821237e-02, 4.68686514e-04, -1.15985805e-02, 3.04230861e-02,
       3.08421962e-02, -1.73948575e-02, 4.39057546e-03, -1.97645333e-02,
       -4.30343254e-03, 2.12716013e-02, 1.63513585e-03, 6.24215743e-03,
       2.48275585e-02, 1.14689311e-02, -1.17290334e-03, -2.30566114e-02,
       -4.40991819e-02, -3.92006151e-03, -1.26359165e-02,
       -3.70601565e-03, -2.96222121e-02, 2.03314405e-02, 1.03944866e-02,
       -3.14964056e-02, -3.02714854e-02, -3.82811092e-02, 6.58080680e-03,
       3.42820063e-02, 3.28752249e-02, -4.85167699e-03, 3.09428927e-02,
       4.64659510e-03, -5.44152735e-03, 4.88159992e-03, -1.49793802e-02,
       2.28512622e-02, 2.05940325e-02, -1.28580267e-02, -4.32256684e-02,
       -1.35662695e-02, 3.91128892e-03, 2.49698316e-03, -1.80024013e-04,
       -1.27965417e-02, -2.85566133e-02, 3.00699119e-02, -4.21451367e-02,
       -4.39233333e-02, 1.22839315e-02, -1.08072441e-02, 1.53539339e-02,
       -3.40607539e-02, -8.90709274e-03, 8.74947477e-03, -3.88122688e-04,
       -2.98572093e-04, -4.06942442e-02, -8.29422381e-03, 1.74263399e-02,
       -1.40351115e-03, 4.37280163e-03, 2.13420931e-02, 5.58972843e-02,
       2.39326973e-02, -6.18371880e-03, 1.53848445e-02, 2.71039680e-02,
       8.64144322e-03, 5.88150462e-03, 9.97978845e-04, -6.10296195e-03,
       -2.90375687e-02, 3.11440099e-02, -2.48134993e-02, -3.69123407e-02,
       6.93045324e-03, -4.42019254e-02, -4.41262834e-02, -1.62402578e-02,
       1.44937905e-02, 2.60835327e-02, 3.67034674e-02, 1.26203839e-02,
       5.58739249e-03, 5.89045649e-03, -5.45232520e-02, -2.37380024e-02,
       -4.71253879e-04, -3.85982618e-02, -1.18547548e-02,
       -4.14770097e-04, -3.63983586e-02, 4.80100280e-03, -1.77159179e-02,
       -1.31354369e-02, 1.95469353e-02, -3.23068127e-02, -6.56055808e-02,
       -1.31874811e-02, -1.37509517e-02, -3.16720866e-02,
       -2.71469485e-02, 8.39326810e-03, -2.28549726e-02, 4.92380559e-02,
       3.51069830e-02, -9.22368094e-03, -3.17383707e-02, 1.08956257e-02,
       6.78243442e-03, -1.07282065e-02, -1.80786732e-03, 1.89947225e-02,
       8.96948352e-02, -6.30156603e-03, -9.41091496e-03, 5.40032759e-02,
       2.02387888e-02, -1.94529115e-04, -1.86338201e-02, -2.40239035e-02,
       3.73660475e-02, 4.44068424e-02, -4.37547602e-02, -6.35729060e-02,
       2.33387854e-02, 6.35419646e-03, -3.91561054e-02, -4.61426750e-03,
       -9.83613543e-03, -2.41894294e-02, 2.49195509e-02, -5.78175858e-02,
       -4.64826487e-02, -2.17533354e-02, 2.01498307e-02, -1.68400817e-02,
       -2.34726928e-02, 9.84783564e-03, 4.51641083e-02, 8.02763775e-02,
       -1.28093995e-02, -3.93882059e-02, -3.93488742e-02, 1.74125358e-02,
       -2.50583030e-02, -2.08841674e-02, -5.83815947e-02, 2.48555019e-02,
       3.78381088e-02, -9.75300595e-02, -2.17520241e-02, -4.92859120e-03,
       -3.12773955e-05, -1.31977880e-02, -3.94923240e-02,
       -1.19474009e-02, 5.73040843e-02, 5.75992428e-02, -2.80780289e-02,
       -1.69180613e-02, 3.87222599e-03, 5.39057702e-03, -2.14584060e-02,
       1.09897507e-02, 8.16063359e-02, 1.68437837e-03, 3.14382575e-02,
       -1.86286364e-02, 1.10298842e-02, 3.33709642e-02, -2.43405290e-02,
       -5.42446375e-02, -5.63100539e-03, 1.40990941e-02, 3.07191256e-02,
       6.78257123e-02, 7.13825505e-03, 7.59201264e-03, -1.65584143e-02,
       1.86342373e-02, 5.95773943e-03, 1.10663818e-02, -6.33052830e-03,
       -2.10445207e-02, -3.01527395e-03, 4.46416577e-03, 6.22590492e-03,
       4.90101129e-02, -3.04375868e-02, -4.21116175e-03, -3.53611149e-02,
       6.58817403e-03, -3.34890150e-02, -2.64929719e-02, -1.91063099e-02,
       2.11258307e-02, 1.64521150e-02, 2.05507502e-02, -4.43309955e-02,
       5.30636031e-03, 3.50245237e-02, -4.08278359e-03, 8.99244845e-03,
       8.99557769e-03, -4.10202285e-03, 2.26900019e-02, -1.48106096e-02,
       -2.71346979e-02, 2.10283846e-02, 1.90315284e-02, 1.58969276e-02,
       7.35875815e-02, -2.49159522e-02, -2.04514656e-02, 3.24914753e-02,
       2.55650058e-02, -1.77897867e-02, 8.94364063e-03, 2.35273670e-02,
       9.55801550e-03, 5.93410246e-02, -2.27091499e-02, -1.99472159e-02,
       -9.38336831e-04, 6.75386144e-03, -1.16571654e-02, -2.55166832e-02,
       -5.43400645e-03, -4.22488991e-03, 1.90544557e-02, 2.43094098e-02,
       -1.17663527e-02, -2.05468703e-02, -2.33141389e-02,
       -5.27106747e-02, 2.52420399e-02, 2.82524489e-02, -2.59219781e-02,
       1.44266076e-02, -1.70113482e-02, 1.09710544e-02, 2.11423468e-02,
       -1.06098885e-02, 1.73380934e-02, 1.48036759e-02, 2.07637101e-02,
       2.94990204e-02, 6.39332905e-02, -7.65399818e-05, 9.54204798e-03,
       -2.26126285e-03, 6.83808373e-03, -8.82070698e-03, 2.61878166e-02,
       1.47094270e-02, -1.39766838e-02, 4.89378534e-02, -2.50568651e-02,
       3.30311134e-02, 1.26819834e-02, 3.12120449e-02, 1.75754316e-02,
       -3.82588222e-03, -7.23740133e-03, -2.07603836e-04, 9.54910833e-03,
       -2.73335055e-02, 2.48214453e-02, -1.86792575e-02, -3.39646339e-02,
       -3.80517319e-02, -2.46855021e-02, 2.00835168e-02, 9.12015967e-04,
       -2.19558459e-02, -7.80622941e-03, -6.18588005e-04, 3.88596915e-02,
       -2.89983209e-02, -3.70287746e-02, -2.08372772e-02,
       -2.77014375e-02, 7.00835371e-03, 5.09243971e-03, -1.90730114e-02,
       2.99438071e-02, -1.05234631e-03, 5.23633622e-02, 5.99597432e-02,
       6.84776437e-03, -2.59229355e-02, 1.05148098e-02, -3.16350423e-02,
       1.82349281e-03, 4.47895788e-02, 7.64564797e-02, 3.03449272e-03,
       -1.36671159e-02, -2.89597195e-02, -1.44017246e-02, 1.68442465e-02,
       -6.02774210e-02, -6.93914993e-03, -9.48124006e-03,
       -4.46098149e-02, 5.17226104e-03, -4.34439406e-02, 2.35101674e-02,
       -3.82331870e-02, -1.81738250e-02, -4.16713506e-02,
       -2.39970926e-02, -2.76003070e-02, -1.17206783e-03, 1.64857376e-02,
       -2.50579547e-02, -8.72347690e-03, -2.64060739e-02, 5.59279025e-02,
       3.82513739e-02, 3.28507274e-03, 1.78120546e-02, 2.06947308e-02,
       1.55448364e-02, -3.77397123e-03, 3.11508006e-03, -2.26066317e-02,
       3.13217798e-03, -1.23743387e-03, -1.78249422e-02, 2.66905539e-02,
       3.78528647e-02, 4.13847975e-02, -3.79824452e-02, -5.18603921e-02,
       4.48349863e-03, -3.29422243e-02, 1.80859938e-02, -5.54299131e-02,
       -2.22920924e-02, 6.83784578e-03, 2.80629378e-02, -4.44055069e-03,
       -1.20159806e-04, -4.89805304e-02, -3.30116674e-02,
       -7.82901421e-03, -4.41327021e-02, 1.29036820e-02, -1.97503883e-02,
       -3.15286499e-03, -9.32222884e-03, -2.08783541e-02,
       -1.39919808e-02, 4.18049879e-02, 2.61491500e-02, -1.38454791e-02,
       2.62905192e-02, 2.94432621e-02, 2.54800674e-02, 3.19521278e-02,
       1.78410094e-02, 4.20539081e-02, 1.40864830e-02, 1.50438864e-02,
       -4.20666719e-03, 3.02973669e-02, 6.03162311e-02, 2.57377401e-02,
       1.93106453e-03, -2.02457774e-02, 1.58459805e-02, 3.56993489e-02,
       8.39150045e-03, 8.12055264e-03, 1.01358434e-02, -5.64571097e-02,
       1.90953482e-02, -9.77027416e-03, -1.37142921e-02, 1.28002455e-02,
       -1.44563904e-02, -1.76733248e-02, -1.47595899e-02, 3.76292542e-02,
       -3.78612317e-02, -4.94265780e-02, -1.83104759e-03, 2.96179932e-02,
       -5.08752950e-02, 5.93280606e-02, 1.34009458e-02, 4.01631370e-02,
       3.14339735e-02, 4.37684543e-02, 5.19353971e-02, -3.18768807e-02,
       -6.16122782e-02, 1.29557122e-02, -1.96375754e-02, -1.31952884e-02,
       -2.18762495e-02, 2.07745824e-02, 7.82793912e-04, 1.91887189e-02,
       -6.99431961e-03, -2.97457557e-02, -4.23677079e-02,
       -1.51236271e-02, 1.89304017e-02, -2.09291652e-02, -2.58936267e-03,
       -1.06854374e-02, -3.50804664e-02, -6.06030878e-03, 1.18123395e-02,
       6.28486648e-03, -1.91414990e-02, -7.64718950e-02, -2.58673262e-02,
       -2.09181383e-02, -2.91589964e-02, -6.15462288e-02,
       -9.94631927e-03, -2.43878923e-02, 1.04034469e-02, -1.28691606e-02,
       5.19221276e-02, 3.56309675e-02, 8.18682238e-02, 8.45707804e-02,
       6.26447201e-02, 2.45822743e-02, 5.49350604e-02, 1.73089579e-02,
       -6.78359792e-02, -1.70194320e-02, -2.34058723e-02, 2.24583633e-02,
       3.60427685e-02, 2.66257506e-02, 1.95218623e-02, 7.19590932e-02,
       -3.08996774e-02, 9.25477967e-03, -3.96660380e-02, -2.21408941e-02,
       -5.96785881e-02, -3.12654972e-02, 1.35428328e-02, 2.93785464e-02,
       -1.13628320e-02, 1.58787495e-03, 1.48667358e-02, 1.71982020e-03,
       -1.22032175e-02, -1.41893420e-02, -2.12407187e-02, 1.46496044e-02,
       -2.52899881e-02, -1.34982970e-02, 2.46084649e-02, -3.07221804e-03,
       2.15816237e-02, 4.25165519e-02, 2.78281868e-02, 4.12719361e-02,
       6.70935959e-02, 2.38776896e-02, 4.61380184e-02, 2.71042401e-04,
       -6.08157255e-02, -4.74498421e-02, -6.78253546e-03, 2.04462698e-03,
       1.09885931e-02, 2.81431600e-02, -4.66964319e-02, 1.26532279e-02,
       -7.95798656e-03, -1.36059606e-02, -3.30116861e-02,
       -2.37970538e-02, 5.23444405e-03, -1.94064118e-02, 2.59106662e-02,
       -2.69819498e-02, -3.69349914e-03, 2.66379714e-02, -3.14358296e-03,
       -5.48238978e-02, -1.66762080e-02, 4.35311999e-03, -1.74906496e-02,
       -1.02231782e-02, -1.92920342e-02, -5.26433066e-02, 2.03575827e-02,
       1.07189240e-02, -1.91399560e-03, 3.30564380e-02, -4.10558283e-03,
       -1.76099539e-02, 2.97024427e-03, -2.34608050e-03, 3.89804095e-02,
       4.68342155e-02, -3.21450904e-02, -6.50312230e-02, 1.88348498e-02,
       4.23351787e-02, -3.25946457e-05, -2.90558748e-02, -6.89874776e-03,
       -5.59855700e-02, -2.00606845e-02, -2.23286636e-03,
       -7.31505407e-03, -1.45827921e-03, 4.66773622e-02, 3.28002162e-02,
       9.99603793e-03, -4.59932387e-02, -5.79044335e-02, 1.46134747e-02,
       1.41632333e-02, -1.36849787e-02, 3.01279482e-02, 1.70725095e-03,
       3.47107463e-02, 3.87110701e-03, -2.24234220e-02, 1.79113131e-02,
       1.16691440e-02, 1.38057629e-02, -3.47736739e-02, -4.81324978e-02,
       2.40170024e-02, -1.54969329e-02, 7.50917196e-03, -5.64931780e-02,
       -3.59997828e-03, 5.06308936e-02, -7.30815635e-04, -3.26958522e-02,
       -5.60943224e-03, 3.50333489e-02, -5.88974655e-02, 6.08575828e-02,
       -2.84151640e-02, -1.82793047e-02, 3.91533747e-02, -5.11683784e-02,
       -6.16648607e-02, 2.16295309e-02, -3.84396389e-02, -2.95993891e-02,
       -6.34515285e-02, -5.08284271e-02, -2.47738268e-02,
       -3.24253216e-02, 2.73382720e-02, 1.78986453e-02, 1.76487621e-02,
       -5.23366174e-03, -2.78391503e-03, -3.34079042e-02,
       -2.66356952e-02, -2.89542042e-02, -1.73521377e-02,
       -4.07033525e-02, -2.51913536e-02, 1.23398475e-01, 7.75390640e-02,
       3.12681720e-02, -1.05869155e-02, -2.92619728e-02, -8.40054005e-02,
       -5.66172600e-02, 6.25861660e-02, 8.29981789e-02, 1.12351000e-01,
       5.66166937e-02, -2.62111444e-02, -1.57002471e-02, 1.31260958e-02,
       -1.87407471e-02, -2.73053348e-02, 4.08876725e-02, -3.76757421e-02,
       -2.28966549e-02, -2.99000684e-02, 4.50304011e-03, -3.68853025e-02,
       -7.43806222e-03, 1.91775989e-02, 2.38217320e-02, -8.95846914e-03,
       -8.01008865e-02, 1.37597853e-02, -2.48976648e-02, 3.78426798e-02,
       -3.44715677e-02, 3.02795395e-02, 3.48207578e-02, 3.09158675e-03,
       6.58033937e-02, 5.03875390e-02, -6.35978281e-02, -2.62129959e-02,
       -6.72724447e-04, -2.19699107e-02, 2.61598080e-02, 5.98760173e-02,
       6.39151335e-02, 1.42164733e-02, -7.30221253e-03, -1.15378974e-02,
       5.08578084e-02, 2.46446468e-02, -2.90742870e-02, 3.48305181e-02,
       7.69125521e-02, 5.95195144e-02, 2.33813897e-02, 1.59248739e-01,
       1.94847494e-01, 6.94641620e-02, -4.53962497e-02, -3.92735749e-02,
       -1.38854189e-02, -5.01531828e-03, -4.62598763e-02,
       -3.38284741e-03, 1.16637841e-01, 6.68275356e-02, -7.65659334e-03,
       1.86762456e-02, -5.38796782e-02, -5.53339683e-02, -5.35683073e-02,
       -7.85680562e-02, -5.34409769e-02, 1.12276770e-01, 1.73122063e-01,
       1.01264700e-01, -2.57846639e-02, -2.24224757e-02, 3.08082290e-02,
       5.38164303e-02, -1.67629253e-02, -4.34594601e-02, 1.09118945e-03,
       4.05797735e-02, -1.22199059e-02, 2.79999226e-02, -7.45316446e-02,
       5.93707664e-03, -1.28487619e-02, -2.94194259e-02, 4.09898348e-02,
       1.23944737e-01, 3.20449173e-02, 1.37229133e-02, -5.01374565e-02,
       -8.20037967e-04, 1.71245523e-02, 2.44605783e-02, -4.08558697e-02,
       1.46500478e-02, 4.37475145e-02, -4.12010327e-02, -1.93241667e-02,
       5.12930285e-03, 7.46046752e-03, 6.30751019e-04, -2.15165224e-02,
       -1.27017722e-02, -3.87503253e-03, 2.07771044e-02, -2.14625746e-02,
       -7.74145424e-02, -8.70501921e-02, -2.81664692e-02,
       -4.52432549e-03, -2.80694216e-02, -5.13967909e-02,
       -2.33930107e-02, -3.38964984e-02, -6.06788546e-02,
       -3.48297618e-02, -6.68089883e-03, -6.89247623e-02,
       -4.00361791e-02, 7.90734868e-03, 3.38752232e-02, 2.27049440e-02,
       2.05053855e-02, -3.36198732e-02, -1.93429086e-02, -3.92578579e-02,
       1.31464994e-03, -4.01607268e-02, 3.79924029e-02, 3.30379717e-02,
       2.57438086e-02, 5.48276044e-02, -8.12627468e-03, -2.22689547e-02,
       -2.33904645e-02, 7.94635341e-03, 1.93333556e-03, 7.04461634e-02,
       -5.29167913e-02, -1.98161043e-02, -4.45267186e-02,
       -6.84261471e-02, -2.14978456e-02, -5.90112247e-02,
       -5.48395365e-02, -5.31447642e-02, -1.38459634e-02,
       -7.31380307e-04, 2.21034382e-02, -2.21980046e-02, -4.80637439e-02,
       -3.28044407e-02, -2.25854982e-02, -3.57063748e-02,
       -2.87742876e-02, -2.41564754e-02, 6.36458513e-04, 3.38631347e-02,
       1.25181168e-01, -9.17908270e-03, -1.10887466e-02, -4.13205475e-02,
       3.70628536e-02, 3.79757746e-03, 5.62756360e-02, 5.49756270e-03,
       8.45954008e-03, 8.04567933e-02, -2.88332310e-02, -3.82334255e-02,
       -2.58386210e-02, 3.61720566e-03, 6.38025673e-03, 1.50300674e-02,
       -3.43546495e-02, 1.75222885e-02, 1.47489160e-02, -5.68654388e-03,
       -2.96813920e-02, -1.81678664e-02, 2.55662668e-02, -7.28763454e-03,
       -1.89517923e-02, -3.99882384e-02, -3.51837208e-03, 1.35870846e-02,
       1.03170350e-02, -3.62630039e-02, -2.21842136e-02, -2.14698780e-02,
       -7.12503120e-03, -2.97742523e-02, 6.31230045e-03, 7.15185776e-02,
       6.91590235e-02, 7.54717784e-03, 2.00577993e-02, -1.27434395e-02,
       5.10820933e-03, 1.06736012e-02, 4.81178798e-02, 2.08313633e-02,
       9.72094387e-02, 5.33067957e-02, 4.11663810e-03, 1.33494511e-02,
       -4.03488725e-02, 2.39178445e-02, -3.16735655e-02, 3.42803374e-02,
       1.40240965e-02, 1.75368171e-02, 2.44764192e-03, -3.82742211e-02,
       -2.37280061e-03, -1.37917837e-02, -2.76063173e-03, 1.30236410e-02,
       -6.79614348e-03, -3.33762690e-02, -3.60568836e-02,
       -2.00821250e-03, -4.13808087e-03, -1.94788259e-02, 3.49895991e-02,
       6.14345958e-03, -9.01573431e-03, -1.62205677e-02, -2.31879633e-02,
       3.08869369e-02, 4.21933457e-03, -1.85293797e-02, -4.97026592e-02,
       -4.91388142e-03, 4.20867503e-02, -7.74452090e-03, 6.11351542e-02,
       6.63374066e-02, 4.65042740e-02, -3.26652341e-02, -5.12182526e-02,
       -5.64207733e-02, -1.94929298e-02, 4.08640411e-03, -1.15060725e-03,
       5.08841947e-02, 4.05050963e-02, -4.21597101e-02, 5.18834742e-04,
       -5.03299199e-02, -3.07059903e-02, -4.62744199e-02,
       -4.57130885e-03, 2.47930940e-02, 2.12179180e-02, -2.42611300e-02,
       -3.97455133e-03, 2.27660034e-03, -6.01388849e-02, -8.81415978e-03,
       1.48051204e-02, -1.79180484e-02, -3.34777869e-02, 1.65692754e-02,
       -1.09693210e-03, 3.25554572e-02, 1.95828602e-02, -2.59427242e-02,
       -2.72211786e-02, -7.01396614e-02, -3.19290161e-02,
       -1.31748756e-02, 3.01038641e-02, 2.62327287e-02, -4.32361616e-03,
       -1.50781600e-02, -2.93316487e-02, -9.52907372e-03,
       -3.03951558e-02, -9.89126973e-03, -1.37506900e-02,
       -1.78368520e-02, -4.21755714e-03, 6.23347908e-02, 1.07350992e-02,
       -5.04846051e-02, -5.83200157e-03, -6.43961355e-02,
       -3.17625934e-03, -8.33718479e-02, 2.12766938e-02, -2.55869236e-03,
       2.04268955e-02, -2.28113960e-02, -4.85067582e-03, -8.84279534e-02,
       -3.75242755e-02, -4.12619375e-02, -7.22826868e-02,
       -2.86191255e-02, -2.43165772e-02, -1.02868117e-02, 1.51073104e-02,
       -3.12010068e-02, -8.42944160e-03, -1.81049947e-02, 7.23810587e-03,
       -3.96957286e-02, 1.17626460e-02, -1.68473758e-02, -6.72918465e-03,
       2.45520081e-02, -7.22227246e-02, -2.83495300e-02, -1.14069656e-02,
       -3.82328928e-02, 8.74161348e-03, 2.65594125e-02, -4.46836129e-02,
       4.64963131e-02, 5.90931624e-02, -2.28619613e-02, -3.20915617e-02,
       -2.52871513e-02, -1.43471407e-02, -4.85294610e-02,
       -3.85111868e-02, -1.37247695e-02, 8.86328332e-03, 5.45705631e-02,
       -3.59975547e-02, -6.31847903e-02, -2.37885341e-02,
       -2.86392700e-02, -3.01625188e-02, -9.59252194e-03, 6.12664036e-03,
       -2.68447381e-02, -1.39576355e-02, 4.80660656e-03, -3.98500264e-02,
       -4.64292057e-03, -2.43108235e-02, -3.87571789e-02,
       -3.41758393e-02, -6.28648698e-02, 8.14246014e-03, -1.77830607e-02,
       -1.52372792e-02, -6.83187321e-02, -3.01338769e-02,
       -3.17744017e-02, -5.01519293e-02, -4.78068776e-02,
       -4.85305022e-03, 2.81926692e-02, 2.02904269e-02, -2.50695571e-02,
       -7.60500729e-02, -6.49286509e-02, -1.86822806e-02,
       -6.50340542e-02, 2.83157192e-02, 4.27373610e-02, 1.24691660e-02,
       4.51407582e-02, -2.48027686e-02, -6.48275483e-03, -6.63810223e-02,
       -1.25174625e-02, -8.17733351e-03, 4.31658067e-02, 4.01360877e-02,
       1.62988361e-02, 7.31829107e-02, 1.94491819e-02, -6.10659271e-03,
       -5.16558588e-02, -3.50495949e-02, -1.56294648e-02, 1.37354797e-02,
       2.06679814e-02, -4.14391384e-02, -6.45849667e-03, 2.91535836e-02,
       3.41995939e-04, 1.68938860e-02, -8.72727036e-02, 1.52158681e-02,
       2.57364456e-02, -3.84853259e-02, 5.62158860e-02, 1.01714410e-01,
       9.50062498e-02, 4.37453240e-02, 1.35520305e-02, 2.82414164e-03,
       1.44230658e-02, 4.44734432e-02, 5.53727187e-02, -9.73603746e-04,
       6.13220818e-02, 4.16477732e-02, 6.84120134e-03, 5.63802421e-02,
       -5.24382014e-03, 4.05273177e-02, 4.44116816e-02, 1.08945798e-02,
       2.41047796e-03, 1.62580162e-02, 1.42085413e-02, -8.08422826e-03,
       2.47787330e-02, 2.69156452e-02, 3.30281816e-02, 3.27304676e-02,
       -1.46191544e-03, -2.89706532e-02, -3.37717719e-02,
       -3.11427303e-02, -9.13360938e-02, -2.06893124e-02,
       -2.63763200e-02, -3.49742696e-02, -2.63177305e-02,
       -1.03694377e-02, 7.18281120e-02, 9.21103582e-02, 3.67088467e-02,
       7.03752860e-02, 1.08865045e-01, 1.24430314e-01, 7.08969608e-02,
       4.92668524e-02, 5.59455827e-02, -5.33186346e-02, -6.12614788e-02,
       -3.95435058e-02, -8.10796302e-03, 1.70066790e-03, 2.26235241e-02,
       -4.12163213e-02, -5.13425879e-02, -3.63896266e-02, 1.33728108e-03,
       -1.13624632e-02, 6.65529864e-03, 8.14295374e-03, 1.56390313e-02,
       -1.10080745e-03, -6.10668259e-03, 3.36900316e-02, 1.99468229e-02,
       -2.97103226e-02, -4.37408611e-02, 2.33921707e-02, 6.62781522e-02,
       -1.04655465e-02, -1.17825717e-02, 4.93447471e-04, -2.64241807e-02,
       -3.28684691e-03, -1.03419311e-02, -3.73524614e-02,
       -5.28746750e-04, 2.86775194e-02, -4.13229177e-03, 6.54217824e-02,
       5.38707413e-02, 2.06597839e-02, -1.71640925e-02, 1.55100962e-02,
       -3.00867986e-02, 4.12430707e-03, 4.23682928e-02, 2.50853263e-02,
       2.38512997e-02, -5.27257752e-03, -1.99648533e-02, -6.39446662e-04,
       3.34077887e-02, -5.71866445e-02, -7.41084814e-02, -3.53552625e-02,
       -9.05323215e-03, -1.27535304e-02, -1.02970235e-01,
       -4.91695777e-02, 6.72465116e-02, 3.22966911e-02, -6.59843162e-02,
       -2.86447424e-02, 3.16983499e-02, 2.94935238e-02, 4.10376340e-02,
       -4.43558246e-02, -1.39549179e-02, 6.09215870e-02, 3.96006368e-02,
       -2.23949291e-02, -4.90312651e-02, -1.59956459e-02,
       -3.58992890e-02, -3.70484684e-03, -2.32299864e-02,
       -1.27317300e-02, 5.52458204e-02, 5.31333648e-02, -3.34504098e-02,
       -3.23852003e-02, 6.36228472e-02, -2.79056523e-02, 2.61734985e-02,
       -3.56477126e-02, -2.66285241e-02, 1.55437831e-02, -4.22360264e-02,
       -4.81679328e-02, 1.07251465e-01, 4.77718934e-02, 5.37215583e-02,
       2.61148103e-02, 2.04384401e-02, -5.97977787e-02, -7.66767338e-02,
       -2.47424226e-02, 9.18623805e-02, 1.21477410e-01, 8.07325915e-02,
       -5.95422974e-03, 3.02554835e-02, 4.45063263e-02, 2.35349219e-02,
       -9.84850824e-02, -4.76298667e-02, -8.08351040e-02,
       -3.91704682e-03, 3.73618305e-02, 1.19836573e-02, 7.38316104e-02,
       6.52723089e-02, -8.52764398e-03, -6.66469410e-02, -4.92977016e-02,
       1.67752728e-02, 9.64606460e-03, 4.03574109e-02, -3.64893042e-02,
       4.45918739e-02, 9.46064293e-02, 8.96641687e-02, -2.21851096e-02,
       9.71281007e-02, 4.12719660e-02, -4.60640229e-02, 2.25200038e-02,
       5.01895091e-03, 1.82984658e-02, 1.52278375e-02, 6.72364384e-02,
       3.81517969e-02, -1.87734105e-02, -7.33380988e-02, -4.74779047e-02,
       -3.33673954e-02, 1.89346448e-02, -5.86609207e-02, 3.88138629e-02,
       1.90675333e-02, 4.83834818e-02, 5.79113886e-02, 1.30267963e-01,
       1.51943173e-02, 4.79287989e-02, 3.19161289e-03, 2.00061854e-02,
       -4.96436981e-03, 4.28518802e-02, 4.83842976e-02, 1.90486144e-02,
       4.41689827e-02, 7.74801001e-02, -1.47098582e-02, 4.46790271e-02,
       -8.80482420e-03, -2.02083234e-02, -4.40726168e-02, 7.91301392e-03,
       -1.18511014e-01, -1.53129101e-02, 1.13542162e-01, 8.14003646e-02,
       -1.78903379e-02, 4.45159934e-02, 7.51652345e-02, 1.58234667e-02,
       -6.26394898e-02, -8.63148347e-02, -5.63577004e-02,
       -2.85322946e-02, -7.53636064e-04, 5.50485998e-02, 2.20621675e-02,
       4.88449931e-02, 5.64568955e-03, -5.81498183e-02, -5.95167652e-02,
       2.22644396e-02, 7.41939992e-02, 5.87381460e-02, -1.46897547e-02,
       8.62373859e-02, 1.08001620e-01, 3.34627330e-02, -6.28989488e-02,
       -6.55701011e-02, -6.68530390e-02, -1.05569707e-02,
       -1.06383227e-02, 8.80031288e-02, 6.45718491e-03, -4.80257161e-02,
       -9.34218764e-02, -7.83994794e-02, -3.44238691e-02, 3.52427177e-02,
       -1.58852283e-02, -3.69450822e-02, -8.02191794e-02, 2.94790585e-02,
       1.54922688e-02, -1.20229532e-04, -4.42958847e-02, -1.74788255e-02,
       -1.50921540e-02, -2.92664729e-02, -1.96775030e-02, 1.93087559e-03,
       -4.66687120e-02, -2.87420955e-02, -2.30055545e-02, 4.47094887e-02,
       -3.82990651e-02, -1.51000917e-02, 4.25264351e-02, 1.06169358e-02,
       -9.30392817e-02, 9.92997270e-03, 2.14272477e-02, -1.98675208e-02,
       -6.52284324e-02, 3.64768803e-02, -5.80292707e-03, -1.22292922e-03,
       -4.01306041e-02, -9.66296718e-02, -4.20411304e-02,
       -4.19624289e-03, -3.50873917e-02, -5.54282293e-02,
       -3.57759092e-03, 1.88021839e-03, -2.13914905e-02, 3.02231833e-02,
       5.95425349e-03, 8.37226922e-04, -1.89449219e-03, 2.82965973e-02,
       3.51472907e-02, -2.09249482e-02, -6.70701498e-03, 1.12044148e-03,
       -2.73770560e-03, -6.25074580e-02, -3.07311863e-02, 2.82522198e-02,
       -1.00409640e-02, -4.22252826e-02, 9.45469141e-02, 1.63806025e-02,
       -8.33974779e-03, -2.08941251e-02, 1.39941322e-02, 8.95355176e-03,
       -4.13304567e-03, 1.61351527e-05, -2.84216530e-03, -7.15869144e-02,
       1.09389634e-03, 2.12422013e-02, -5.21572158e-02, -9.35150497e-03,
       -1.37416646e-02, 2.01989040e-02, -4.09966633e-02, -3.98888774e-02,
       -4.43248414e-02, -5.45644425e-02, 1.13852071e-02, 1.66635998e-02,
       -1.88100431e-03, 5.01632392e-02, 1.32587757e-02, -3.92410122e-02,
       -7.17549250e-02, -6.34797290e-03, -4.29648645e-02, 3.39743122e-02,
       4.74111782e-03, 1.24239428e-02, 2.56447066e-02, 3.67085636e-02,
       3.21679860e-02, -2.02515442e-02, -7.88786784e-02, -3.50228883e-02,
       3.59129049e-02, 1.98939927e-02, 3.29872742e-02, 4.93297679e-03,
       1.27451792e-02, -3.36282477e-02, -3.64797711e-02, -3.40254232e-02,
       -1.88871939e-02, 3.68961357e-02, 3.03405263e-02, 5.00642508e-03,
       -4.35091415e-03, -1.21707506e-02, -4.13399190e-02,
       -2.77678259e-02, -4.20134366e-02, 2.29830295e-03, 6.69540390e-02,
       6.73776418e-02, 4.84292656e-02, 5.21892086e-02, 1.76976006e-02,
       2.36862376e-02, -4.17613089e-02, -4.54677418e-02, -1.73186883e-02,
       1.29612908e-02, 4.42415923e-02, 6.12409860e-02, 1.30599653e-02,
       4.86479420e-03, -2.13590600e-02, -6.94518611e-02, 7.79999793e-03,
       1.06963664e-02, 3.00862454e-02, 4.08600941e-02, 6.38239980e-02,
       7.62772188e-02, 4.40586060e-02, -8.98207817e-03, -5.18499874e-02,
       -4.24777344e-02, 4.81053330e-02, 4.14653867e-02, -1.71307996e-02,
       2.32518762e-02, 2.46302248e-03, -1.06121562e-02, -6.46079257e-02,
       -5.80721237e-02, -9.09895301e-02, 1.43155009e-02, -1.84525806e-03,
       -6.09045569e-03, 1.01428805e-02, -8.06145463e-03, 6.66625565e-03,
       4.89304252e-02, -3.24271969e-03, -1.29836686e-02, 7.17237815e-02,
       -3.35264839e-02, 8.20571557e-03, 2.18278691e-02, -2.58448571e-02,
       -3.77918333e-02, 6.40584081e-02, 3.19960923e-03, 2.67133750e-02,
       5.36535010e-02, -9.88339633e-03, -2.34771948e-02, 5.22140041e-03,
       -1.54231349e-02, -1.64913647e-02, 3.51434126e-02, -6.32776320e-02,
       -8.45226180e-03, 1.10658100e-02, -2.51751915e-02, -8.32747668e-03,
       2.82125026e-02, -1.68349762e-02, -1.00764036e-02, 4.29304875e-02,
       3.84024084e-02, 1.70608554e-02, 1.26415953e-01, 1.65223144e-02,
       9.46669094e-03, 4.04701903e-02, 3.81282903e-03, -5.51963523e-02,
       5.90322651e-02, -2.41908319e-02, -3.86927165e-02, 6.55068085e-02,
       1.99004989e-02, -6.90553859e-02, -4.79886420e-02, -7.52882287e-02,
       7.55578920e-04, 6.90029785e-02, -7.55993929e-03, -1.28727090e-02,
       1.50985271e-02, -3.20405103e-02, -2.61075608e-02, 3.27052847e-02,
       2.29362468e-03, 1.22207152e-02, 6.94517791e-02, 1.14211328e-02,
       -3.94459590e-02, 4.35427576e-02, 1.47874262e-02, -2.36766711e-02,
       -2.06693052e-03, -9.03816894e-02, 3.45710106e-02, 4.85001579e-02,
       -1.49485571e-02, 1.72168519e-02, 5.82623109e-02, -2.71827877e-02,
       -3.66882421e-02, 5.61080640e-03, -1.08042229e-02, -8.83535203e-03,
       3.10302395e-02, 3.91781703e-03, 2.54842117e-02, 4.45900857e-02,
       -6.11666106e-02, -3.36372517e-02, -2.98867878e-02,
       -6.56072237e-03, -1.36646992e-02, -4.72756438e-02,
       -3.31672229e-04, -5.90767115e-02, 9.11505427e-03, -2.40290277e-02,
       -4.51305835e-03, 8.60264816e-04, -3.14938985e-02, -9.83217917e-03,
       8.04910809e-02, 3.44423056e-02, -2.08222922e-02, -4.76382999e-03,
       -2.24070977e-02, 1.28651606e-02, -3.51080447e-02, -2.25856956e-02,
       -6.35113642e-02, 1.19191715e-02, 2.08027288e-02, -8.88994057e-03,
       8.15943349e-03, -2.41377205e-02, -3.60793993e-02, -5.59914634e-02,
       -3.64884101e-02, -7.43366107e-02, -5.93988784e-02, 1.30698159e-02,
       2.87810955e-02, 2.09471434e-02, -4.44754325e-02, 1.18311225e-02,
       -4.68179472e-02, -3.59442942e-02, -6.35837903e-03, 8.72797798e-03,
       4.65150997e-02, 4.34304029e-03, -4.77501974e-02, -6.48046285e-02,
       -1.87016390e-02, -1.43875750e-02, -5.48753701e-02,
       -4.64783944e-02, 1.47776911e-04, -2.43891403e-02, 5.69493435e-02,
       4.34256196e-02, -1.07044484e-02, -3.64987738e-02, -2.83119623e-02,
       -9.70666949e-03, -3.71504179e-03, 1.20918239e-02, 2.70574391e-02,
       -3.72800492e-02, -1.13193765e-02, 1.23366984e-02, 3.65596055e-03,
       3.90288346e-02, -4.66069439e-03, -5.68666076e-03, 1.65078957e-02,
       2.67779082e-02, -1.94236450e-02, 6.20639548e-02, 1.98660716e-02,
       -1.21011678e-02, 4.03875671e-02, 2.23398786e-02, 2.70235520e-02,
       6.02069572e-02, 9.91913304e-03, 3.02160904e-02, 1.84316635e-02,
       -1.67732406e-02, -2.00302713e-02, 3.00154965e-02, -9.06571804e-04,
       1.36443814e-02, -1.58601888e-02, -1.13853160e-02, -1.43041625e-03,
       5.65227456e-02, 1.83260608e-02, 3.50851864e-02, 7.81011134e-02,
       -3.12732495e-02, 1.10127330e-02, 3.40521410e-02, -1.57573037e-02,
       -2.44080406e-02, 4.21921313e-02, -2.04455089e-02, 6.32209256e-02,
       8.78329426e-02, 6.50561675e-02, 3.00179403e-02, 3.34139504e-02,
       -9.10166744e-03, -5.78105934e-02, -7.15670213e-02,
       -5.44874147e-02, -4.80467938e-02, 5.45413308e-02, -3.62523384e-02,
       -3.51395682e-02, -3.70017476e-02, -5.19648157e-02,
       -9.73977149e-03, 6.22227080e-02, 6.08702600e-02, 1.03982456e-01,
       5.93914241e-02, 1.77234188e-02, 9.09176562e-03, 3.04043088e-02,
       -2.18231492e-02, -5.66770323e-02, -4.06201631e-02,
       -8.32682289e-03, -3.09750643e-02, 7.57694691e-02, -1.96536519e-02,
       -3.75234224e-02, -7.17852414e-02, -1.55360568e-02, 2.57188473e-02,
       -1.45992544e-02, 3.51497997e-03, 2.42376607e-02, -2.56665740e-02,
       4.41689119e-02, 3.14455591e-02, 2.04757173e-02, 2.15403992e-03,
       4.12802659e-02, -3.91748846e-02, -1.30915148e-02, -1.32032502e-02,
       -5.49008586e-02, 4.10664035e-03, -8.08859477e-04, 2.29221899e-02,
       1.73956770e-02, 4.38279007e-03, -1.33614456e-02, 3.01825814e-02,
       7.42562488e-02, -2.69745048e-02, 6.33632913e-02, 1.75418146e-02,
       -4.69963290e-02, -2.14675795e-02, 3.67962942e-02, -7.03755347e-03,
       2.27472857e-02, 1.71828028e-02, 9.53930151e-03, -1.88878048e-02,
       -1.98446270e-02, -6.12919927e-02, 3.64726037e-02, 3.73923779e-02,
       -4.75005396e-02, -2.65558772e-02, -1.25146294e-02, 2.52274908e-02,
       3.50635052e-02, -3.40317711e-02, -7.82042276e-03, 4.07031402e-02,
       4.79841232e-02, -3.86759676e-02, -2.99448408e-02, -1.51543913e-03,
       -1.41223511e-02, 4.97873779e-03, -4.49350886e-02, -5.90152703e-02,
       2.23935340e-02, -3.06951907e-02, -7.24354908e-02, 4.42257989e-03,
       1.16542093e-02, 1.21432906e-02, 9.01923608e-03, -1.08380243e-03,
       -1.56376306e-02, 1.06460406e-02, 3.78351547e-02, 1.45734474e-02,
       3.18988897e-02, 2.43238490e-02, -1.65790133e-02, 6.92592785e-02,
       2.28214208e-02, 8.30223598e-03, 3.01557407e-02, -4.27583866e-02,
       -8.53689387e-02, -3.19769382e-02, 9.64694936e-03, 4.69647534e-02,
       7.61020631e-02, 5.66242523e-02, -1.25679243e-02, -3.01410332e-02,
       -3.38562094e-02, -1.59516819e-02, -3.11479028e-02, 1.62558276e-02,
       -2.04689726e-02, 4.91988026e-02, 1.02704689e-01, 1.35732695e-01,
       8.22778493e-02, -3.26669700e-02, -5.55652790e-02, -3.80779319e-02,
       -4.48207147e-02, -1.10908812e-02, -7.04643130e-03, 1.18302815e-02,
       -4.12402116e-02, 1.86314719e-04, -2.67501287e-02, -2.38959659e-02,
       -5.58199594e-03, -2.89418548e-02, 3.11923865e-02, 3.62807675e-03,
       -5.59282256e-03, 2.05407757e-02, 4.15379740e-02, 4.58932593e-02,
       6.96585774e-02, -1.31183201e-02, -1.93933817e-03, -2.88109221e-02,
       -1.61670074e-02, -2.95345094e-02, 6.10847734e-02, 6.93164542e-02,
       3.40689160e-02, 1.12167306e-01, 6.23977594e-02, -2.04955582e-02,
       6.55314478e-04, 7.11271390e-02, 9.09766462e-03, -1.97090786e-02,
       -1.48130413e-02, 3.72525714e-02, 2.00279616e-02, 2.35139355e-02,
       -2.73850244e-02, 2.20354423e-02, 6.83347316e-05, -1.07407328e-02,
       -1.94612555e-02, 4.53583077e-02, -1.51442531e-02, 9.88684408e-03,
       -2.23658271e-02, -5.02022505e-02, 1.92526951e-02, 8.65018182e-03,
       2.06252579e-02, -6.44815937e-02, -5.17267771e-02, -3.53989154e-02,
       7.63705522e-02, 1.32951336e-02, -3.43452767e-02, -3.83809246e-02,
       1.30656466e-01, 1.54469475e-01, 1.22227259e-01, -3.20894346e-02,
       -3.92479226e-02, -6.40156865e-02, -9.99985542e-03,
       -8.64133164e-02, 3.19354981e-02, -1.15121165e-02, 3.23361135e-03,
       2.05455646e-02, 1.76194794e-02, -6.30376935e-02, -2.78040511e-03,
       -2.99364738e-02, -4.03404608e-02, 2.32055895e-02, 7.03720003e-02,
       1.31550148e-01, 1.30816117e-01, 1.32648759e-02, -1.04415894e-01,
       -5.62815517e-02, -7.50937462e-02, -4.86511178e-02, 2.01083403e-02,
       -4.27000746e-02, 5.50792851e-02, 7.56447315e-02, -6.24464937e-02,
       -4.60293777e-02, -3.99254709e-02, 2.59366743e-02, -3.73746492e-02,
       -9.46939886e-02, -7.96473846e-02, -2.78638788e-02, 2.78629381e-02,
       2.07512528e-02, 2.13551354e-02, -4.56030946e-03, -3.53891738e-02,
       -5.28295673e-02, -2.01516245e-02, -1.12461261e-02,
       -2.54725963e-02, -1.27302967e-02, -1.11607248e-02,
       -6.59900308e-02, 4.65008318e-02, 1.58189349e-02, -1.89198402e-03,
       -4.64624465e-02, -1.53576443e-02, 3.58114280e-02, 1.38844088e-01,
       3.19267958e-02, -6.06434010e-02, -3.39479893e-02, -1.58232488e-02,
       -3.90466452e-02, -2.78789643e-02, -2.29620934e-02,
       -1.22027304e-02, 1.33581953e-02, 8.66654608e-03, 3.43944132e-02,
       -1.36630507e-02, -4.08929773e-02, -4.65401337e-02, 2.28248513e-03,
       -7.81071838e-03, -8.49198326e-02, 2.29541510e-02, 1.71742216e-02,
       3.28777678e-04, -2.20674835e-02, 1.57563500e-02, -6.62549809e-02,
       -3.58531326e-02, -4.60439101e-02, -5.92006221e-02, 1.85839646e-02,
       5.58668806e-04, 5.05975187e-02, 1.05870897e-02, -1.33375758e-02,
       1.33324286e-03, 1.14588020e-02, -4.48299758e-03, -4.55894470e-02,
       4.42891382e-02, 4.23137695e-02, -1.58459637e-02, 4.67097461e-02,
       2.07737274e-02, 6.57672994e-03, -2.48636622e-02, -1.72855761e-02,
       -2.19389629e-02, 5.27302027e-02, 1.70106217e-02, -2.65831370e-02,
       -7.34585663e-03, 4.12108600e-02, 3.32099982e-02, -2.96122618e-02,
       -4.10898738e-02, -3.54758017e-02, 1.74081866e-02, 2.85409973e-03,
       -2.03488767e-02, -4.16788161e-02, -1.66512299e-02, 1.19054783e-02,
       -2.66576968e-02, -3.17513905e-02, -3.51369120e-02, 2.00851802e-02,
       -3.04344986e-02, 3.21862958e-02, 6.99849043e-04, -2.79956125e-02,
       -1.04202963e-02, -6.81816339e-02, -2.15167068e-02, 4.34817653e-03,
       1.39691025e-01, 3.90001945e-02, -4.63292077e-02, 2.02782284e-02,
       2.40897946e-03, -3.06620393e-02, -1.99702661e-02, -4.04890440e-02,
       -3.92018892e-02, 9.00989771e-02, -5.81146032e-03, -6.79524839e-02,
       -4.64839041e-02, -1.90453529e-02, 1.14518106e-02, -3.91838923e-02,
       1.32790012e-02, -2.83220299e-02, 1.39539987e-02, 1.84316747e-02,
       -5.19746169e-02, -2.63431966e-02, -1.70783345e-02, 1.26899648e-02,
       -3.27426530e-02, -3.56745571e-02, -1.77076515e-02,
       -3.47435251e-02, -2.49311309e-02, 7.66613812e-04, 2.01997943e-02,
       1.15489503e-02, 3.93768167e-03, -1.93922520e-02, -3.38765979e-02,
       -3.31177376e-02, 8.76594111e-02, 8.96658078e-02, 3.03208474e-02,
       2.78361645e-02, -2.69587729e-02, 1.45399161e-02, -3.37157585e-03,
       -2.31680144e-02, -3.51384208e-02, 3.16890404e-02, 8.73835757e-02,
       3.21691781e-02, 4.18146290e-02, -9.79156140e-03, -4.50535771e-03,
       -5.51874638e-02, -2.71378253e-02, -4.00719866e-02, 4.09386877e-04,
       -4.50497568e-02, 6.62178872e-03, -1.38729736e-02, -7.62819424e-02,
       -2.20276322e-02, -1.56502705e-02, -2.31311265e-02,
       -5.79336174e-02, -3.57656218e-02, -3.68834026e-02, 7.89600536e-02,
       5.96796386e-02, -3.21866944e-02, -5.09723509e-03, 3.34476940e-02,
       -1.76946633e-02, -2.20138989e-02, 2.92950664e-02, 4.59197089e-02,
       -7.54268793e-03, 1.13933450e-02, -1.40754338e-02, 6.07137299e-05,
       2.78997980e-02, -6.18671849e-02, -6.81270361e-02, 2.03695074e-02,
       9.32587282e-05, 2.57783830e-02, 4.82090637e-02, -5.11313826e-02,
       -6.49441779e-03, -4.05318243e-03, -1.89369824e-02,
       -2.38896161e-02, -1.58855561e-02, 2.52733729e-03, 2.39779204e-02,
       7.72780599e-03, -6.02835082e-02, -1.47235580e-02, -5.96702918e-02,
       -3.39038633e-02, -7.73970829e-03, 2.26174351e-02, 1.79053023e-02,
       7.22758695e-02, 1.81897413e-02, -6.09140769e-02, -2.93699410e-02,
       -2.80738268e-02, -6.97894096e-02, -5.16019538e-02, 1.51134720e-02,
       6.99008210e-03, 3.57358158e-02, -4.96534556e-02, -5.80278896e-02,
       -5.88155771e-03, -1.03633048e-03, -3.82025279e-02,
       -4.16668989e-02, -2.85272002e-02, 1.92952789e-02, 4.09070682e-03,
       3.03099249e-02, -7.01095862e-03, 6.84095547e-04, -3.10178231e-02,
       -2.76323222e-02, -3.19398046e-02, 7.38651827e-02, 1.02061480e-02,
       3.66967469e-02, -4.85888589e-03, -2.29451265e-02, -5.23053808e-03,
       -7.94376731e-02, 2.82087270e-02, -5.75800277e-02, 3.22481990e-02,
       9.51558910e-03, -5.24746627e-02, -1.62585941e-03, -5.57356253e-02,
       -1.25464657e-02, -1.50718298e-02, -5.82324266e-02,
       -2.32640915e-02, 3.85470539e-02, 1.21023115e-02, -4.64227684e-02,
       -2.45432649e-02, -1.74504109e-02, -3.58194001e-02,
       -1.73582658e-02, 6.85880333e-03, -5.34180850e-02, 3.57603468e-02,
       -9.01320297e-03, 5.04524410e-02, -2.55420823e-02, -6.99655265e-02,
       -1.80610809e-02, -6.38324395e-02, -2.16297526e-02,
       -5.06567471e-02, 4.02110480e-02, 1.78254638e-02, 5.44297136e-02,
       -1.01959156e-02, -1.78285856e-02, -6.26701936e-02,
       -7.37637877e-02, -1.55060701e-02, 1.34908604e-02, 4.57805656e-02,
       2.91994307e-02, -4.76273485e-02, -5.90218902e-02, -3.72862704e-02,
       -1.50337638e-02, -2.11843662e-02, -3.53397126e-03,
       -3.65514308e-02, 7.08998821e-04, -4.45900708e-02, -2.36964598e-02,
       1.19480463e-02, -3.83615047e-02, -3.55103463e-02, -5.53280907e-03,
       -4.21835855e-02, -3.08881700e-02, -4.90125641e-02, 4.50323772e-04,
       4.28512022e-02, 5.00564687e-02, 3.15390639e-02, -1.19697507e-02,
       -3.47100198e-03, 3.20153907e-02, 1.12741604e-01, 8.17904845e-02,
       7.47799203e-02, -2.71834899e-02, 4.90365587e-02, 2.78023910e-02,
       8.93202797e-03, 5.20657636e-02, 1.76244904e-03, 7.88057223e-02,
       7.15881363e-02, 3.68254520e-02, 3.66437472e-02, 2.27126628e-02,
       -1.15656415e-02, 2.31275335e-02, 4.24660109e-02, -2.61504762e-02,
       1.65803246e-02, 4.27413099e-02, 1.46872997e-02, -1.78049821e-02,
       1.23877097e-02, 3.89151135e-03, -2.00337004e-02, 1.58091839e-02,
       -1.69173479e-02, -2.19074963e-03, -7.53904041e-03,
       -2.63755918e-02, 1.36322128e-02, 3.56310494e-02, 1.04696684e-01,
       9.38844457e-02, 7.80662522e-02, 5.68755642e-02, 4.73453812e-02,
       7.29646906e-02, 7.89446309e-02, -6.78058714e-02, -6.89823776e-02,
       -2.73526628e-02, 9.12550371e-03, 1.55325765e-02, -2.26918831e-02,
       -3.32224481e-02, -5.51677011e-02, -1.70588437e-02, 2.97077000e-02,
       1.28725041e-02, 6.23485297e-02, 2.03579310e-02, -6.83527091e-04,
       2.16715336e-02, 1.61466971e-02, -1.61312101e-03, 3.14499103e-02,
       -2.16727704e-03, -3.19265649e-02, -3.07514463e-02,
       -5.59192011e-03, -1.64086483e-02, -6.71854168e-02,
       -3.81927006e-02, -8.12203810e-02, -5.35622165e-02, 4.60476411e-04,
       -4.19868767e-04, 1.82788093e-02, 4.80878949e-02, -5.92428818e-02,
       2.98043676e-02, -3.36204730e-02, -2.44103316e-02, -3.67677510e-02,
       4.75060940e-03, -2.96164192e-02, -2.00692508e-02, -4.91876062e-03,
       -4.26220149e-02, 3.64490449e-02, -4.52303775e-02, -4.87159379e-02,
       1.09439520e-02, 4.70544510e-02, 1.69578027e-02, 2.31347065e-02,
       6.37297854e-02, -2.36064661e-03, 1.75800025e-02, 2.20963303e-02,
       1.94929093e-02, -1.71080232e-02, -5.12637571e-03, -4.53844592e-02,
       4.05021422e-02, 1.91687997e-02, 1.00079319e-02, 2.61972640e-02,
       -1.01258056e-02, -2.32307035e-02, -3.95871066e-02,
       -9.26581863e-03, -6.14329837e-02, -1.23873642e-02,
       -1.56687340e-03, -3.77748124e-02, 8.42494797e-03, -4.42457087e-02,
       -1.98812690e-02, -5.85634960e-03, 1.85650261e-03, 2.16907077e-02,
       1.36407735e-02, 2.08450761e-02, -6.26985654e-02, -1.17458971e-02,
       -1.01812342e-02, -2.43255533e-02, 3.22786905e-03, 8.62721726e-03,
       -2.97095552e-02, 8.87821006e-05, 2.44379733e-02, -5.53182047e-03,
       4.00073044e-02, 1.95935871e-02, -1.84756666e-02, -1.44717994e-03,
       1.49733620e-02, 1.78351626e-02, 3.35284509e-02, -1.30093032e-02,
       -1.44958505e-02, 2.44490560e-02, 2.60619409e-02, 5.82372695e-02,
       1.49909416e-02, -4.76160785e-03, -7.76452273e-02, -5.28423600e-02,
       4.17512245e-02, -2.92382669e-02, -2.83488608e-03, -6.42225798e-03,
       -1.08583616e-02, 2.22907364e-02, 4.58972082e-02, -5.17175756e-02,
       -5.77626191e-03, -1.13594404e-03, -4.40059267e-02,
       -2.64613405e-02, -1.57787278e-02, -2.20485069e-02, 3.79423983e-02,
       1.94902290e-02, -3.57545279e-02, -3.99841778e-02, 1.46065699e-02,
       2.39596050e-02, -1.86061778e-03, -8.78453080e-04, 2.58970931e-02,
       -2.64903530e-03, 5.64077720e-02, 2.56379377e-02, 1.52896950e-02,
       1.91104524e-02, 3.80339567e-03, 5.20112459e-04, -5.81530705e-02,
       -1.03438133e-02, 1.28065487e-02, 1.36982370e-02, -5.46758948e-03,
       -1.68615915e-02, 7.34068919e-03, 1.58456676e-02, 2.07698643e-02,
       1.81920025e-02, -3.22413794e-03, -2.85833273e-02, -2.49438435e-02,
       5.86004071e-02, 7.38725998e-03, -1.41795527e-03, -6.96793990e-03,
       -1.20653464e-02, -4.00685556e-02, -5.25419414e-02,
       -4.51130494e-02, 2.81976216e-04, -7.70936429e-04, -1.60274841e-02,
       2.30618604e-02, 4.48473394e-02, 3.44681628e-02, -4.77148071e-02,
       2.05512866e-02, -2.24026572e-02, 1.30035486e-02, 3.53057012e-02,
       4.67786826e-02, -1.10518811e-02, 3.75365913e-02, -2.46833544e-03,
       2.49331212e-03, -1.64546426e-02, -1.39048765e-03, -1.26364511e-02,
       1.80896223e-02, 2.66504046e-02, 1.42094791e-02, -1.71690073e-04,
       -1.93562508e-02, -1.47311566e-02, 2.65348405e-02, 6.20150380e-03,
       -8.10183026e-03, -4.41891886e-02, -3.12528387e-02,
       -7.78314471e-03, 3.88717055e-02, -2.31009349e-02, -1.55182937e-02,
       7.76763037e-02, 7.94416200e-03, 3.26521811e-03, 1.61878746e-02,
       1.57342907e-02, -1.12843178e-02, -1.72118079e-02, -4.93290536e-02,
       3.08339181e-03, -2.61458457e-02, -3.16717103e-02, 6.24441123e-03,
       -2.57336237e-02, -1.45717189e-02, -1.73912924e-02, 8.79672170e-03,
       -1.35953128e-02, 9.14772134e-03, 1.42327894e-03, 3.46625783e-03,
       -1.40958056e-02, 4.70893122e-02, -1.31667051e-02, 4.98748757e-02,
       -1.43999271e-02, -2.59158071e-02, -5.78680262e-02, 1.22943401e-01,
       5.88770472e-02, -3.29757035e-02, -1.03748608e-02, -4.08280492e-02,
       -2.16888450e-03, -5.26602799e-03, 7.24735996e-03, -5.01326509e-02,
       7.27468953e-02, 3.08734775e-02, -1.07177189e-02, 1.58507861e-02,
       -3.49451415e-02, 1.03235394e-02, -4.79694363e-03, -4.42260839e-02,
       -2.69539431e-02, 4.56742309e-02, 8.18919297e-03, 6.42704836e-04,
       5.12332097e-03, 7.25709600e-03, -1.55688624e-03, -3.89253609e-02,
       -3.27551030e-02, -3.17206196e-02, 2.06340421e-02, -1.17861712e-02,
       1.23344082e-02, 8.56659003e-03, -7.50182150e-03, 1.34683009e-02,
       3.32918391e-02, 3.71369645e-02, -4.80700210e-02, 5.99334799e-02,
       7.97035769e-02, -4.06586342e-02, -3.14451531e-02, 3.98865761e-03,
       7.38789141e-03, 1.20263342e-02, 4.57999967e-02, -3.14097255e-02,
       5.29374834e-03, -2.96506900e-02, 4.91411388e-02, -2.27155853e-02,
       -5.92145100e-02, -1.04766935e-02, -1.54100433e-02, 3.47923711e-02,
       -5.67216799e-02, 3.42101231e-03, 3.17576863e-02, 1.68780200e-02,
       -8.86606891e-03, -3.09086405e-03, -5.92395104e-03, 9.13885236e-03,
       -8.59184470e-03, -1.27626555e-02, 2.44953372e-02, 1.88505333e-02,
       -1.76261310e-02, -3.14597413e-02, -3.28976214e-02,
       -1.51630575e-02, 2.56153047e-02, -5.97276352e-03, -3.26865800e-02,
       5.19095957e-02, 3.59789804e-02, -5.04648127e-02, 2.15420816e-02,
       -3.07489727e-02, -1.83008164e-02, 7.34084425e-03, -4.35898826e-03,
       -3.08071896e-02, 1.54551649e-02, -3.15195043e-03, 3.96879800e-02,
       1.39927650e-02, -3.81748788e-02, -3.36772273e-03, 2.76397895e-02,
       -6.86912844e-03, -3.34866308e-02, -1.19133573e-02, 1.30356243e-02,
       7.32910307e-03, 1.55683849e-02, -3.74784954e-02, 2.96062287e-02,
       6.78076595e-02, 9.72112350e-04, -7.38483015e-03, -8.76179338e-03,
       -2.43256092e-02, 8.35852604e-03, 5.18643185e-02, -1.42868152e-02,
       2.90721077e-02, 1.95328128e-02, 1.51272966e-02, -1.96176339e-02,
       6.06599636e-02, 9.00150463e-02, 1.68251600e-02, 1.63485613e-02,
       -1.13891810e-02, 3.72824669e-02, 1.10851573e-02, 3.51757705e-02,
       -9.12898127e-03, 4.26274389e-02, -1.75047088e-02, 1.76806469e-02,
       -1.67168246e-03, -5.72668798e-02, -3.22530307e-02,
       -2.59111375e-02, -2.48868717e-03, 1.14942910e-02, -1.61469858e-02,
       -8.99797026e-03, 2.47660149e-02, -4.73910477e-04, -1.71512030e-02,
       -2.08845665e-03, 7.49529852e-03, -8.45326763e-03, -2.02114228e-02,
       -1.54373506e-02, 3.36447195e-03, 4.82531525e-02, 5.12284115e-02,
       1.17985699e-02, 7.58486316e-02, 1.13002798e-02, 6.70812875e-02,
       -2.29716040e-02, 2.18360107e-02, -6.95105700e-04, -4.22605574e-02,
       -4.16627415e-02, 6.73282018e-04, 2.05764361e-02, -8.42100475e-03,
       4.99810837e-02, -7.37468945e-03, 4.51150537e-02, -6.85276638e-04,
       3.28988731e-02, -6.52286336e-02, -5.28606884e-02, -2.40234495e-03,
       -9.33618634e-04, 3.50186378e-02, -4.36034240e-03, -1.18781142e-02,
       -2.13861391e-02, 2.60909498e-02, -2.38113594e-03, -4.89455741e-03,
       8.37304350e-03, 2.17388570e-02, -1.39668509e-02, -4.07951772e-02,
       -2.24849656e-02, -4.38212231e-03, -2.95181964e-02, 3.11220321e-03,
       3.49139497e-02, 5.05211651e-02, -4.44662571e-03, 3.32519971e-02,
       2.25797482e-02, 6.71757832e-02, 5.91480918e-02, 2.12082621e-02,
       -5.47222011e-02, -5.02443947e-02, 5.78078926e-02, 3.34270447e-02,
       2.61915941e-02, -2.86473781e-02, 2.80960482e-02, 3.30031104e-02,
       -1.66496262e-02, 3.64609659e-02, 2.99829245e-02, -1.14908060e-02,
       -2.04654466e-02, 1.19809071e-02, 1.02349706e-02, -5.05635664e-02,
       1.25521142e-02, -3.36686969e-02, -1.36319930e-02, -8.51607509e-03,
       -1.48192630e-03, 6.70276815e-04, -4.11823653e-02, -9.82653815e-03,
       -2.56219245e-02, -1.32863596e-02, 8.95108748e-03, 8.47429223e-03,
       1.41581604e-02, 7.35641420e-02, 2.02760585e-02, 1.55985551e-02,
       1.91022716e-02, 5.12758717e-02, 1.07000442e-02, 6.36529271e-03,
       -7.74439564e-03, -2.09540175e-03, 5.06609306e-02, -5.01116179e-03,
       4.50926647e-02, -3.41670995e-04, 2.69135348e-02, -7.08027510e-03,
       -3.90552878e-02, 2.31789704e-02, -2.45467434e-03, 2.34216787e-02,
       3.00575513e-02, -3.55847590e-02, -3.95776182e-02, 2.65910220e-03,
       -3.59370224e-02, -2.91622411e-02, -1.50284879e-02,
       -3.91101874e-02, 3.21834814e-04, 2.58398172e-03, 3.12097631e-02,
       -4.42470908e-02, -7.39091635e-02, -3.73187661e-02, 1.34309084e-04,
       -2.51976829e-02, -3.21093993e-03, 5.85834347e-02, 1.57784000e-02,
       4.05616648e-02, 2.26840880e-02, 5.28862327e-02, 5.32351136e-02,
       -6.10338226e-02, 9.89118312e-03, -2.53981724e-03, 4.08538841e-02,
       -6.90883212e-03, 3.94740440e-02, 6.46281405e-04, 3.01438496e-02,
       -1.68456957e-02, -1.64753944e-03, -4.75156084e-02, 4.36378131e-03,
       1.21949138e-02, 2.08070241e-02, -6.08134503e-03, -2.32570749e-02,
       1.22768162e-02, 3.18389721e-02, -2.45394520e-02, -4.06795181e-02,
       4.72176261e-03, -5.43405637e-02, -1.82586871e-02, -2.66537294e-02,
       -1.54284667e-02, 1.06924418e-02, 7.45516736e-03, -1.01326155e-02,
       7.08213225e-02, 9.75868665e-03, 6.88823014e-02, 8.79488289e-02,
       4.34593596e-02, 2.52041742e-02, 5.59143089e-02, 6.08344516e-03,
       -5.02238609e-02, 6.68605715e-02, 2.69844811e-02, 1.93278566e-02,
       -2.48379186e-02, -3.65656801e-03, 2.47391667e-02, 1.96631048e-02,
       -4.04511206e-02, 7.98530504e-03, 1.40083954e-02, -5.70289697e-03,
       -5.37893102e-02, -3.35615762e-02, -3.32388771e-03, 7.41961785e-03,
       4.60077729e-03, 9.51884314e-03, -2.95266807e-02, 2.05390695e-02,
       2.90779560e-03, -4.64044735e-02, 5.38082654e-03, -1.89909320e-02,
       -2.54224520e-02, -3.87185216e-02, -2.93278266e-02, 9.61150625e-04,
       4.44439873e-02, 4.91117761e-02, 6.86547682e-02, -1.79867409e-02,
       3.80621813e-02, 5.01622148e-02, 1.76479109e-02, -6.56644674e-03,
       -3.72540834e-03, 2.12003551e-02, -1.53784901e-02, -6.74659992e-03,
       1.95693597e-02, -2.99355704e-02, 1.30764931e-03, -4.84175682e-02,
       -6.42999262e-02, -3.49440915e-03, -2.16195267e-02, 1.53362239e-02,
       1.30154490e-02, -1.41421538e-02, -1.80252139e-02, 2.49400139e-02,
       -2.85268519e-02, -1.28094964e-02, 4.40169089e-02, -5.98405628e-03,
       -1.25713022e-02, -6.41569914e-03, -2.89258384e-03,
       -3.91179211e-02, -4.73166537e-03, 1.02068577e-02, 1.64742197e-03,
       5.49085997e-02, 2.42659505e-02, -2.39893189e-03, -2.55434886e-02,
       -3.04571129e-02, 8.14900547e-03, 2.95979958e-02, 1.14564260e-03,
       5.44641493e-03, 9.65064950e-03, -6.66136965e-02, -8.91384110e-03,
       -4.46814634e-02, -2.58345194e-02, 3.45130339e-02, 1.06939096e-02,
       -5.09826392e-02, 2.62655895e-02, 9.52918362e-03, -1.92283075e-02,
       -1.32367341e-02, 1.25127090e-02, -6.02862937e-03, 3.85275073e-02,
       3.47099043e-02, 1.03963604e-02, -9.25494125e-04, 6.98595727e-03,
       -3.62659916e-02, 8.03297386e-03, 2.85440730e-03, 1.82214864e-02,
       4.31218408e-02, -2.99657043e-03, -5.20071499e-02, 5.39969392e-02,
       3.49460989e-02, -5.97306602e-02, -5.91480918e-02, 2.32852139e-02,
       3.24020572e-02, 2.27422602e-02, 1.08186342e-02, -5.82002550e-02,
       3.55623774e-02, 4.18553427e-02, 1.28082475e-02, 4.10879002e-04,
       -3.88266984e-03, 2.06715497e-03, 1.34415040e-02, -6.67540124e-03,
       3.05880676e-03, 7.93798827e-03, 5.67414314e-02, -3.24157812e-02,
       1.02018111e-03, -4.31941729e-03, 2.44368874e-02, 2.84801405e-02,
       -3.57013047e-02, -3.55696082e-02, 5.00726774e-02, 1.02475304e-02,
       2.32836641e-02, 1.01494426e-02, 2.60942020e-02, 9.21769592e-04,
       2.98395217e-03, -1.33992443e-02, -3.48646529e-02, 4.86380234e-02,
       -6.45147497e-03, -3.57411057e-02, -2.92141009e-02, 2.44610738e-02,
       1.51057951e-02, 5.41203562e-03, -8.15292355e-03, 1.16834650e-02,
       -3.79212201e-02, -4.97281784e-03, -1.50435511e-03,
       -1.91626307e-02, 1.81104355e-02, 1.39758633e-02, -6.47746306e-03,
       -2.73613669e-02, 3.49437520e-02, -1.22055048e-02, 4.21241075e-02,
       2.73727905e-02, -1.37644038e-02, 4.78027090e-02, 4.75874469e-02,
       9.87948733e-04, 2.49147341e-02, -1.15383854e-02, 2.13202424e-02,
       -2.40677353e-02, 4.97081801e-02, 1.07640764e-02, 3.58336195e-02,
       1.90544166e-02, 2.58901473e-02, 3.71489121e-04, 2.34290608e-03,
       8.15000758e-03, -2.29461994e-02, -1.85567383e-02, -2.23672558e-02,
       3.07780746e-02, -7.10837962e-03, 3.69954556e-02, -2.74628978e-02,
       5.29652089e-03, -3.05025354e-02, -6.81354897e-03, 2.51778588e-02,
       2.26534307e-02, 3.02735697e-02, -2.14314945e-02, 2.54491661e-02,
       1.58812455e-03, -1.22213624e-02, -2.65612942e-03, -4.88152355e-03,
       1.08444970e-02, -1.91647317e-02, 2.73773596e-02, 1.58130024e-02,
       2.69915406e-02, -2.70656813e-02, 9.45958961e-03, -4.94218525e-03,
       6.55098930e-02, 2.71246247e-02, 4.24801419e-03, 3.39698270e-02,
       3.47998925e-02, 3.68896425e-02, 2.41061021e-02, 1.20107960e-02,
       4.48517315e-02, -3.39492448e-02, 1.41187441e-02, 1.21505791e-02,
       1.18694659e-02, -3.47224027e-02, -6.60982030e-03, 3.03637646e-02,
       1.36576062e-02, -1.70260258e-02, 7.74460053e-03, -2.16320734e-02,
       -3.69329080e-02, 1.27496533e-02, -1.70259923e-02, -2.78808493e-02,
       -3.45028266e-02, -7.69299194e-02, -1.88799724e-02,
       -2.13161446e-02, -8.01307498e-04, -6.73563313e-03,
       -1.97986532e-02, -3.39468457e-02, -1.22664934e-02,
       -2.81812914e-04, 4.76160906e-02, 8.20008945e-03, -1.35238403e-02,
       -2.13719206e-03, 2.93197762e-03, 1.97435208e-02, -2.42186934e-02,
       -1.67933963e-02, -8.39661993e-03, 5.68004604e-03, -1.72994081e-02,
       -1.04674492e-02, 4.35719788e-02, -3.23039703e-02, 9.11505893e-04,
       4.05900506e-03, -2.15605963e-02, -1.02524813e-02, 1.53569132e-02,
       -3.23394984e-02, 4.41654492e-03, 1.70191433e-02, 5.72862243e-03,
       -3.18059325e-03, 1.88928712e-02, 9.53007583e-03, 3.41714174e-02,
       -2.72274930e-02, -3.47349755e-02, -3.13700959e-02, 2.92901639e-02,
       6.90426165e-03, -3.51030305e-02, -9.43439361e-03, -1.06651476e-02,
       -7.51735456e-03, 2.21466664e-02, -3.70416939e-02, -3.28324214e-02,
       7.23952567e-03, -5.51428013e-02, -1.20115057e-02, 9.53431800e-03,
       -4.47014980e-02, -4.80635688e-02, -6.16637897e-03, 5.85925020e-03,
       4.61013149e-03, 3.96243744e-02, -2.72642225e-02, 2.56763957e-02,
       -2.86234915e-02, 3.63343284e-02, -1.73391309e-02, -3.40365022e-02,
       2.95501258e-02, 2.71228899e-04, 1.29146250e-02, -2.77254805e-02,
       1.02884567e-03, -3.65537368e-02, -1.11236600e-02, -1.60456412e-02,
       1.31371208e-02, 7.54462229e-03, 2.57603638e-02, 1.26187569e-02,
       -2.93722022e-02, 3.50197218e-02, -4.16758470e-03, 3.73932607e-02,
       -2.76162233e-02, -3.14015001e-02, -3.09749413e-02,
       -8.88029672e-03, -1.24584315e-02, -3.09525989e-02,
       -2.73923445e-02, 6.66099340e-02, -1.32593829e-02, -5.92558347e-02,
       -7.46915117e-03, -3.46013419e-02, 1.88819375e-02, 6.33183643e-02,
       -2.93964949e-02, 2.77654119e-02, 1.44295441e-03, 5.01107648e-02,
       1.00826863e-02, -4.19347081e-03, -4.01588297e-03, 2.19646506e-02,
       3.04691680e-02, -2.64100917e-02, 3.26096080e-02, -6.30808994e-02,
       -5.67682227e-03, 1.71641726e-02, -1.75693166e-02, -3.57023850e-02,
       1.65278688e-02, -1.52838845e-02, -3.21613699e-02, -1.98326577e-02,
       -7.34981429e-03, 2.42026113e-02, -2.74362955e-02, 1.57495346e-02,
       -2.41416153e-02, 2.75682495e-03, 8.57758895e-03, -2.27927547e-02,
       -3.17296721e-02, -5.39821573e-03, -1.46114696e-02,
       -4.41124402e-02, -1.55924298e-02, -3.46340537e-02, 1.93829723e-02,
       3.58448811e-02, 1.11166881e-02, 3.63426879e-02, 1.59909148e-02,
       5.65664656e-02, 3.77655216e-02, 7.05332076e-03, 1.37213711e-02,
       -4.99301814e-02, 3.79168689e-02, 2.41639037e-02, 8.92199297e-03,
       -2.69788690e-02, -1.65833421e-02, -5.69044612e-03,
       -4.60016876e-02, -6.71883225e-02, 1.96411740e-02, 2.05248818e-02,
       -2.65822802e-02, -5.82642742e-02, 4.60024774e-02, -8.89693969e-04,
       -2.22850908e-02, -5.50063001e-03, 1.44791941e-03, -1.95973776e-02,
       1.81798991e-02, -1.51310256e-02, -3.67567167e-02, 4.36642356e-02,
       -3.79959680e-02, 3.68403085e-03, -2.02628896e-02, 4.69938677e-04,
       9.88004636e-03, -1.77572779e-02, 3.03591490e-02, 1.54277142e-02,
       -2.57691108e-02, 1.65032428e-02, 5.16972505e-02, 2.08416954e-02,
       -1.61959119e-02, 5.12956036e-03, -1.47440257e-02, 6.20407052e-03,
       8.33921600e-03, 2.38091610e-02, 5.93798468e-03, 4.19322327e-02,
       9.13250539e-03, -3.65297943e-02, 7.95390643e-03, 3.06056701e-02,
       1.00321332e-02, -5.21792448e-04, -1.95196178e-02, 3.48202288e-02,
       3.97978351e-02, 1.34709012e-02, -3.67032783e-03, -6.44892156e-02,
       4.37935069e-03, -6.18092017e-03, -6.45108463e-04, 1.78678695e-03,
       9.84783191e-03, -1.24171600e-02, -2.54545286e-02, -1.65522397e-02,
       4.25167754e-02, 3.10019609e-02, -9.61394794e-03, -4.29224176e-03,
       -5.96418791e-02, 7.77789056e-02, 7.26682395e-02, 9.05359909e-03,
       -5.17447898e-03, -2.27516498e-02, -7.18749920e-03,
       -9.87940375e-03, 3.16899712e-03, -1.64106190e-02, 1.98630504e-02,
       1.99504271e-02, 2.32470408e-02, -3.72986533e-02, 2.20211018e-02,
       3.19780856e-02, -2.96657719e-02, 9.84512269e-03, 9.99069773e-03,
       2.08189618e-02, -2.00960953e-02, 5.67477569e-03, -3.97038311e-02,
       2.67568836e-03, -2.21761130e-02, -6.40558898e-02, -1.15998648e-02,
       3.48549597e-02, -2.98496131e-02, -7.27359876e-02, -2.13445444e-02,
       -1.42180668e-02, 1.16769373e-02, 2.81814467e-02, 1.44719351e-02,
       2.49442831e-02, -3.18796448e-02, 4.67885137e-02, 4.38419357e-02,
       3.96757536e-02, 2.03284975e-02, -3.76072414e-02, 9.62020177e-03,
       2.00214926e-02, -8.40640254e-03, -3.07656713e-02, 4.13378440e-02,
       6.19884254e-03, 1.91738084e-02, -1.57232524e-03, 3.69274803e-02,
       2.42215432e-02, -3.39079686e-02, 1.50406351e-02, 4.20596227e-02,
       5.29056741e-03, 1.37427496e-02, 1.39935100e-02, 4.05847840e-02,
       -4.95030619e-02, 3.07247648e-03, -4.44966517e-02, -3.69201675e-02,
       -2.29281969e-02, -1.08294673e-02, -2.35392656e-02,
       -1.70842949e-02, -1.16236396e-02, -1.30086346e-02, 1.21267959e-02,
       4.15220372e-02, 7.05538597e-03, -9.44822747e-03, 2.51770504e-02,
       -2.39259303e-02, 1.78862945e-03, 1.44061912e-02, -2.51021609e-02,
       -3.88975926e-02, 1.85173880e-02, -1.73477046e-02, -4.50076684e-02,
       -3.91825894e-03, -2.37850193e-02, -3.41069140e-02,
       -2.72384733e-02, 6.43899385e-03, 2.34514177e-02, -2.25587785e-02,
       -1.12482626e-02, 2.33842097e-02, 4.85889837e-02, -2.02706885e-02,
       -2.19868645e-02, -1.03409057e-02, 1.59357097e-02, 2.31132153e-02,
       -2.47542039e-02, -2.54595466e-03, -1.10699730e-02, 1.66174863e-02,
       -1.89606603e-02, -5.56052923e-02, -1.58394445e-02, 2.14879066e-02,
       4.16773818e-02, 4.30640057e-02, 2.74257213e-02, 1.86128318e-02,
       2.81856507e-02, 3.14108059e-02, 9.51418560e-03, -6.04710681e-03,
       -4.11112756e-02, -2.35662272e-04, 2.21238174e-02, -2.15205289e-02,
       1.05374670e-02, 2.72982550e-04, 5.93477022e-03, 5.30176237e-03,
       -3.11320387e-02, 8.07144027e-03, -7.87393749e-03, -3.51834707e-02,
       1.08854659e-02, 1.81707032e-02, 9.77038871e-03, 2.37240475e-02,
       -2.24658381e-03, -1.32167032e-02, -2.66400445e-02,
       -7.90134817e-03, -3.68729420e-02, -3.68701145e-02, 1.06539791e-02,
       -2.60830540e-02, -5.67057449e-03, -1.33953569e-02,
       -3.38032357e-02, 1.71073899e-02, -1.82994567e-02, 1.80280544e-02,
       1.00199804e-02, -2.00968497e-02, -4.47181091e-02, 1.46069005e-02,
       2.29918044e-02, -4.37466614e-03, 2.80968565e-02, -1.05175432e-02,
       -1.02586783e-02, 1.47620728e-02, -1.40943751e-03, -7.14811636e-03,
       2.94566639e-02, -2.88543422e-02, -2.01581344e-02, 2.09013820e-02,
       2.91235503e-02, -1.47152655e-02, 4.96236794e-03, 4.40422595e-02,
       6.93668379e-03, 3.23776938e-02, 3.67656462e-02, 2.14589387e-02,
       -1.49094192e-02, -1.81868579e-02, -4.87878323e-02, 8.28457251e-03,
       1.03681732e-03, 3.56654264e-02, -2.06242246e-03, -1.44446769e-03,
       -8.35354254e-03, 2.35229433e-02, -2.15792302e-02, -1.30176721e-02,
       1.19930757e-02, -1.92378126e-02, -6.29044697e-03, 2.38236766e-02,
       -8.59726593e-03, -1.22370636e-02, 2.98698246e-02, -2.08604503e-02,
       3.10187377e-02, -1.48814665e-02, -3.67798358e-02, -6.83481842e-02,
       -1.86806284e-02, -3.71553637e-02, 3.23992856e-02, 2.80339867e-02,
       -1.71538573e-02, 3.48967384e-03, 8.36019311e-03, -2.35189758e-02,
       3.85405868e-02, -3.64123955e-02, 2.97951289e-02, 1.35787120e-02,
       -2.01400239e-02, -1.70241315e-02, 1.31760689e-03, -7.44357007e-03,
       -3.16384509e-02, 1.07835336e-02, -3.48740220e-02, -1.58620998e-02,
       2.43216306e-02 ]
