%YAML:1.0
cvHOGClassifier: !!opencv-object-detector-hog
   winSize: [ 64, 128 ]
   blockSize: [ 16, 16 ]
   blockStride: [ 8, 8 ]
   cellSize: [ 8, 8 ]
   nbins: 9
   derivAperture: 1
   winSigma: 4.
   histogramNormType: 0
   L2HysThreshold: 2.0000000000000001e-01
   gammaCorrection: 1
   nlevels: 64
   SVMDetector: [ -6.63697347e-03, -4.18605506e-02, -5.66714406e-02,
       3.07309162e-02, -2.36804993e-03, -4.14194614e-02, -3.06812413e-02,
       7.03797303e-03, 2.67434511e-02, 1.55475615e-02, -1.17454370e-02,
       -2.24828925e-02, 2.32127146e-03, 1.39842052e-02, 3.98500403e-03,
       -9.77672450e-03, 9.98300221e-03, 1.82096474e-02, 2.32729893e-02,
       -2.99425814e-02, -1.75808128e-02, 4.37317081e-02, 2.25515924e-02,
       -6.12584315e-03, -3.83116528e-02, -3.96945737e-02, 3.82353505e-03,
       1.66557040e-02, -1.94791760e-02, -1.72889791e-03, 2.47462168e-02,
       9.84537695e-03, 1.29619578e-03, -3.01359245e-03, -4.19691158e-03,
       -1.42113469e-03, 9.28484928e-03, 5.06875245e-03, -1.76598169e-02,
       1.10681094e-02, 3.80857103e-02, -3.88554903e-03, -6.50444999e-03,
       3.90962325e-03, 2.12104712e-02, -2.01628916e-02, 1.05643775e-02,
       -1.31218927e-03, 9.82845109e-03, 5.75609831e-03, 1.59110762e-02,
       -1.42888259e-02, 1.52643425e-02, -4.53172904e-03, 2.85869017e-02,
       1.80507768e-02, -7.27917999e-03, 1.49037680e-02, 1.81071367e-02,
       4.35816497e-03, 2.55330815e-03, 6.75211835e-04, 1.65416840e-02,
       -9.85029154e-03, 4.82587330e-03, 4.77153389e-03, -3.47082294e-03,
       -2.48345044e-02, 1.55199517e-03, 2.78431550e-02, 2.67614773e-03,
       9.32393502e-03, 3.69205326e-03, 1.26098907e-02, 6.69253618e-03,
       -1.51465805e-02, 2.81044887e-03, 3.83835696e-02, 1.05200754e-02,
       2.34987084e-02, -2.22411891e-03, -9.66121879e-05, 2.61843926e-03,
       -3.65967117e-03, -2.46627722e-03, 1.52131235e-02, 4.75500850e-03,
       1.72081625e-03, 2.65660288e-04, 2.43060179e-02, -8.90213903e-03,
       5.33915299e-04, 3.22591956e-03, -8.31858721e-03, -1.40028186e-02,
       2.13909708e-02, 2.35093832e-02, 2.90562911e-03, 1.56227956e-02,
       1.09195681e-02, -9.21042915e-03, -1.95622891e-02, -6.14219857e-03,
       2.20563961e-03, -1.09655196e-02, 2.72514243e-02, 3.04810163e-02,
       2.35786270e-02, -1.63343549e-02, 4.50277189e-03, -1.40015529e-02,
       -1.02087921e-02, -1.38897765e-02, -8.42880644e-03, 1.01585984e-02,
       -5.41430851e-03, 6.78246422e-03, -2.12593004e-02, 1.87910907e-02,
       -3.17068771e-02, -2.11662408e-02, -8.25687079e-04,
       -7.09084375e-03, -1.06611857e-02, 1.23483287e-02, -7.51223182e-04,
       -1.30658243e-02, 1.92042384e-02, 2.58651488e-02, 2.57625878e-02,
       -1.24197947e-02, -1.94657128e-02, 1.00392932e-02, 2.20390167e-02,
       -2.50090007e-02, -3.91553752e-02, -3.01718041e-02,
       -5.28782327e-03, -3.20237167e-02, -5.22866808e-02,
       -2.09922083e-02, -5.55286743e-03, 2.18350496e-02, -3.97380292e-02,
       -1.43655324e-02, 5.77186570e-02, 1.19948983e-02, 8.25523399e-03,
       3.84235033e-03, -1.06944405e-02, -3.09402253e-02, 8.42631853e-04,
       -9.84309986e-03, 1.23009365e-02, 8.35573417e-04, -5.98114543e-03,
       -3.59351351e-03, 6.12954004e-03, -2.47602980e-03, -4.90665399e-02,
       -2.44153887e-02, -5.59623237e-04, -1.37137631e-02, 3.42058316e-02,
       3.01747993e-02, -8.48817825e-03, -1.43793523e-02, 1.82076879e-02,
       1.49689354e-02, 5.03040031e-02, 1.18374149e-03, -2.39926390e-02,
       -9.70169716e-03, -3.34929936e-02, -2.13284958e-02,
       -2.10670531e-02, 3.24719492e-03, -1.12680318e-02, 5.80103416e-03,
       -2.49565975e-03, 1.30019123e-02, -3.26418579e-02, -6.79198885e-03,
       -6.07209606e-03, -1.10937830e-03, -8.30313656e-04,
       -1.70912482e-02, 8.99616349e-03, 1.33694727e-02, -2.78254785e-02,
       -1.46033783e-02, -3.68974172e-02, -3.75889167e-02,
       -1.90373417e-02, -2.69649774e-02, 5.42258192e-03, 2.59791091e-02,
       -2.63188798e-02, 3.11268456e-02, 1.20392824e-02, -7.12268427e-03,
       1.50081301e-02, 3.90007021e-03, 2.76532006e-02, -5.90962218e-03,
       2.91940346e-02, -3.02456431e-02, -1.27322169e-03, 1.89061202e-02,
       -2.25446876e-02, -1.79902464e-02, 1.50575349e-02, -3.43553908e-03,
       -9.32710804e-03, -1.03576966e-02, -1.95923485e-02,
       -8.51139519e-03, 2.03025639e-02, -5.46746282e-03, 4.48126644e-02,
       2.22377554e-02, 1.63059905e-02, -7.86611717e-03, 2.18545999e-02,
       -3.72352055e-03, -5.70369605e-03, 8.06575920e-03, -2.49355212e-02,
       -4.17837454e-03, -4.60542478e-02, -1.32862460e-02,
       -9.47298706e-02, -2.78231241e-02, -2.24483311e-02, 1.71200838e-02,
       2.56749764e-02, -2.58430392e-02, 3.37989591e-02, 2.94860285e-02,
       3.67739499e-02, 8.33657011e-03, 3.38958129e-02, 2.63134316e-02,
       -2.44288296e-02, 2.29737459e-04, -1.98154077e-02, 3.64298932e-03,
       -3.29016186e-02, 2.27935947e-02, -4.18835804e-02, 3.00434977e-02,
       1.06643597e-02, 1.18029015e-02, 7.98241049e-03, -1.08612748e-02,
       -2.34259125e-02, -3.22501198e-03, 1.37017136e-02, -7.96043202e-02,
       -3.15185115e-02, -5.36217727e-03, -1.62658934e-02,
       -2.25003120e-02, 9.77442320e-03, -1.91836208e-02, 5.12623694e-04,
       3.60572245e-03, -2.59198844e-02, 2.77469065e-02, -1.03218695e-02,
       -3.40631269e-02, 1.34899849e-02, -1.31985766e-03, -6.69284351e-03,
       2.17769854e-02, 3.48788276e-02, -2.53635505e-03, 1.09366151e-02,
       1.89152677e-02, -4.70642671e-02, 6.39629550e-03, 3.54120531e-03,
       9.36946739e-03, -3.32705975e-02, 2.07156148e-02, 3.90732102e-02,
       1.85947288e-02, -1.59779433e-02, -4.97994386e-03, -4.31463681e-03,
       2.61926390e-02, 1.16260350e-02, 3.43552255e-03, -4.22907574e-03,
       -1.81397125e-02, 7.19482126e-03, 1.13070821e-02, -2.45834254e-02,
       3.65462666e-03, 2.33653300e-02, 2.60510594e-02, -2.62171086e-02,
       -1.05120745e-02, -2.23879386e-02, -3.72994319e-03, 2.95451842e-03,
       -2.01070942e-02, 1.01707336e-02, 1.43344067e-02, 9.73561592e-03,
       -2.33056210e-02, 5.57255885e-03, 2.55242512e-02, 2.05910094e-02,
       2.11846083e-02, -4.38580923e-02, -2.65053567e-03, 2.37471275e-02,
       6.08063163e-03, -3.39600630e-02, -9.66311246e-03, -2.97087170e-02,
       -1.46910278e-02, -1.54436696e-02, 1.28814473e-03, 1.27479276e-02,
       -1.21056568e-02, 3.39599443e-04, -3.04259900e-02, -1.36299478e-02,
       -1.56571958e-02, 1.52341451e-03, 3.97561677e-02, -7.90318754e-03,
       -2.97675319e-02, -6.40067384e-02, -2.50035096e-02,
       -3.60814966e-02, 9.17012710e-03, -7.26818591e-02, -4.42179814e-02,
       -9.52054001e-03, -1.46341166e-02, -1.16069643e-02, 1.68632455e-02,
       9.21411812e-03, -1.03602149e-02, -6.20017806e-03, -7.46715674e-03,
       2.83531267e-02, -6.66296668e-03, -4.03411463e-02, -3.01541556e-02,
       -2.96027400e-02, -4.31288558e-04, -1.02978842e-02, 3.12829800e-02,
       -2.99520465e-03, 1.81857012e-02, -1.06170950e-02, -1.46690011e-02,
       -3.38473618e-02, -4.15156707e-02, -5.17853629e-03,
       -2.16021817e-02, 5.06282318e-03, -4.03477065e-02, -2.49821246e-02,
       -2.22760579e-03, 6.86334493e-03, -2.55805291e-02, 1.30932992e-02,
       1.55860661e-02, -3.54062133e-02, 6.94909086e-03, -3.84413451e-02,
       -1.07306857e-02, -3.54057667e-03, 2.96230777e-03, -6.07373705e-03,
       1.03995781e-02, -1.14503633e-02, -1.76837537e-02, 2.12897100e-02,
       1.30947605e-02, 2.62637343e-02, 5.29002212e-03, -8.21384788e-03,
       -1.05355158e-02, 2.80753579e-02, 3.41950729e-02, -3.37938033e-02,
       -1.21382605e-02, -1.67491529e-02, 1.34874536e-02, -1.98077615e-02,
       -2.83943061e-02, -2.51967590e-02, 6.47239434e-03, 2.91964281e-02,
       -2.05278285e-02, 1.92699954e-02, -3.90484259e-02, 5.30558545e-03,
       -1.69861913e-02, -3.52039114e-02, -3.10503971e-02,
       -3.36622372e-02, -3.16037377e-03, -5.91689758e-02, 6.62254496e-03,
       -3.36061493e-02, -1.27094556e-02, -3.35909873e-02,
       -1.65928137e-02, 3.39602423e-03, -3.44440131e-03, 4.96586375e-02,
       1.73213463e-02, 1.60379186e-02, 2.37151980e-03, 3.32313739e-02,
       3.21951765e-03, -3.14594954e-02, 1.05074244e-02, -2.33476367e-02,
       -7.20868539e-03, -3.02529875e-02, -9.54181328e-03,
       -2.41582980e-03, 8.47990625e-03, -2.68903691e-02, -3.90765769e-03,
       -1.58159323e-02, -8.05375911e-03, 5.37388446e-03, -1.19303232e-02,
       3.46850306e-02, -2.91960966e-02, -1.78054646e-02, -1.66242346e-02,
       -3.75115387e-02, -1.92677900e-02, -2.28606947e-02,
       -4.75611798e-02, -6.95539499e-03, 8.11948813e-03, -1.55742541e-02,
       -1.40912142e-02, -2.95085274e-02, -6.60903705e-03, 1.94475912e-02,
       2.53389440e-02, 2.04461999e-02, -2.74518784e-02, 2.10766532e-02,
       1.75152179e-02, 3.53478864e-02, -6.83986582e-03, -3.57444063e-02,
       1.53794866e-02, 4.32480779e-03, -4.37069759e-02, -3.94789688e-02,
       -2.51894444e-02, 3.37819615e-03, -1.80997960e-02, -4.85195443e-02,
       -3.77269164e-02, 3.74289118e-02, 4.30870503e-02, -1.30958844e-03,
       8.75902362e-03, -4.95991744e-02, -2.36646160e-02, -8.62841588e-03,
       -1.76899508e-02, 1.29019783e-04, 1.48788206e-02, 3.07300948e-02,
       1.63322203e-02, -7.20363948e-03, -2.62979101e-02, -5.18744066e-02,
       -4.61071655e-02, 4.90291091e-03, -1.71745308e-02, 2.77558882e-02,
       3.14990617e-02, -5.61483577e-03, 1.99214555e-02, -2.25550458e-02,
       2.25037690e-02, -1.93285868e-02, 5.37098758e-03, -4.54387441e-03,
       3.48998187e-03, 1.98819805e-02, -5.50576393e-03, 6.79182180e-04,
       -2.41781287e-02, -3.35820243e-02, -2.74751950e-02, 1.52609907e-02,
       4.65448573e-03, 6.71904953e-03, -4.78851749e-03, 4.03161906e-02,
       -3.96034159e-02, 5.45036606e-03, -1.84666589e-02, -2.32347380e-02,
       1.93761177e-02, -1.86440733e-03, -3.14823032e-04, -1.34845870e-02,
       3.19638406e-03, -6.41918704e-02, -1.99688971e-02, 8.58913234e-04,
       8.55512545e-03, 1.96753163e-02, -1.60646596e-04, -7.97726866e-03,
       1.27810556e-02, 1.81297846e-02, -3.67689915e-02, 3.17219878e-03,
       -3.26166488e-02, -2.43755523e-02, 1.66637283e-02, 2.98193991e-02,
       -3.74920643e-03, -5.41332411e-03, -2.19003204e-02,
       -3.28243375e-02, 6.73496537e-03, 4.09525149e-02, 1.09375659e-02,
       1.66668929e-02, 3.73806991e-02, -1.40516367e-02, -2.97221038e-02,
       -3.48140858e-03, 2.60747410e-02, -2.81454576e-03, -3.75219770e-02,
       -1.10126957e-02, 1.41280480e-02, 2.79577263e-02, 3.48053523e-03,
       5.57803456e-03, 1.90554317e-02, -1.55366082e-02, 2.64232755e-02,
       -8.69221427e-03, 1.20352395e-02, 2.28517875e-03, -2.09318362e-02,
       2.25725188e-03, -1.83231197e-02, -3.33232768e-02, -4.15565679e-04,
       -2.72535942e-02, -3.06748319e-02, -2.53644884e-02, 6.08006539e-03,
       -1.26645090e-02, -9.02075134e-03, 1.07226893e-02, -2.19114423e-02,
       -1.88581236e-02, 2.60392576e-02, 1.53961265e-02, 2.11307965e-02,
       1.15108266e-02, 2.29420923e-02, -1.03057195e-02, -2.93124840e-02,
       -2.33594440e-02, 1.59968417e-02, 2.85942368e-02, -5.59395785e-03,
       -5.89793024e-04, 2.35079173e-02, -2.18989365e-02, -1.12526482e-02,
       -2.71131061e-02, -2.02044975e-02, -2.04696599e-02, 1.34217031e-02,
       -1.16081210e-02, -2.63982769e-02, 3.95931350e-03, 2.43509701e-03,
       -2.46043340e-03, 9.40691214e-03, -6.69594447e-04, 4.05556038e-02,
       2.89971586e-02, -5.72402321e-04, -2.26785094e-02, -8.17215256e-03,
       2.69218888e-02, 8.58713221e-03, 2.04445999e-02, 1.71171757e-03,
       1.21936770e-02, 2.63436185e-03, -3.14149000e-02, -1.20915826e-02,
       4.00853902e-03, -6.35536946e-03, -4.02655220e-03, -3.06043364e-02,
       -1.08108930e-02, 2.99867615e-02, 1.28822941e-02, -1.70807056e-02,
       -5.27988113e-02, -1.91690307e-02, 1.48072271e-02, 2.27008406e-02,
       5.73430117e-03, 1.86089240e-03, 2.32751481e-02, 6.77982857e-03,
       -1.19995633e-02, -7.26586790e-04, 1.07917460e-02, 7.85804726e-03,
       -2.08041724e-03, -2.65078410e-03, -1.43920705e-02, 4.60388176e-02,
       3.43896076e-02, -1.22566298e-02, 1.36279520e-02, 3.72931249e-02,
       -4.42432798e-03, 1.76486615e-02, -8.51659290e-03, -1.00442125e-02,
       1.23454845e-02, 3.36163901e-02, 4.50122589e-03, 3.79051715e-02,
       1.23544326e-02, -2.74034273e-02, -2.73298984e-03, 2.77402494e-02,
       1.20445434e-02, 2.31819171e-02, 3.37033975e-03, -2.64998544e-02,
       -9.88305919e-03, -2.20879931e-02, -5.95330484e-02,
       -1.66554898e-02, 2.33314838e-02, -3.42151560e-02, -6.19619293e-03,
       -4.50160913e-03, -3.83053720e-02, -7.86102656e-03,
       -1.56498756e-02, -2.47734715e-03, 3.47297154e-02, 5.27070789e-03,
       2.29467242e-03, -1.11482274e-02, -1.19838084e-03, 6.83621736e-03,
       4.41988558e-02, 1.06026586e-02, -2.62592193e-02, 3.09280455e-02,
       -1.27595877e-02, -7.36144744e-03, -1.91814005e-02,
       -3.80508006e-02, -3.60331051e-02, 1.92252751e-02, 1.42981466e-02,
       -2.05752384e-02, 4.56078649e-02, 3.64160202e-02, -2.06514001e-02,
       4.51429095e-03, 2.40849033e-02, -1.46820303e-02, 1.28685953e-02,
       1.02616185e-02, -3.17848623e-02, 1.05407368e-02, -4.13170606e-02,
       -2.21743211e-02, -3.95292882e-03, -1.01587679e-02,
       -2.71288045e-02, -2.54632416e-03, -1.89553145e-02, 1.26472060e-02,
       5.95886484e-02, 6.08594641e-02, 1.50356311e-02, -1.08450688e-02,
       -4.46063839e-03, -2.62263361e-02, 4.51905839e-02, 2.85072848e-02,
       -1.90880131e-02, 1.41538065e-02, 1.62683669e-02, -2.12672949e-02,
       -3.54736857e-02, -4.31002229e-02, -2.89925318e-02, 3.66340913e-02,
       -2.83475791e-04, 1.76528264e-02, 3.52168307e-02, -1.28965704e-02,
       1.14800455e-02, 5.00677824e-02, 2.62639183e-03, -1.42334010e-02,
       4.35281405e-03, 1.78595856e-02, -3.06671131e-02, -1.89682608e-03,
       -3.40192243e-02, -3.42027936e-03, -2.12462712e-02,
       -2.00808160e-02, -2.16147285e-02, -1.30665880e-02,
       -1.77103728e-02, 3.26557085e-02, 4.84245382e-02, 2.67361943e-02,
       -1.29106306e-02, -2.49569155e-02, -1.49420705e-02, 4.22772579e-03,
       3.97929475e-02, -4.99793654e-03, -5.96966362e-03, 2.02229228e-02,
       -1.63540579e-02, -1.05802640e-02, -3.50225046e-02,
       -4.39097732e-02, 7.90911075e-03, 1.07733393e-02, -8.46268609e-03,
       -2.04912722e-02, 1.98649447e-02, -1.31362313e-02, 2.90152207e-02,
       2.18475554e-02, 1.18497219e-02, -2.23068353e-02, 2.98174308e-03,
       -2.19390402e-03, -2.49344930e-02, 1.52501771e-02, -1.19967824e-02,
       1.58780422e-02, 3.33874337e-02, -2.63218768e-02, -4.30865064e-02,
       2.60257088e-02, 1.50017748e-02, 1.58974137e-02, 7.64973685e-02,
       1.45786125e-02, 5.88324107e-03, -4.33139125e-04, -4.06846497e-03,
       -4.41628089e-03, 9.67293419e-03, -2.84805219e-03, 7.66083552e-03,
       4.97763529e-02, -2.38623787e-02, -1.99121255e-02, 2.14522537e-02,
       -2.59017181e-02, -1.50778505e-03, -2.31088027e-02,
       -1.19182626e-02, -1.38687110e-02, 8.10317509e-03, -1.36691201e-02,
       -2.11459622e-02, 2.14261655e-02, -1.87199805e-02, -2.20209938e-02,
       2.74308641e-02, 3.22943889e-02, -3.55628468e-02, 3.83423455e-03,
       -2.94570122e-02, -1.95243536e-03, -1.67590026e-02,
       -2.74763312e-02, -2.19371375e-02, 1.80333294e-02, 7.12255761e-03,
       3.31736133e-02, 7.40281716e-02, 9.53748357e-03, -8.71628802e-03,
       1.68222468e-02, -8.56009033e-03, -8.01531831e-04, -8.18895735e-03,
       7.08961114e-03, -5.37080830e-03, 5.28542660e-02, -1.36735933e-02,
       -1.04992548e-02, -3.71184126e-02, 1.28287065e-03, -1.29386643e-02,
       -7.19884271e-03, -9.46718617e-04, -1.16914213e-02, 6.70875749e-03,
       -3.83819230e-02, 1.44778118e-02, -1.18569541e-03, 2.03692005e-03,
       -3.96115519e-02, 1.99083844e-03, 1.68883242e-02, 1.74284950e-02,
       -1.44809214e-02, -3.39710265e-02, 4.33752593e-03, 1.82279181e-02,
       -1.81491040e-02, -5.08758686e-02, -3.17527764e-02, 6.70298841e-03,
       -1.24825118e-02, 1.29312342e-02, -3.91345471e-02, 1.95505023e-02,
       -7.68132228e-03, 5.21563999e-02, 5.49314078e-03, 1.49415145e-02,
       -4.06808965e-02, 9.81456600e-03, 2.16896217e-02, -2.29574665e-02,
       1.73676796e-02, -5.18482225e-03, 6.92027342e-03, -7.29172165e-03,
       -1.62181966e-02, -3.04316711e-02, 3.32194082e-02, -3.79383238e-03,
       -1.79405510e-02, -1.66912265e-02, 1.24872448e-02, -2.33805533e-02,
       -1.10414838e-02, -9.71950218e-03, -8.06726608e-03, 1.77177731e-02,
       1.00150611e-02, -1.63202416e-02, -1.81271490e-02, -1.87292714e-02,
       -3.51820537e-03, -3.27539928e-02, -2.00592540e-02,
       -1.41180810e-02, 2.91500464e-02, 3.79678942e-02, -1.61258336e-02,
       5.02337643e-04, 9.40421410e-03, -1.32456040e-02, 1.23232743e-02,
       -1.09588932e-02, -3.83107029e-02, 2.44444283e-03, 2.83100409e-03,
       -2.05101464e-02, 6.21129759e-03, -1.72651913e-02, -1.35262804e-02,
       -2.87896357e-02, -1.07034976e-02, -4.07191226e-03, 8.70996621e-03,
       2.98255682e-02, -9.00472421e-03, -2.39325818e-02, -7.20931543e-03,
       1.18436972e-02, -1.61471348e-02, 1.09246112e-02, 8.77842493e-03,
       -4.48903888e-02, -2.31757015e-02, -2.27668528e-02, 2.46198252e-02,
       -1.87473167e-02, -2.01446228e-02, -5.43857627e-02,
       -1.41700394e-02, 3.99615988e-03, 9.10074916e-04, 6.03414746e-03,
       -8.72455351e-03, -2.15983018e-03, 2.14260425e-02, 1.91220809e-02,
       2.55236942e-02, 1.93602666e-02, -1.69456389e-03, -1.18660647e-02,
       -1.51169039e-02, -1.50139667e-02, 3.95452455e-02, 2.76657864e-02,
       3.05078682e-02, -2.33273320e-02, -5.27861156e-03, -2.61403644e-03,
       -1.46384677e-02, 1.06034325e-02, -1.45439813e-02, 2.24291049e-02,
       1.49915116e-02, -1.37447417e-02, -4.36876006e-02, 3.18483007e-03,
       3.89396027e-02, -1.80017091e-02, 3.28325182e-02, 8.17187689e-03,
       -1.35301827e-02, -6.10031858e-02, -4.99683321e-02,
       -9.29399207e-03, 1.54773053e-02, -2.15239208e-02, -3.61490482e-03,
       9.43948515e-03, 1.23243509e-02, 2.06032302e-02, 1.41293649e-02,
       3.11735384e-02, -3.37974764e-02, -3.93370446e-03, 1.91172883e-02,
       2.22700331e-02, 2.05675066e-02, 2.34153289e-02, 3.25712468e-03,
       -2.08973978e-02, -1.77410664e-03, 3.82676627e-03, 1.42700020e-02,
       -1.05124824e-02, -2.78861579e-02, 1.30147403e-02, 1.38479760e-02,
       -1.50773535e-02, -4.40796129e-02, -1.15541974e-02, 1.31422747e-02,
       4.24231999e-02, -1.94131099e-02, -3.84908840e-02, -2.78484710e-02,
       -1.23082371e-02, -2.60522887e-02, -3.12219970e-02,
       -2.33656522e-02, 5.72245161e-04, 3.15600610e-03, -3.25505659e-02,
       2.64656800e-03, 1.20798694e-02, 3.09555931e-03, 1.03901792e-02,
       6.57242760e-02, 4.98214290e-02, 2.36774497e-02, 4.24835607e-02,
       4.27755807e-03, -2.54451483e-02, -4.93616005e-03, 1.48942659e-03,
       -2.58815698e-02, -8.77744053e-03, 3.64839658e-02, 1.65590737e-02,
       4.04753909e-02, -3.66363898e-02, -2.49667186e-02, -4.25877981e-02,
       -1.64361671e-02, -1.13355797e-02, 1.64132714e-02, -1.26634091e-02,
       1.50053808e-02, -1.36921173e-02, -1.05357785e-02, -3.55392024e-02,
       -3.83060761e-02, -2.14191880e-02, -3.03420760e-02,
       -1.58632714e-02, -4.32369933e-02, -2.25351173e-02,
       -2.98216380e-02, 5.61903580e-04, -2.38225870e-02, -9.41487774e-03,
       2.87946872e-02, 2.28248946e-02, 2.88261697e-02, 1.72071122e-02,
       1.99457854e-02, 1.26446094e-02, -3.46840806e-02, -4.64498922e-02,
       -3.84204313e-02, 9.96956509e-03, -1.88850779e-02, 1.90939233e-02,
       -1.03415707e-02, 3.09337396e-03, 5.28194476e-03, -1.32726496e-02,
       -1.86325610e-02, -1.92375798e-02, -1.49074802e-02,
       -2.60680635e-02, -2.42415350e-02, -5.30946674e-03,
       -1.55095719e-02, -1.06901778e-02, -1.27585893e-02,
       -1.91000779e-03, -4.22679856e-02, -1.90071687e-02,
       -2.26778053e-02, -3.33337672e-02, -4.49673422e-02, 2.47388799e-03,
       1.08977389e-02, -9.69005574e-04, -5.14440658e-03, -1.11262994e-02,
       1.45494984e-03, -2.25818530e-02, -2.93760914e-02, -3.14309224e-02,
       -1.29697910e-02, 1.99995413e-02, 5.09672042e-04, -9.85267758e-03,
       -2.10390426e-02, 1.09116724e-02, 2.88676005e-02, -5.35104424e-03,
       9.95055540e-04, -1.45853159e-03, -3.52761485e-02, -4.11922894e-02,
       -2.53020264e-02, 2.19210461e-02, 9.74964164e-03, 2.03589015e-02,
       4.77166586e-02, -2.76107807e-02, -3.09484638e-02, -2.07092874e-02,
       -2.73793694e-02, 9.88695584e-03, 3.54319764e-03, -7.86285941e-03,
       2.47021411e-02, 1.78472921e-02, 2.67623141e-02, 3.45379533e-03,
       4.63541457e-03, 5.01883170e-03, 1.98077820e-02, 2.25170832e-02,
       -1.88216697e-02, 2.06554607e-02, 8.28655809e-03, -2.41180323e-02,
       -3.28002125e-02, 2.51720976e-02, 2.11290345e-02, 3.90567109e-02,
       1.44752581e-02, -1.82664171e-02, 1.15684671e-02, -4.00858000e-02,
       1.35582434e-02, -2.47835275e-02, 3.19219846e-03, 5.27064316e-02,
       -3.13794278e-02, -1.15748085e-02, -7.12053734e-04, 7.65896821e-03,
       -1.68603344e-03, -2.48500798e-02, -4.15530615e-02,
       -4.11625542e-02, -5.59645370e-02, 1.42806610e-02, 4.65038829e-02,
       5.60815297e-02, 6.10519238e-02, -1.99188143e-02, -5.95493615e-02,
       -3.17252278e-02, 9.97796934e-03, -3.77211422e-02, -2.47534662e-02,
       3.91781051e-03, 2.50117891e-02, 3.08114011e-02, 4.27435450e-02,
       1.43902842e-02, -3.34381163e-02, -3.63710411e-02, -5.11301085e-02,
       3.81082371e-02, 7.91134611e-02, 7.88889453e-02, 8.84421244e-02,
       -2.05226671e-02, 2.52656508e-02, 1.94571950e-02, 3.17101106e-02,
       -3.91602051e-03, 1.56590547e-02, -4.86285985e-03, 1.67522188e-02,
       -1.01875346e-02, -4.32090424e-02, -2.77026948e-02,
       -1.49477413e-02, 4.07223515e-02, 3.72591205e-02, -1.69675667e-02,
       1.37499636e-02, 5.19592650e-02, -2.43681595e-02, -3.76306996e-02,
       -3.65160517e-02, -2.34451592e-02, 1.08658625e-02, -2.60489825e-02,
       4.35957573e-02, 6.71728924e-02, 3.09127830e-02, 4.00591120e-02,
       3.13234958e-03, -1.07401218e-02, 2.39019189e-02, 6.26249611e-02,
       4.91641946e-02, -6.96614757e-03, 4.90456633e-02, 3.12664323e-02,
       2.75851637e-02, 2.74677556e-02, -2.20806971e-02, 3.12337410e-02,
       6.39844984e-02, -2.15870533e-02, 2.89284345e-02, 1.09250881e-01,
       1.01253822e-01, 2.85149515e-02, -1.01565802e-02, -1.90627035e-02,
       3.20710498e-03, 2.71223150e-02, -9.39853955e-03, -3.70536465e-03,
       8.96840841e-02, -8.73441529e-03, -2.82353610e-02, -3.91016379e-02,
       -9.05669481e-02, -7.74509832e-02, -1.38294995e-02,
       -8.37701187e-03, -1.50066465e-02, 1.10689804e-01, 1.02401070e-01,
       3.85086834e-02, 3.40751894e-02, 1.16423303e-02, 3.85568924e-02,
       5.08515425e-02, -3.24112326e-02, -2.37212665e-02, 6.69704527e-02,
       2.01260820e-02, -1.67957805e-02, 1.53834829e-02, -6.09591827e-02,
       -4.18366306e-02, -3.89621146e-02, -6.42021298e-02, 1.15729764e-03,
       8.41090977e-02, 4.00213897e-02, 3.06876637e-02, -1.90610439e-02,
       -2.08887104e-02, 6.17738534e-03, 5.30570820e-02, 2.75933789e-03,
       -1.98156778e-02, 1.73608251e-02, 2.59801336e-02, -3.15894075e-02,
       -2.99855471e-02, -5.58004156e-02, 8.77321046e-03, 1.47854248e-02,
       -2.90646963e-02, 8.24983697e-03, 1.08287893e-01, 4.57088128e-02,
       -6.80271816e-03, -2.94490159e-02, 1.84064324e-04, 1.75739955e-02,
       6.27726596e-03, -2.36288458e-02, -2.51147076e-02, 1.23828650e-02,
       -2.00435170e-03, -5.32162488e-02, -5.36661670e-02,
       -5.07343896e-02, -4.32932675e-02, -5.82880713e-03, 1.20587868e-03,
       2.18802877e-02, 3.23418975e-02, 2.88118459e-02, -3.13641503e-02,
       -5.83496243e-02, -3.10475342e-02, 3.02770697e-02, 5.50621636e-02,
       3.22730318e-02, 1.84650831e-02, 3.78699750e-02, 1.60823222e-02,
       -2.31367741e-02, -3.11789643e-02, -2.77690049e-02,
       -1.00568272e-02, 2.97822133e-02, 1.21743986e-02, -1.32908681e-02,
       3.49594764e-02, -1.89070962e-02, -1.95183437e-02, -4.89776358e-02,
       -3.74267809e-02, -1.39087886e-02, 3.77854072e-02, 7.31883431e-03,
       2.17609480e-03, 7.84461293e-03, -2.08244752e-02, -2.64651719e-02,
       -3.65907066e-02, -4.06571664e-02, -2.05345713e-02, 2.33210139e-02,
       -9.23189986e-03, 1.85339563e-02, 7.07138255e-02, 2.66403891e-02,
       4.65555303e-03, -8.16631131e-03, -4.77594062e-04, 1.48191606e-03,
       1.78837944e-02, 2.74423510e-02, 7.74849718e-03, 2.83202138e-02,
       -2.30023526e-02, -2.87775751e-02, 2.81505603e-02, -1.59351900e-02,
       1.37223313e-02, -1.54547635e-02, -1.39642954e-02, 1.94645431e-02,
       3.88661586e-02, 8.66320729e-03, -1.38182025e-02, -4.54987660e-02,
       -9.01290157e-04, 7.64016854e-03, 3.83669138e-02, -4.37256834e-03,
       -5.66567713e-03, 2.61531565e-02, -1.39076840e-02, -2.41044853e-02,
       -8.48680735e-03, -2.39414312e-02, -8.01423937e-03, 6.08392851e-03,
       -9.25858039e-03, 6.17292896e-02, 5.21699749e-02, 4.86197229e-03,
       -2.91360449e-02, -3.68043757e-03, -4.82667703e-03, 5.97751373e-03,
       -1.23212188e-02, 2.58910321e-02, 2.17494275e-02, 4.65311445e-02,
       -2.70204898e-02, -5.86860701e-02, -5.30418940e-02, 1.15322890e-02,
       -7.80602684e-03, -4.15234873e-03, 1.90882869e-02, 2.68717073e-02,
       6.26298189e-02, 2.87614553e-03, -2.07526106e-02, -2.84500942e-02,
       -4.84201079e-03, -5.98517759e-03, 2.86450796e-02, 8.72544292e-03,
       -3.02254427e-02, 1.68192387e-02, -1.51342265e-02, -4.25441898e-02,
       -1.34375477e-02, -1.94166880e-02, -2.70328112e-02, 1.11968070e-02,
       -3.86547707e-02, 4.03232947e-02, 4.38532494e-02, -5.36845960e-02,
       -3.33874747e-02, -6.10421970e-03, 3.68051976e-02, 8.29821359e-03,
       3.68261896e-02, 2.50961483e-02, 2.63000894e-02, 4.16900478e-02,
       -5.38220257e-02, -3.22452858e-02, 1.60193292e-03, -1.49765415e-02,
       -3.21662449e-03, -1.35543495e-02, -8.40833876e-03,
       -9.65474918e-03, 3.43708284e-02, -4.16190363e-02, -5.30975796e-02,
       -5.46400137e-02, -2.23090127e-02, 1.67515855e-02, 5.20085767e-02,
       -2.53619812e-02, -2.32846290e-02, 2.03123335e-02, -5.17965853e-02,
       -4.98351902e-02, -3.75347249e-02, -1.98392365e-02,
       -1.60829313e-02, 2.34892629e-02, -1.86941437e-02, 5.19191958e-02,
       4.29738835e-02, -1.69129092e-02, -1.28324656e-02, 1.69409011e-02,
       -1.94681119e-02, -9.37590376e-03, 1.31995706e-02, 1.02539072e-02,
       4.48201001e-02, -1.45231830e-02, -3.22040431e-02, -2.01207995e-02,
       -1.10954279e-02, -3.78488153e-02, -5.05980067e-02,
       -6.92227017e-03, 3.23321000e-02, 2.86290012e-02, 5.24085723e-02,
       -3.16241314e-03, -4.38329838e-02, -2.30430346e-02,
       -2.41806228e-02, -8.92414805e-03, 4.50631492e-02, -3.74026480e-03,
       2.40411982e-02, -1.36171095e-02, 4.01286269e-03, -4.93466705e-02,
       -6.85275123e-02, -7.12648332e-02, -6.62834719e-02, 6.67631812e-03,
       2.01893169e-02, 3.18201929e-02, 1.06458301e-02, -4.69348840e-02,
       -2.80265231e-02, -9.77842137e-03, 2.41125422e-03, -7.41735986e-03,
       3.52546126e-02, 1.32290684e-02, 2.15856228e-02, 1.64900851e-02,
       -2.52698977e-02, -7.80964969e-03, -2.48553306e-02, 1.26342196e-02,
       -2.12050695e-02, 2.75879297e-02, 2.40839254e-02, 2.06254274e-02,
       6.69389069e-02, 5.41237555e-03, -2.24822238e-02, -2.48222947e-02,
       -1.77464932e-02, -1.07223270e-02, 3.00171133e-02, 3.98233384e-02,
       2.38746516e-02, 7.39856511e-02, -3.38303600e-03, -1.79047342e-02,
       -4.03880887e-02, -3.76399793e-03, 7.20982207e-03, 1.55995302e-02,
       3.11599448e-02, -8.61747772e-04, -6.97055599e-03, -4.54088766e-03,
       6.79584162e-04, -1.76585577e-02, 8.93329084e-03, -4.81908619e-02,
       -7.70452013e-03, -4.84153209e-03, 2.79719457e-02, 3.54063814e-03,
       4.67468891e-03, -7.08736666e-03, -2.62019131e-03, -3.21840607e-02,
       -3.26929167e-02, 6.49923552e-03, -3.01244040e-03, 2.79075764e-02,
       5.03422916e-02, -5.49656048e-04, -3.30995023e-02, -3.19193527e-02,
       -2.03942023e-02, -2.26857532e-02, -1.84395758e-03, 3.71077135e-02,
       2.85154562e-02, 5.76898865e-02, 6.80627376e-02, 2.60476023e-02,
       -7.37501448e-03, -4.31963764e-02, -1.39216669e-02, 2.85362024e-02,
       8.46983567e-02, 3.77329765e-03, 2.60208244e-03, -2.45395470e-02,
       -3.21679749e-02, 1.08813131e-02, -1.95778050e-02, -3.82904969e-02,
       -4.56036208e-03, 2.63990881e-03, -5.19683845e-02, -3.44778337e-02,
       -1.88444182e-02, -2.27902438e-02, 1.03460588e-02, -2.15200474e-03,
       1.28952339e-02, -7.57794827e-03, -4.04043533e-02, 1.63874850e-02,
       3.51120643e-02, 6.80346116e-02, 3.05675790e-02, 9.15493071e-03,
       -2.85637081e-02, -3.44014466e-02, -8.83867673e-04, 9.49944928e-03,
       -2.00118367e-02, 1.31547665e-02, 2.63672061e-02, 1.46852648e-02,
       2.88099367e-02, 1.88322589e-02, 1.74292773e-02, 2.45873593e-02,
       -2.57296208e-02, -3.14584747e-02, -1.20251831e-02, 1.08077023e-02,
       4.28266786e-02, 1.03642168e-02, -4.56395064e-04, 2.27689799e-02,
       -2.01751683e-02, -1.55657120e-02, -5.71291149e-02,
       -5.55311218e-02, -3.12470105e-02, -6.10580528e-03, 1.43896118e-02,
       7.91211799e-03, -2.56040692e-02, -5.06675690e-02, -3.96645889e-02,
       2.03532167e-02, 3.31035592e-02, 1.49523169e-02, 2.93975957e-02,
       4.71574888e-02, 3.69091779e-02, 4.14838344e-02, 4.75979596e-02,
       3.32376212e-02, -3.01213562e-02, -4.85286079e-02, -3.43074575e-02,
       1.72059499e-02, 2.06652214e-03, 2.21721362e-02, 4.87588858e-03,
       -1.52223539e-02, -2.58329567e-02, 1.89008005e-03, 1.31363822e-02,
       1.31691061e-02, 1.04444176e-02, -2.79043857e-02, -1.41709046e-02,
       -7.93971960e-03, 1.36076827e-02, 1.61939170e-02, -3.60048674e-02,
       -2.11257674e-02, 1.60784088e-02, 1.23920729e-02, -3.55909094e-02,
       3.49463453e-03, 8.20711534e-03, -4.61129770e-02, -5.24039567e-02,
       -2.99630947e-02, -9.49146971e-03, -2.29679849e-02, 1.52187943e-02,
       -5.09037711e-02, 2.05869190e-02, 1.52971717e-02, 1.27156349e-02,
       1.91924314e-03, -4.21554111e-02, -4.93939519e-02, -1.14866048e-02,
       -1.61187490e-03, -3.74713801e-02, 1.29603837e-02, -1.48581965e-02,
       -1.02962572e-02, -3.56394835e-02, 3.42814513e-02, -8.42154119e-03,
       -5.44887632e-02, -1.62810329e-02, 1.18101686e-02, -1.05433175e-02,
       -4.92325611e-02, 7.46411318e-03, 5.18054292e-02, 9.02993511e-03,
       4.75514354e-03, -1.67983379e-02, 2.37415228e-02, 2.31823735e-02,
       4.10531349e-02, -2.46662404e-02, -1.43899545e-02, 1.83219742e-02,
       5.23889065e-02, 4.36815107e-03, -5.24036810e-02, -4.98860478e-02,
       -1.09423406e-03, -4.24243836e-03, -1.86327435e-02, 1.19202686e-02,
       3.85380685e-02, 2.18632463e-02, -1.04177659e-02, -1.26825115e-02,
       7.96731969e-04, 1.77625362e-02, 2.02866532e-02, -1.84796099e-02,
       1.26445470e-02, 9.09702573e-03, -5.50081544e-02, -2.35530604e-02,
       6.85321447e-03, 1.97899397e-02, 6.73511177e-02, 3.05894241e-02,
       -1.20699555e-02, -3.16831842e-02, -4.77049574e-02,
       -7.55191082e-03, 6.25730827e-02, 5.83076105e-02, 5.88867590e-02,
       -8.15633778e-03, 5.28011732e-02, 4.50950600e-02, 4.27910611e-02,
       9.16155614e-03, -5.65635897e-02, -5.30066565e-02, -8.16491526e-03,
       1.87839828e-02, 5.46186790e-02, -4.28387400e-04, -2.95227841e-02,
       -2.68236566e-02, -4.22113650e-02, -4.00490034e-03, 5.99229475e-03,
       2.09318828e-02, 2.84218304e-02, -3.86743583e-02, 4.26623635e-02,
       2.73745805e-02, 5.25507666e-02, 3.56312678e-03, 3.55993509e-02,
       7.49943182e-02, 2.91464385e-02, 6.86241081e-03, -2.03212854e-02,
       8.50326847e-03, 4.52051684e-02, 7.43470713e-02, 2.95917485e-02,
       -2.92916670e-02, 5.04277647e-02, 8.97546113e-03, -2.50817323e-03,
       7.15216808e-03, -3.62307802e-02, 1.94959193e-02, 3.64810638e-02,
       -4.87131700e-02, 2.75494400e-02, 5.53615168e-02, 3.34335230e-02,
       -1.91021208e-02, -1.69188548e-02, 7.47339381e-03, 3.08371633e-02,
       8.61489028e-02, 4.88267653e-02, -4.71808836e-02, 2.88843792e-02,
       1.74265727e-02, -3.30971368e-02, -1.50036244e-02, -6.18636655e-03,
       1.89741328e-02, 2.66873799e-02, -4.48909067e-02, -4.89778854e-02,
       6.33255020e-02, 6.46946728e-02, 5.11131696e-02, 5.52832931e-02,
       5.31653911e-02, 5.17123267e-02, 4.58712354e-02, -5.22004440e-02,
       -7.10103363e-02, 1.30483489e-02, 1.69877782e-02, 1.33858027e-03,
       3.73225212e-02, -1.64459273e-02, 4.77917586e-03, -2.59299222e-02,
       -8.33202749e-02, -5.21239527e-02, 3.87370065e-02, 5.42407259e-02,
       4.12255526e-02, 3.18855532e-02, 7.22648725e-02, 6.60732985e-02,
       5.85430302e-02, -6.80665299e-02, -6.85347840e-02, -4.88893315e-02,
       -2.24895272e-02, -4.12773937e-02, 4.82566580e-02, -8.76632426e-03,
       8.91236530e-04, -1.96154751e-02, -5.90209067e-02, -3.02425083e-02,
       4.31894697e-02, 1.14914412e-02, -1.99320889e-03, -4.60013933e-02,
       3.51107772e-03, 2.95041520e-02, 9.68672708e-03, -3.32871564e-02,
       -3.62381227e-02, -2.03625280e-02, -3.22072208e-02,
       -4.31595370e-02, -5.57137765e-02, -4.59016208e-03,
       -3.06637902e-02, -3.00097745e-02, -2.03658026e-02,
       -3.66996378e-02, 4.97354427e-03, 2.55855196e-03, -5.66840405e-03,
       -4.28717844e-02, -2.44906135e-02, 1.66500844e-02, 5.00958692e-03,
       -2.20134575e-02, -4.46082130e-02, -1.96678508e-02,
       -4.01169322e-02, -3.53028476e-02, -7.08011761e-02,
       -4.72193323e-02, -3.89572643e-02, -4.03634124e-02,
       -4.93253320e-02, -1.57888066e-02, -2.54446026e-02,
       -1.76148955e-02, 6.11351803e-03, 2.11464129e-02, 2.60778908e-02,
       1.15112134e-03, 1.29932929e-02, -1.18785705e-02, -5.63203916e-02,
       -3.98997515e-02, -5.20640053e-02, -4.08521518e-02,
       -9.58200451e-03, -1.72172859e-02, -1.36620561e-02,
       -5.09714824e-04, -5.75474724e-02, -1.75696798e-02, 7.50042778e-03,
       3.03527270e-03, -7.56503269e-03, 8.19204748e-03, 1.27612827e-02,
       -1.06845964e-02, -1.75129175e-02, -2.52781771e-02,
       -6.53574988e-02, 7.10530067e-03, -4.06241184e-03, -1.47856902e-02,
       -3.33656333e-02, -5.33462204e-02, -4.78588901e-02,
       -4.96322326e-02, -4.45398875e-02, -3.04276850e-02,
       -9.10329539e-03, -2.95314062e-02, 3.39824450e-03, -1.42295267e-02,
       1.58263352e-02, 1.10860392e-02, 4.82644374e-03, -4.62367870e-02,
       -5.82684763e-02, -3.70853581e-02, -3.97240371e-02, 1.30175976e-02,
       1.80389397e-04, 1.79982223e-02, -7.23409653e-03, 3.99674056e-04,
       -4.58541512e-02, -3.35769467e-02, -1.21606858e-02, 4.77786735e-03,
       1.17584430e-02, -2.35101860e-02, 3.93209979e-03, -7.41793308e-03,
       -3.52341984e-03, -2.60145869e-02, -4.34149764e-02, 7.60080991e-03,
       -9.47389752e-03, -1.41048124e-02, 4.97095380e-03, -4.13899170e-03,
       -2.92102974e-02, -1.69932935e-02, -3.24681252e-02,
       -5.31299300e-02, -2.61180252e-02, -5.17901918e-03, 1.75714735e-02,
       1.55500835e-02, 3.93615887e-02, 5.83347341e-04, 9.59229469e-03,
       -1.50053380e-02, -4.28037196e-02, -3.14656533e-02,
       -1.81038436e-02, 1.25862127e-02, 4.54302020e-02, -2.46612518e-03,
       -6.47702813e-03, 4.09983145e-03, -5.21962196e-02, -2.46463772e-02,
       1.74108911e-02, -1.61323473e-02, 1.87704619e-02, 3.00464723e-02,
       2.05309521e-02, 1.60690094e-03, -2.55178120e-02, -3.20396610e-02,
       -6.03985749e-02, -2.49343254e-02, -6.04417687e-03,
       -1.49044849e-03, 2.20732186e-02, -2.11903919e-03, -4.98897508e-02,
       -5.31744100e-02, -4.27490212e-02, -1.67036243e-02, 4.33965400e-02,
       4.93769348e-03, -3.16906907e-02, 2.74580773e-02, -3.74717899e-02,
       -1.72182359e-02, 5.68040796e-02, -2.51811347e-04, -5.04384562e-02,
       3.11030261e-02, -4.23294958e-03, -7.68015999e-03, 3.25412527e-02,
       8.24801740e-04, -1.77974142e-02, 2.86329184e-02, -1.95953101e-02,
       -7.74675235e-03, 2.36625560e-02, -1.26540754e-02, -5.03765084e-02,
       -1.90393589e-02, -7.16879740e-02, -3.23715732e-02, 2.57601961e-02,
       -5.19422516e-02, -2.83975266e-02, -3.19311651e-03,
       -3.30701880e-02, -3.70057300e-02, -6.55897614e-03,
       -6.15436435e-02, -2.86404248e-02, 1.28378263e-02, -4.29727100e-02,
       -1.06749563e-02, 5.81836812e-02, 1.47185009e-02, 1.36076007e-03,
       2.15604454e-02, 1.22582735e-02, 8.02699476e-03, 7.75404572e-02,
       7.19803059e-03, -2.20306199e-02, 2.84621492e-02, 2.61054207e-02,
       -5.64479567e-02, -4.30076793e-02, -5.73749393e-02,
       -1.29591571e-02, 6.68843687e-02, 7.78821623e-03, -1.09329715e-03,
       7.85828829e-02, -4.81805485e-03, -1.11383218e-02, -1.23253213e-02,
       -1.90841202e-02, 1.56400483e-02, 3.38034034e-02, 7.52902869e-03,
       -1.62753537e-02, 5.71568757e-02, 1.72897149e-03, -3.98235135e-02,
       -6.80760518e-02, -4.77654636e-02, 2.07349341e-02, 6.30613067e-04,
       1.03129039e-03, 3.98673862e-02, 8.96002203e-02, 2.16461085e-02,
       -2.63910536e-02, -1.42289400e-02, -2.94404980e-02,
       -2.31560133e-02, 6.40843287e-02, 2.99707409e-02, 2.54172329e-02,
       4.46621068e-02, -3.41181606e-02, -3.71235348e-02, -3.26351263e-02,
       -3.15336771e-02, -1.47420643e-02, 2.82322988e-02, 2.13159341e-02,
       1.39491714e-03, 5.27395010e-02, -4.75099171e-03, -1.10427095e-02,
       -2.98868380e-02, -4.48011421e-02, -1.21319462e-02, 5.61026745e-02,
       3.35606001e-02, 2.32445356e-03, 1.02117732e-02, -2.86012348e-02,
       -3.15703042e-02, -4.17790711e-02, -4.98983823e-02,
       -2.74651572e-02, 4.93784733e-02, 1.52320853e-02, 1.82422120e-02,
       2.82472298e-02, -1.81991756e-02, -4.49686386e-02, -2.95728035e-02,
       -6.56620637e-02, -4.80753034e-02, 4.29127458e-03, 1.40511226e-02,
       1.43849710e-02, 5.37506565e-02, 3.57731916e-02, 8.90227617e-04,
       -3.85976322e-02, -3.77130136e-02, 5.18991658e-03, 5.00319824e-02,
       4.36628349e-02, 3.14259604e-02, -5.25645353e-03, -4.70333695e-02,
       -4.48127352e-02, -4.31690142e-02, -6.19529560e-02,
       -1.53541388e-02, 3.35654207e-02, 1.58785805e-02, 4.30322774e-02,
       2.62573045e-02, 5.53595228e-03, -1.43715115e-02, -1.83776096e-02,
       9.87746008e-03, 5.69808111e-02, 4.08518761e-02, 2.57164575e-02,
       -3.85114551e-02, 5.12576569e-03, 3.26187238e-02, 1.59998406e-02,
       1.82847411e-03, 6.78908487e-04, -2.24645212e-02, 4.64431010e-03,
       -2.13064756e-02, -6.29115701e-02, 2.76190229e-02, 1.10086687e-02,
       1.20428950e-02, 3.79050002e-02, 1.11702289e-02, -4.50593326e-03,
       2.52681002e-02, -4.95763384e-02, -6.21958589e-03, -1.44610170e-03,
       -2.60148644e-02, -1.24000674e-02, 2.05181842e-03, 4.56477962e-02,
       4.77487370e-02, -6.01174822e-03, -3.04546747e-02, -1.36629380e-02,
       3.02808303e-02, 1.65593289e-02, 1.68844741e-02, 2.47293841e-02,
       2.71826647e-02, -2.77002109e-03, 2.46425457e-02, -3.23341377e-02,
       -2.60053519e-02, 4.10054624e-02, 1.16065638e-02, 4.80608866e-02,
       5.76568954e-02, 4.21236083e-02, 8.27250723e-03, 4.21870016e-02,
       -4.49315319e-03, -7.19722360e-02, -7.15078264e-02,
       -6.20410852e-02, 6.55717961e-03, 2.34969682e-03, 1.76147316e-02,
       -4.22353446e-02, -2.99097784e-02, -6.37956634e-02,
       -8.63538217e-03, 4.80780043e-02, 2.63147000e-02, 5.50185591e-02,
       7.27786869e-02, 6.21481985e-02, 3.44908587e-03, 6.50667846e-02,
       6.62823394e-03, -4.60383520e-02, -2.77446117e-02, -5.48975542e-02,
       2.33275462e-02, 9.79248807e-03, -4.69123153e-03, -5.53783104e-02,
       -4.94362861e-02, -5.51753603e-02, -1.22374948e-02,
       -7.69588025e-03, -1.22703072e-02, 4.51116785e-02, -6.28463458e-05,
       5.27574830e-02, 1.55988522e-02, 1.60433706e-02, 1.04714395e-03,
       6.67322660e-03, -2.99143195e-02, -2.63202898e-02, 4.14109230e-03,
       -1.93514582e-02, 1.62759554e-02, -2.44178753e-02, -1.32185575e-02,
       -9.52855963e-03, -1.87397713e-03, 3.78482901e-02, 9.39947437e-04,
       6.62920848e-02, 6.14603935e-03, 2.91413944e-02, 1.90837844e-03,
       -8.36742204e-03, -1.36964228e-02, -1.14994422e-02, 2.35970449e-02,
       -1.07700620e-02, 2.76793838e-02, -3.11936382e-02, -1.32451355e-02,
       -4.54083905e-02, -5.07114418e-02, 8.70868377e-03, 4.57587615e-02,
       1.21164816e-02, -1.77255869e-02, -2.77662408e-02, 2.68282834e-02,
       2.82546263e-02, 3.46063124e-03, 9.80889983e-03, 1.33519350e-02,
       3.14247645e-02, -2.79935915e-02, -2.02000272e-02, 4.99841105e-03,
       1.44658573e-02, 2.89824586e-02, -3.73087358e-03, 9.75618046e-03,
       3.86493094e-02, -1.42137697e-02, -1.87288728e-02, 2.94379657e-03,
       -1.48182074e-02, 2.22586356e-02, 3.77360987e-03, -2.18322556e-02,
       2.06167554e-03, -9.90858953e-03, -1.89966953e-03, -1.46395303e-02,
       -1.18213091e-02, 1.42744966e-02, -9.59709566e-03, 2.04503350e-02,
       9.68892127e-03, -6.58065453e-03, 1.83517905e-03, -3.94630134e-02,
       -5.24484366e-02, -8.76781996e-03, 8.46540928e-03, 6.47935867e-02,
       6.44649342e-02, 2.47464795e-02, 1.27619477e-02, 1.13091012e-02,
       -4.41802340e-03, 1.81655493e-02, 3.79400887e-02, 2.60294639e-02,
       1.91407511e-03, 1.06818952e-01, 1.00385241e-01, 6.84330910e-02,
       4.38788980e-02, -5.00822514e-02, -4.34262902e-02, -3.71219255e-02,
       -1.32717472e-02, 8.78993887e-03, 3.29356194e-02, 4.69522327e-02,
       9.54786502e-03, -1.07573848e-02, -3.34295221e-02, -1.10794296e-02,
       -3.96282263e-02, -4.66497242e-02, -4.03529666e-02, 7.44665116e-02,
       7.16606751e-02, 3.76077294e-02, 9.33840871e-03, 5.98864928e-02,
       3.21461298e-02, 8.85982160e-03, -2.88824849e-02, 1.18727749e-02,
       5.14781922e-02, 4.32688668e-02, 5.14541939e-02, 4.10065651e-02,
       2.06640572e-03, 6.84586465e-02, 3.13170291e-02, 1.86943926e-03,
       1.00790104e-02, 4.69453670e-02, 6.37936667e-02, 3.89821492e-02,
       -1.27343312e-02, 3.05299833e-02, 1.48314321e-02, -3.59734260e-02,
       -3.43643650e-02, -9.52766277e-03, -1.69902518e-02, 2.02449597e-02,
       -1.96608175e-02, 1.96835455e-02, -3.20170373e-02, 1.49739021e-02,
       -3.05061024e-02, -1.19242622e-02, -1.86438300e-02,
       -3.54014225e-02, 7.64186867e-03, -8.30960460e-03, -4.15164456e-02,
       -1.41630070e-02, 5.48085198e-02, 2.16598883e-02, 2.65977215e-02,
       9.64253582e-03, 6.69067800e-02, 1.03476755e-01, 9.27549228e-02,
       -3.21604051e-02, -4.84879017e-02, -3.97388898e-02,
       -6.50421977e-02, -6.10568412e-02, -1.55168874e-02,
       -8.83435179e-03, 2.88389176e-02, 6.25577196e-02, -1.76392701e-02,
       9.79704130e-03, 2.44483426e-02, -1.21116915e-04, -9.34153888e-03,
       -6.60715392e-03, 1.95314102e-02, 8.85911360e-02, 1.05593301e-01,
       1.72281452e-02, -3.44402418e-02, -3.51063907e-02, -1.10960379e-01,
       -1.03162952e-01, -5.67231700e-03, -6.98466003e-02,
       -6.06955448e-03, 8.67251158e-02, -2.59065330e-02, 1.30146146e-02,
       1.44260488e-02, 1.38864936e-02, -5.30077843e-03, -2.62194052e-02,
       -9.47843771e-03, 5.09471968e-02, 8.87102336e-02, 3.17962579e-02,
       1.67390797e-02, 4.75368695e-03, -1.61475446e-02, -3.52067649e-02,
       -6.40970096e-02, -7.18644932e-02, -1.41603472e-02, 1.76094808e-02,
       -5.39037632e-03, -3.18885222e-03, 4.61246036e-02, -1.42805383e-03,
       -2.85520274e-02, 1.15102660e-02, 1.63027775e-02, 5.75009175e-02,
       7.61333480e-02, 1.00284256e-02, -9.59739555e-03, 2.97763254e-02,
       1.56618562e-02, -5.37866876e-02, -2.63398904e-02, -3.03166453e-02,
       4.44092229e-02, 1.48222949e-02, -9.32996999e-03, 2.22379025e-02,
       3.64724211e-02, -1.15580074e-02, -3.92075442e-02, -3.78608406e-02,
       -3.08590699e-02, -1.65579375e-02, 2.91981995e-02, 1.62921660e-02,
       -7.32366368e-03, 9.92705021e-03, -1.15522379e-02, -2.34033726e-02,
       -4.61019278e-02, -3.40169705e-02, -2.14600842e-02,
       -1.49080930e-02, 1.98008399e-02, 1.97982416e-02, 5.65607063e-02,
       3.07481922e-02, -1.36792688e-02, -4.04857174e-02, -3.69814262e-02,
       1.22910384e-02, 3.44885625e-02, 3.09738833e-02, 6.26673282e-04,
       2.75849942e-02, 5.50010591e-04, 1.69519661e-03, -1.66670345e-02,
       -8.67337640e-03, 5.32853510e-03, 4.58066389e-02, 3.69143933e-02,
       2.44159400e-02, 2.67082732e-02, 2.20073201e-02, 1.81346312e-02,
       -5.11556119e-02, -8.28154385e-03, 2.57573463e-02, 2.84230709e-02,
       2.88124923e-02, 8.19180347e-03, 2.09265705e-02, 7.42016174e-03,
       -2.75251083e-03, -7.89837167e-03, -2.41652299e-02, 1.47776050e-03,
       2.35169753e-02, 8.75559519e-04, 2.72377953e-02, 1.32954046e-02,
       1.07429605e-02, 5.23506291e-03, -1.99492127e-02, 1.49544254e-02,
       4.58483435e-02, 7.55501986e-02, 4.11271937e-02, -7.14653870e-04,
       -1.06491065e-02, 1.44133000e-02, 1.31126912e-02, 2.08858214e-03,
       -4.52183746e-02, -2.05644723e-02, 6.31450769e-03, 8.72724806e-04,
       -7.73262791e-03, 2.59805564e-02, -1.88876875e-04, 1.18018314e-02,
       -1.59818120e-02, -6.99397456e-03, -3.36939679e-03, 3.60141806e-02,
       4.04266007e-02, -3.70271392e-02, -4.17632051e-03, -2.78459582e-02,
       8.58595036e-03, -6.27829693e-03, -4.00065258e-02, -4.51642498e-02,
       1.19084737e-03, 1.59123912e-02, 2.38218158e-03, -3.24906409e-03,
       -1.67804882e-02, 1.57574750e-02, -6.29901979e-03, -1.10900551e-02,
       5.33329230e-03, 3.81154194e-02, 3.18956934e-02, -3.85993836e-03,
       -2.04240065e-02, -9.78519022e-03, 1.61544867e-02, -4.71820273e-02,
       -3.82161215e-02, -4.43346091e-02, 3.98365892e-02, 5.66210449e-02,
       2.10483372e-03, 1.25457039e-02, 6.01567421e-03, -3.65721388e-03,
       -3.25298607e-02, -7.85693079e-02, -5.92606924e-02, 2.29975525e-02,
       4.65249177e-03, 9.06333141e-03, 2.22133398e-02, -6.31090766e-03,
       -8.81337002e-03, -3.91371809e-02, -8.27187523e-02,
       -4.61182036e-02, 2.10136827e-02, 5.32571413e-03, 1.04430942e-02,
       -1.19931086e-04, 5.02605969e-03, 2.76205875e-02, 1.80452969e-02,
       -3.45226899e-02, -5.59895076e-02, 3.45035084e-02, 5.19050509e-02,
       4.49025026e-03, -2.48020086e-02, 1.41219958e-03, -2.80690263e-03,
       -7.89610203e-03, -4.38303575e-02, -4.08521295e-02, 3.52788940e-02,
       3.17327939e-02, 1.91387311e-02, 4.18998785e-02, -1.03514623e-02,
       -2.18048878e-02, -3.94833870e-02, -3.76431420e-02, 9.66218722e-05,
       3.20013426e-02, 2.95290835e-02, 1.17475130e-02, -1.73727907e-02,
       -4.98362482e-02, -4.65763398e-02, -5.57891130e-02,
       -3.73767614e-02, -3.11350473e-03, -5.58737665e-03, 5.95260412e-03,
       1.24664893e-02, -9.36558377e-03, 1.44654105e-03, -1.80091951e-02,
       -3.14192846e-02, -1.81316212e-02, -2.22280715e-02, 2.32359301e-02,
       4.48874198e-02, 9.92130395e-03, -3.79687510e-02, -5.42970859e-02,
       -3.87504771e-02, -6.70114160e-02, -2.44768504e-02,
       -1.98336188e-02, 1.24185756e-02, 3.79109196e-02, 1.89747158e-02,
       1.01628760e-02, -2.06540953e-02, 4.96889418e-03, -1.36085441e-02,
       -2.27271616e-02, -3.29253147e-03, 5.63053787e-02, 7.10151391e-03,
       4.94672470e-02, 4.79858145e-02, -1.16478754e-02, -1.99564006e-02,
       -1.76248141e-02, -2.37807222e-02, -1.70429889e-02, 5.32590188e-02,
       6.81402162e-03, -1.27568189e-02, 2.41624468e-04, -4.66178618e-02,
       1.15423603e-02, -1.33745882e-04, -3.68287526e-02, -3.94268185e-02,
       2.38876212e-02, 2.02193707e-02, 9.20591690e-03, 1.17117232e-02,
       -3.85666527e-02, -9.44181811e-03, 1.69652868e-02, -1.54855773e-02,
       -3.64661105e-02, 6.65028347e-03, 6.29303325e-03, 5.08325361e-02,
       2.54334174e-02, -9.73572116e-03, -3.86184007e-02, -3.54223438e-02,
       -2.99118664e-02, -8.15160573e-03, 3.33209299e-02, 1.22461179e-02,
       6.08867332e-02, -8.78458843e-03, -1.41236419e-02, -1.51062757e-02,
       8.89292359e-03, 3.20283473e-02, 6.50928020e-02, 3.73117737e-02,
       2.05854271e-02, -8.91458150e-03, -2.89840857e-03, -5.85310236e-02,
       -2.05293726e-02, -1.50301568e-02, -1.07983779e-02,
       -2.98222918e-02, -3.52533651e-03, -1.46342190e-02,
       -4.66450257e-03, 1.12002511e-02, -2.86503974e-02, 6.79191621e-03,
       -2.50612181e-02, 1.08846258e-02, 5.79277147e-03, -1.03905089e-02,
       1.02023380e-02, 3.88625301e-02, -1.11623304e-02, -1.04034599e-02,
       -1.19329419e-03, 8.04852787e-03, 3.07319462e-02, 5.81684187e-02,
       1.98121257e-02, 3.22639570e-02, -5.25534293e-03, 1.62185542e-02,
       1.94296930e-02, 8.15573323e-04, -5.47603006e-03, 2.83898525e-02,
       1.91552117e-02, 1.61867887e-02, -4.42199921e-03, 3.23766619e-02,
       1.59193538e-02, -3.60682532e-02, -2.62884633e-03, -9.56946891e-03,
       -6.10140665e-03, 1.35221127e-02, 2.07034834e-02, 2.12163501e-03,
       -4.05448601e-02, -2.68845470e-03, -1.70396250e-02,
       -2.51256712e-02, -2.66089048e-02, -8.04246869e-03, 1.17677939e-03,
       -1.18869236e-02, -2.54112892e-02, 2.00545900e-02, 3.91885377e-02,
       3.54252718e-02, 1.87661331e-02, 6.19847216e-02, 5.87818287e-02,
       2.04267558e-02, 6.55829459e-02, 2.85679307e-02, -7.59236002e-03,
       -1.33861257e-02, -1.73568968e-02, 6.09838683e-03, -2.43255869e-02,
       -1.70353707e-02, -1.06745977e-02, -1.65952519e-02,
       -3.69334370e-02, -1.27143459e-02, -5.71520440e-03, 1.08063500e-02,
       1.02669699e-03, 3.97551097e-02, 4.20495346e-02, 1.25694526e-02,
       -1.76282376e-02, -3.70091968e-03, -2.52171941e-02,
       -3.55914384e-02, -2.87419129e-02, 2.32667606e-02, -1.01469485e-02,
       -2.73502897e-02, -2.57727355e-02, -5.48409335e-02,
       -3.74830030e-02, 6.03307411e-03, 2.56483182e-02, 1.07237101e-02,
       1.24864792e-02, -3.65878604e-02, -1.29865697e-02, -1.07705072e-02,
       -1.17653366e-02, -3.68397236e-02, -3.86598147e-02, 9.60905664e-03,
       2.96985973e-02, 9.76699498e-03, -6.11441396e-02, -1.85724348e-02,
       -4.19919752e-02, -7.09708035e-02, -3.21545713e-02, 1.14628021e-02,
       3.24180932e-03, 6.07588189e-03, 9.83403809e-03, -1.14150681e-02,
       2.08192952e-02, 4.51278463e-02, 1.77565962e-02, -1.22794760e-02,
       -4.19455841e-02, -3.24362107e-02, 4.67532873e-02, 2.86920182e-02,
       -1.00929588e-02, 3.71931382e-02, 1.55715253e-02, -4.66009881e-03,
       -2.19034217e-02, 4.03588451e-02, -1.03336927e-02, -3.36267380e-03,
       -2.42838985e-03, 7.73584878e-04, -4.15429138e-02, -3.35964188e-02,
       -1.54657075e-02, -1.11331725e-02, 2.60995273e-02, 1.97083261e-02,
       -8.26138910e-03, 1.10862413e-02, -4.34608124e-02, -3.01118959e-02,
       1.31342011e-02, 7.10165652e-04, -9.33350530e-03, 3.81842591e-02,
       -3.18352208e-02, -5.41383550e-02, 1.98661108e-02, 1.05390027e-02,
       3.55009846e-02, 1.92622077e-02, 1.28275473e-02, 4.98233140e-02,
       2.92422101e-02, 1.39393499e-02, -1.51942996e-02, 4.91763465e-02,
       -1.29410466e-02, 1.55268721e-02, 1.70935038e-02, 2.15136562e-03,
       1.97710469e-02, 1.55348191e-02, -1.04075368e-03, -2.31967792e-02,
       3.36254798e-02, 3.60836871e-02, -1.52318431e-02, -2.23952974e-03,
       6.41942257e-03, 1.50242951e-02, 1.23100495e-02, -1.43478010e-02,
       -1.93867423e-02, 1.93578154e-02, -2.28935685e-02, -1.68968663e-02,
       2.01392826e-03, 1.35360043e-02, 1.33705074e-02, 3.15880664e-02,
       9.65247210e-03, -3.19610983e-02, 7.89096393e-03, 1.16961524e-02,
       -1.15725258e-02, -3.10595017e-02, -1.10750590e-02, 1.45724490e-02,
       1.77175365e-02, -3.90967540e-03, -7.28284568e-03, 1.81723963e-02,
       -1.12033701e-02, -2.12278813e-02, -4.01120074e-02, 9.31309722e-03,
       -1.85098890e-02, 2.21872535e-02, 5.91724319e-03, 3.70384147e-03,
       4.42001559e-02, 3.94616909e-02, -1.21030854e-02, 1.67001709e-02,
       2.56677978e-02, 8.03647097e-03, -1.53333601e-03, 2.82586366e-02,
       4.20541561e-04, 2.52422094e-02, 5.02552371e-03, -3.70294861e-02,
       -3.22061703e-02, -8.32730031e-04, -2.80232523e-02,
       -2.65136268e-02, -3.12226582e-02, -3.93351726e-03, 5.06616309e-02,
       3.86161916e-02, -2.51189228e-02, -1.15355914e-02, 9.01727378e-03,
       -4.22107149e-03, 1.17017457e-03, -2.40297504e-02, -2.60484964e-03,
       -6.66779792e-03, 1.25728259e-02, -2.30779108e-02, -4.27884888e-03,
       6.81532966e-03, 5.80292894e-03, 3.43942530e-02, 2.04546023e-02,
       1.90874916e-02, -2.76990840e-03, -9.53602791e-03, 8.77789035e-03,
       7.47064408e-03, 3.23751532e-02, -4.68152663e-04, 2.05105841e-02,
       1.57706439e-03, -2.94578541e-02, -1.43361762e-02, -1.37897385e-02,
       -2.66088136e-02, -3.37900175e-03, 3.16260867e-02, -2.87820362e-02,
       -7.52857281e-03, -2.12186277e-02, -2.60484908e-02,
       -1.11382511e-02, 1.34442328e-02, 1.39722545e-02, 3.07898503e-02,
       -5.30239940e-03, 3.71941435e-03, -1.60012383e-03, -1.11546917e-02,
       -2.41178777e-02, -1.10754091e-02, -9.51344497e-04,
       -4.38404530e-02, 4.31431876e-03, -1.30520789e-02, -3.42833996e-02,
       2.03743018e-02, 2.79162508e-02, -2.74040960e-02, 1.79879386e-02,
       1.09281717e-02, -5.79112489e-03, 5.87376095e-02, 5.17151840e-02,
       8.07494577e-03, 9.00274515e-03, 1.84452254e-02, -1.12539285e-03,
       -1.33583667e-02, -3.86139974e-02, -1.69591196e-02, 3.59243453e-02,
       3.54139470e-02, -9.44623351e-03, -6.04989147e-03, 4.01399005e-03,
       -1.26512125e-02, 1.96403805e-02, -6.62593637e-03, -6.74688118e-03,
       4.86554503e-02, 5.44450320e-02, -5.65636298e-03, -1.37525629e-02,
       -1.46938926e-02, -6.75366912e-03, 2.12758444e-02, -3.83519344e-02,
       -3.28147598e-02, -1.86774172e-02, 7.22159306e-03, -3.12469844e-02,
       -8.15605652e-03, 2.89760251e-02, 1.81590132e-02, 3.60911654e-04,
       -1.92741025e-02, -2.30058394e-02, 2.51286309e-02, 3.71655077e-02,
       1.46798091e-02, -5.54736413e-04, 2.98968772e-03, 1.89887527e-02,
       -2.12543756e-02, -3.04328073e-02, -3.80406086e-03, 1.58884691e-03,
       1.90000571e-02, 6.31820830e-03, 1.80778243e-02, 1.58657413e-02,
       2.06310246e-02, 2.36922521e-02, 4.59701456e-02, -2.51639616e-02,
       4.58046142e-03, -2.50097387e-03, 1.86858829e-02, 1.80692377e-03,
       -1.54281110e-02, 5.47285099e-03, -1.26448283e-02, -2.41682157e-02,
       7.38131857e-05, 1.35680009e-02, -1.88654773e-02, -1.62656885e-02,
       2.22181659e-02, -3.15693486e-03, -1.53114190e-02, 1.68661913e-03,
       3.88391167e-02, 1.81818195e-02, 1.63500383e-02, 5.33394851e-02,
       2.99466848e-02, 4.42468049e-03, 1.80658221e-03, -1.20387180e-02,
       9.77112213e-04, 2.20405553e-02, -2.49580238e-02, 4.78579756e-03,
       4.38087843e-02, 1.54044377e-02, 1.50708631e-02, -1.52660906e-02,
       -1.96638573e-02, 4.54463856e-03, 4.89972718e-03, 4.11696844e-02,
       -7.43989891e-04, -4.56754351e-03, -4.56132274e-03, 1.82503313e-02,
       2.43100114e-02, -1.12827355e-02, -5.16542234e-03, 2.67244857e-02,
       -1.21104801e-02, -7.84183200e-03, 3.64675978e-03, -1.64886285e-02,
       -4.21484886e-03, 2.57856157e-02, -1.37855988e-02, 7.45056896e-04,
       2.38524517e-03, 1.35533856e-02, 4.90051415e-03, 6.49540722e-02,
       1.52310263e-02, -2.01291423e-02, -1.13440836e-02, -2.12226361e-02,
       2.96005979e-02, -2.24962216e-02, 2.64589470e-02, -3.47942263e-02,
       4.01160307e-02, 2.08518431e-02, 1.15627395e-02, 1.70449968e-02,
       1.35165174e-02, -1.94653068e-02, 9.19804536e-03, 4.06694133e-03,
       3.42325121e-03, 9.49049275e-03, -1.55626126e-02, -3.25826108e-02,
       -1.21091260e-02, -2.70573422e-02, -2.88740173e-02,
       -3.64191569e-02, 1.20121026e-02, -2.67464761e-02, 3.33865755e-03,
       -1.06845396e-02, -3.11228000e-02, 2.02288609e-02, 7.61594810e-03,
       5.45704551e-02, 6.63501211e-03, 2.96324790e-02, -3.56199108e-02,
       2.32235342e-02, -1.29055688e-02, -2.57009696e-02, -4.03601862e-03,
       -5.53684682e-03, -2.41011381e-03, -9.79081728e-03, 3.59102190e-02,
       -1.35546084e-02, 4.08281609e-02, -1.92862041e-02, 1.29107395e-02,
       -2.07576994e-02, -5.33185191e-02, -5.25219180e-03,
       -1.17352298e-02, 1.47432378e-02, -2.69044824e-02, -1.20787947e-04,
       -4.63820109e-03, 4.73033870e-03, -1.48273930e-02, -3.38252448e-02,
       -8.21609795e-03, -3.09835505e-02, 4.37723380e-03, -1.61081888e-02,
       4.11236333e-03, 1.34042064e-02, -5.49926646e-02, 6.67052623e-03,
       1.26480078e-02, -8.54356494e-03, -2.08918774e-03, 2.01359857e-02,
       -8.85388069e-03, 4.51930575e-02, 5.75798703e-03, -8.34144186e-03,
       -2.80424923e-04, -4.64618020e-02, 3.12468130e-03, -3.11154872e-02,
       8.62942077e-03, -1.28699280e-02, 2.84450147e-02, -3.80110648e-03,
       -2.36255713e-02, 6.29249122e-03, -3.37239285e-03, -1.25077516e-02,
       -7.61548104e-03, -1.45989936e-02, -3.32087614e-02,
       -5.05190203e-03, -1.41429175e-02, 2.23091547e-03, -3.05199511e-02,
       -4.91595902e-02, 5.72643289e-03, -2.38763392e-02, -1.78495869e-02,
       -5.53539544e-02, 2.76723271e-03, 3.85323819e-03, -1.78111084e-02,
       2.62390682e-03, -2.96463887e-03, 2.02549566e-02, 1.35829644e-02,
       1.87823211e-03, 2.37524230e-03, 3.02054677e-02, -1.42849935e-02,
       -2.64312532e-02, -2.02803165e-02, -2.10971385e-02, 4.15329412e-02,
       1.83495469e-02, 1.53960669e-02, 3.21294111e-03, 8.09825119e-03,
       -2.64470484e-02, 1.14939082e-02, -1.18717067e-02, -1.59335826e-02,
       -3.05446610e-03, 1.84798194e-03, -1.57363787e-02, -2.97459532e-02,
       2.66518220e-02, 2.03052871e-02, -5.18281851e-03, -1.58735234e-02,
       -3.16657610e-02, -1.12209367e-02, -4.75445129e-02, 1.07926887e-03,
       -2.65757348e-02, -1.18135065e-02, -4.34677638e-02,
       -1.58655443e-04, 2.54595117e-03, -2.60500759e-02, 2.13429891e-02,
       1.57451611e-02, 1.96550544e-02, 1.69863012e-02, 3.86839099e-02,
       -6.16320968e-03, -1.70709491e-02, 1.09326504e-02, -7.97907822e-03,
       1.24392025e-02, -2.03178078e-02, 2.60107554e-02, 2.49677375e-02,
       2.53592320e-02, 3.15531120e-02, 3.94516252e-02, 1.21668482e-03,
       -4.41056602e-02, -9.62489750e-03, -7.76041452e-06, 2.41343416e-02,
       -1.14538828e-02, -1.35103043e-03, -1.64220035e-02,
       -4.37444672e-02, -1.53749129e-02, -5.14630750e-02,
       -3.35689932e-02, -3.86118032e-02, -1.34347919e-02,
       -1.41931011e-03, 1.62212681e-02, -1.09712621e-02, 5.12844929e-03,
       2.36700922e-02, 4.07657539e-03, 5.30568436e-02, 3.99148166e-02,
       1.82369351e-02, 1.55870998e-02, 2.80538052e-02, 1.86877660e-02,
       -1.49655221e-02, 3.91825512e-02, 1.43235661e-02, 3.10863033e-02,
       -3.48046012e-02, -2.52636755e-03, 1.17262211e-02, 1.53053906e-02,
       -1.78358867e-03, -3.26281264e-02, -1.42368926e-02,
       -1.54409055e-02, -1.20131569e-02, -9.62247048e-03, 1.08112097e-02,
       -8.43279646e-04, 5.72269317e-03, -2.51934212e-02, -1.65215302e-02,
       -9.07299574e-03, 8.19829572e-03, 2.05134670e-03, -3.31179313e-02,
       -3.87988146e-03, -2.91152182e-03, -1.06451558e-02,
       -2.43499931e-02, -2.32945960e-02, 2.02831198e-02, 2.40378398e-02,
       1.99070908e-02, 1.76175926e-02, 3.78169939e-02, 2.24321727e-02,
       -9.88421869e-03, 8.03199876e-03, -4.79581300e-03, -1.04451664e-02,
       -9.21717007e-03, -1.45476998e-03, 2.52720388e-03, 2.12136540e-03,
       -8.20642058e-03, -2.40954943e-02, -2.65965406e-02,
       -1.44009301e-02, -1.84965562e-02, 1.74612924e-02, 1.75018348e-02,
       -2.92990776e-03, 5.30514820e-03, 9.66100954e-03, -2.67532170e-02,
       -1.19815711e-02, -7.09614111e-03, -6.23567440e-02,
       -3.01817954e-02, -1.70757566e-02, -3.23613882e-02,
       -3.54711642e-03, -9.27912910e-03, -2.57329140e-02,
       -2.77337581e-02, 2.74345987e-02, 1.49414781e-02, -8.20016209e-03,
       -2.04038136e-02, -2.92996061e-03, 1.02822166e-02, -3.74394027e-03,
       -1.12748099e-02, -3.20230890e-03, -3.41571048e-02,
       -4.64792177e-02, -1.65039618e-02, -1.70117784e-02,
       -1.23580480e-02, 4.38435152e-02, 2.19605630e-03, -2.71866675e-02,
       -7.10830698e-03, 5.91897778e-03, -2.60339677e-02, -1.35408556e-02,
       -2.12594587e-02, -6.95344340e-03, -7.05846527e-04,
       -2.95814425e-02, -2.08193772e-02, -1.92837697e-02, 1.29048992e-02,
       -2.68436782e-02, -2.85119154e-02, -2.34935172e-02,
       -3.76714543e-02, -7.28417747e-03, -2.59776190e-02,
       -3.58549468e-02, -1.88326731e-03, 3.84544558e-03, -1.52028082e-02,
       -4.68575247e-02, 6.81799464e-03, 2.42298096e-02, 6.56107366e-02,
       7.18788197e-03, -7.25021004e-04, 2.89690215e-02, -9.38207190e-03,
       1.72066223e-02, -6.49354188e-03, 5.58550209e-02, -2.18487214e-02,
       1.97399165e-02, -5.62390732e-03, -3.08413189e-02, -1.38529791e-02,
       3.89784314e-02, 1.57866105e-02, -2.85627451e-02, -1.38671221e-02,
       9.32086539e-03, 4.05300334e-02, -1.63367465e-02, -1.56534836e-02,
       1.61556546e-02, 1.67210568e-02, 3.29414047e-02, -2.88706888e-02,
       3.45029719e-02, 9.59242787e-03, 9.53936763e-03, 7.95079613e-05,
       -2.40714420e-02, 1.98209304e-02, 4.65075206e-03, 5.71151730e-03,
       -2.49170717e-02, 2.64081103e-03, 2.81891767e-02, 4.57407311e-02,
       1.69622432e-02, 2.45133545e-02, 1.10837473e-02, 5.36253536e-03,
       5.10100555e-03, -3.16860038e-03, -5.22513641e-03, 1.49019377e-03,
       1.24024441e-02, -9.88033041e-03, 2.72953138e-02, -4.42879647e-03,
       8.18569120e-03, 1.10436324e-02, -2.48738527e-02, 3.48858163e-03,
       2.44907495e-02, 2.28862762e-02, 2.63546165e-02, -1.71825261e-04,
       1.05233463e-02, -2.68069748e-02, 1.28163155e-02, -4.39077849e-03,
       -1.15910619e-02, -4.26806696e-02, 1.64872017e-02, -1.21219195e-02,
       -1.68003086e-02, -1.19124744e-02, -1.25952596e-02, 2.70263664e-02,
       1.58572383e-02, 3.05167027e-02, 1.73865594e-02, -1.62255503e-02,
       -2.16891500e-03, 1.57714561e-02, 9.23463516e-03, -5.25490264e-04,
       3.15350257e-02, 7.41157308e-03, -1.85544137e-02, 1.60025153e-02,
       -2.35199314e-02, 2.02591950e-03, 8.52300506e-03, -1.30294999e-02,
       9.04732104e-03, 1.54280001e-02, -2.27357494e-03, 1.45947281e-02,
       1.59947341e-03, -8.61537177e-03, 3.09491903e-03, 9.25984420e-03,
       2.38270666e-02, 1.44955916e-02, 1.49361640e-02, 7.55388569e-03,
       1.07758967e-02, 2.67705172e-02, -2.19720621e-02, 2.40104506e-03,
       -1.55908046e-02, -2.67769471e-02, -8.35209619e-03, 1.86102074e-02,
       -6.02878025e-03, -1.17427763e-02, 4.45665233e-03, 2.32368633e-02,
       2.96069179e-02, 2.91287918e-02, 1.45934746e-02, -2.02088859e-02,
       2.91546341e-02, -2.76694517e-03, 8.06289783e-04, -3.28133367e-02,
       -2.11053006e-02, -7.75291701e-05, -1.36528108e-02,
       -1.97025537e-02, 7.85801240e-05, 8.80671386e-03, 2.12380593e-03,
       6.89839991e-03, -1.55876959e-02, -3.11002992e-02, -1.84048153e-02,
       5.46503952e-03, -3.96180786e-02, -2.71453578e-02, 1.08767869e-02,
       -2.92877387e-02, -7.06475368e-03, -1.19435154e-02,
       -2.42460016e-02, -1.92208271e-02, 2.27730777e-02, -4.50149924e-02,
       -2.64928974e-02, 6.76400959e-02, 1.21949231e-02, 3.14258318e-03,
       -8.19912821e-04, 1.13719504e-03, 9.83958878e-03, 2.62702461e-02,
       -2.10713595e-02, -1.39698079e-02, 7.00413156e-03, 2.19401182e-03,
       1.30090620e-02, -1.31648844e-02, -2.11187527e-02, -4.12945040e-02,
       -2.97097731e-02, -2.81012543e-02, -2.50971429e-02, 2.59632990e-02,
       -3.82609144e-02, -3.23744747e-03, 5.14229108e-03, -3.62418499e-03,
       -7.07206607e-04, 5.34882061e-02, -2.33991724e-02, -2.25847121e-02,
       -2.23139096e-02, -4.27727699e-02, 2.75377021e-03, -2.16608066e-02,
       -1.81017127e-02, -3.57820652e-02, -1.27143925e-02,
       -9.62180435e-04, -6.51297951e-03, 2.65165493e-02, 5.44504449e-03,
       1.19011588e-02, 3.64603475e-02, -5.90787781e-03, -8.85491353e-03,
       -4.13279794e-03, 4.37216349e-02, -2.24294583e-03, 2.34748796e-03,
       -9.18937102e-03, -3.22859474e-02, 2.09567277e-03, -1.45769836e-02,
       2.38978001e-03, 2.01692563e-02, 1.48511352e-02, -1.95891154e-03,
       -1.62974503e-02, -7.96674006e-03, -4.85611940e-03, 1.34334611e-02,
       -1.59809738e-02, -6.24943106e-03, -4.13806774e-02,
       -9.02939704e-04, -2.72905380e-02, 1.49841560e-02, 3.00961896e-03,
       -2.60475632e-02, -1.76235773e-02, -4.17860821e-02,
       -4.59957160e-02, -3.94098386e-02, -2.04038341e-02, 1.90141592e-02,
       1.58167668e-02, -6.04515895e-03, 5.22976229e-03, -3.61164508e-04,
       2.99821608e-02, -1.49367293e-02, 4.58157016e-03, 2.03366484e-02,
       1.61837954e-02, 1.55851441e-02, -2.92004552e-02, -1.32296141e-02,
       -3.43967378e-02, -2.66286712e-02, -4.44580913e-02,
       -1.49402544e-02, -3.46911922e-02, 1.91435087e-02, 8.29641335e-03,
       -2.02340409e-02, 7.99835660e-03, 8.34563561e-03, 3.45306173e-02,
       -1.12631246e-02, 2.13992386e-03, -1.87564902e-02, -2.48126779e-02,
       -1.51073374e-02, -5.82296029e-02, -5.25802001e-03,
       -4.24595885e-02, -2.39502508e-02, -5.76209053e-02,
       -2.88956799e-03, -3.33390161e-02, 8.07391480e-03, 1.19898086e-02,
       2.25778073e-02, 2.49786433e-02, 1.70119666e-02, -1.33026466e-02,
       -5.04274620e-03, 1.69577275e-03, -3.99730802e-02, -3.60467508e-02,
       -8.44414870e-04, 2.34642494e-02, 5.34061622e-03, -3.98081541e-02,
       1.24619743e-02, 3.88622354e-03, -9.57768410e-03, -2.84817368e-02,
       -6.62789121e-03, -1.63799133e-02, -5.07639684e-02, 1.03366822e-02,
       -9.30640195e-03, -2.92260423e-02, -2.92322468e-02,
       -1.31590217e-02, -6.53567910e-03, -3.71200442e-02, 5.30548580e-03,
       -2.61640325e-02, 1.53836170e-02, -5.48095517e-02, -8.57000332e-03,
       -1.24489283e-02, -1.75869912e-02, -3.04009393e-02,
       -5.38003724e-03, 1.67988073e-02, 4.47287085e-03, -7.05105672e-03,
       -1.77340545e-02, 1.89021472e-02, 1.89746842e-02, 1.21711567e-03,
       7.23137200e-05, -1.42950937e-02, 2.00074278e-02, -3.27892788e-03,
       -3.04246228e-03, -3.63584049e-02, 5.71613200e-03, 3.11566237e-02,
       3.51293571e-03, -1.18515156e-02, 1.66385574e-03, 3.83571925e-04,
       1.39531400e-03, -2.22154125e-03, -1.79022551e-02, 2.80850157e-02,
       1.52879553e-02, 2.13116873e-02, -1.47857275e-02, -1.17258504e-02,
       1.39692621e-02, -1.45466039e-02, -1.73529163e-02, -1.83573104e-02,
       1.00418571e-02, -9.58412362e-04, 3.85026651e-04, -1.83002111e-02,
       9.08572692e-03, 4.97004613e-02, 1.77533773e-03, 1.51261017e-02,
       -7.85905495e-03, 1.51179079e-02, 1.07212132e-02, 2.43212027e-03,
       -9.19073913e-03, 5.68113383e-03, 8.66966508e-03, -1.49536515e-02,
       2.64148656e-02, -1.28477290e-02, 2.66893934e-02, -2.67956462e-02,
       -8.93798005e-03, -2.42449120e-02, 3.16505432e-02, 4.55093943e-03,
       -4.31993045e-02, -2.99465675e-02, -2.49676034e-02,
       -2.62143984e-02, -4.87972461e-02, -2.82003153e-02,
       -1.01270936e-02, 2.66564381e-03, -5.77786192e-02, -6.21982627e-02,
       1.59100757e-03, -1.53538724e-02, -3.95380333e-02, -6.32483438e-02,
       -6.58952817e-02, 1.62103996e-02, 1.94549318e-02, 1.56094087e-02,
       6.33221585e-03, 2.72577591e-02, -1.48340510e-02, 1.89995766e-02,
       -2.67507951e-03, -1.38296629e-04, 2.07943898e-02, -1.02137038e-02,
       7.53914472e-03, -4.88572009e-03, -1.73966344e-02, -2.62832344e-02,
       1.52742742e-02, 8.13766383e-03, 9.41922516e-03, -3.28517556e-02,
       -2.80991532e-02, -5.23636006e-02, -4.96355407e-02, 8.73772334e-03,
       -1.62574537e-02, -2.71716807e-03, -1.97607353e-02,
       -3.25482748e-02, -6.97358139e-03, -6.89475425e-03,
       -5.74681850e-04, -4.12481800e-02, -3.02203582e-03,
       -1.03043644e-02, 6.04221178e-03, -1.05333782e-03, -2.46689357e-02,
       -1.16752014e-02, 2.38953214e-02, 2.91148871e-02, 7.51214428e-03,
       1.75284613e-02, 5.95660554e-03, 2.40415037e-02, -1.38770770e-02,
       -8.85987747e-03, -2.51024123e-02, -2.37981360e-02,
       -1.08670993e-02, -4.24248353e-03, 5.20344451e-03, -3.18896659e-02,
       -9.22034029e-03, -2.14505587e-02, -1.45426830e-02,
       -4.40873392e-02, 3.90324160e-03, 2.30159052e-02, -2.55956128e-02,
       1.68537383e-03, -2.57861037e-02, 1.80548113e-02, -3.59710655e-03,
       -4.08807173e-02, -1.08532226e-02, -3.92348431e-02,
       -7.28477258e-03, -8.90438445e-03, 6.97072782e-03, -5.63352220e-02,
       -1.70515738e-02, -4.64637689e-02, -5.25546037e-02,
       -3.65421250e-02, -1.79314874e-02, 1.64037440e-02, 1.91139951e-02,
       2.02492420e-02, 6.79270597e-03, 2.20497195e-02, 1.03016710e-02,
       2.10748427e-02, 4.27899929e-03, -1.80900358e-02, -8.77893763e-04,
       1.62118003e-02, -7.11064495e-04, -3.38669866e-02, -3.34486663e-02,
       4.63846233e-03, 2.75506936e-02, -1.43375602e-02, -4.11392190e-02,
       -9.79966763e-03, -1.00379921e-02, 5.08975610e-02, 7.29656685e-03,
       2.76612900e-02, -1.79620516e-02, 1.26420120e-02, -7.39243068e-03,
       -5.29157370e-02, 6.38376782e-03, -2.26681978e-02, 9.27038316e-04,
       -2.48884615e-02, -3.79770882e-02, -3.24119516e-02,
       -6.06455980e-03, -3.10168769e-02, 3.17156538e-02, -4.30122390e-03,
       2.74840761e-02, 8.26667808e-03, 2.78107217e-03, 6.31608476e-04,
       2.33914107e-02, 1.58659462e-02, -2.46158391e-02, 2.39364710e-02,
       -5.03697023e-02, -3.89025100e-02, -1.42700772e-03, 3.93831870e-03,
       1.76070072e-02, 2.15743016e-02, -1.51928840e-02, -1.15765901e-02,
       -3.32718878e-03, 2.43835058e-02, -1.92598160e-02, -1.74950920e-02,
       1.08243683e-02, 2.10683532e-02, 3.19342799e-02, 2.24217251e-02,
       -3.58432122e-02, -2.61197449e-03, -4.81114537e-02,
       -4.57971655e-02, -4.16271994e-03, -1.86984278e-02, 4.13640700e-02,
       3.36190611e-02, -2.48808647e-03, -2.50670183e-02, 4.06592637e-02,
       -1.21935187e-02, -6.56857714e-03, -3.08990432e-03,
       -2.62204763e-02, 9.33661126e-03, -6.11474924e-03, 7.84606952e-03,
       1.39716193e-02, 3.27320360e-02, 1.69213512e-03, 1.69732571e-02,
       7.16038886e-03, -4.69136573e-02, -2.21162606e-02, -1.56766195e-02,
       6.99465349e-03, 7.70792505e-03, -4.73880908e-03, -2.25783624e-02,
       -1.93996169e-02, -2.52171308e-02, -5.67418672e-02, 1.39754992e-02,
       -5.22378413e-03, 1.09031135e-02, -1.61983650e-02, 1.45986686e-02,
       2.90541798e-02, -6.08689059e-03, -4.26483080e-02, -3.50734890e-02,
       4.89313807e-03, -1.61910597e-02, -4.30246117e-03, -8.94992799e-03 ]
